{"learner":{"attributes":{},"feature_names":[],"feature_types":[],"gradient_booster":{"model":{"cats":{"enc":[],"feature_segments":[],"sorted_idx":[]},"gbtree_model_param":{"num_parallel_tree":"1","num_trees":"2191"},"iteration_indptr":[0,1,2,3,4,5,6,7,8,9,10,11,12,13,14,15,16,17,18,19,20,21,22,23,24,25,26,27,28,29,30,31,32,33,34,35,36,37,38,39,40,41,42,43,44,45,46,47,48,49,50,51,52,53,54,55,56,57,58,59,60,61,62,63,64,65,66,67,68,69,70,71,72,73,74,75,76,77,78,79,80,81,82,83,84,85,86,87,88,89,90,91,92,93,94,95,96,97,98,99,100,101,102,103,104,105,106,107,108,109,110,111,112,113,114,115,116,117,118,119,120,121,122,123,124,125,126,127,128,129,130,131,132,133,134,135,136,137,138,139,140,141,142,143,144,145,146,147,148,149,150,151,152,153,154,155,156,157,158,159,160,161,162,163,164,165,166,167,168,169,170,171,172,173,174,175,176,177,178,179,180,181,182,183,184,185,186,187,188,189,190,191,192,193,194,195,196,197,198,199,200,201,202,203,204,205,206,207,208,209,210,211,212,213,214,215,216,217,218,219,220,221,222,223,224,225,226,227,228,229,230,231,232,233,234,235,236,237,238,239,240,241,242,243,244,245,246,247,248,249,250,251,252,253,254,255,256,257,258,259,260,261,262,263,264,265,266,267,268,269,270,271,272,273,274,275,276,277,278,279,280,281,282,283,284,285,286,287,288,289,290,291,292,293,294,295,296,297,298,299,300,301,302,303,304,305,306,307,308,309,310,311,312,313,314,315,316,317,318,319,320,321,322,323,324,325,326,327,328,329,330,331,332,333,334,335,336,337,338,339,340,341,342,343,344,345,346,347,348,349,350,351,352,353,354,355,356,357,358,359,360,361,362,363,364,365,366,367,368,369,370,371,372,373,374,375,376,377,378,379,380,381,382,383,384,385,386,387,388,389,390,391,392,393,394,395,396,397,398,399,400,401,402,403,404,405,406,407,408,409,410,411,412,413,414,415,416,417,418,419,420,421,422,423,424,425,426,427,428,429,430,431,432,433,434,435,436,437,438,439,440,441,442,443,444,445,446,447,448,449,450,451,452,453,454,455,456,457,458,459,460,461,462,463,464,465,466,467,468,469,470,471,472,473,474,475,476,477,478,479,480,481,482,483,484,485,486,487,488,489,490,491,492,493,494,495,496,497,498,499,500,501,502,503,504,505,506,507,508,509,510,511,512,513,514,515,516,517,518,519,520,521,522,523,524,525,526,527,528,529,530,531,532,533,534,535,536,537,538,539,540,541,542,543,544,545,546,547,548,549,550,551,552,553,554,555,556,557,558,559,560,561,562,563,564,565,566,567,568,569,570,571,572,573,574,575,576,577,578,579,580,581,582,583,584,585,586,587,588,589,590,591,592,593,594,595,596,597,598,599,600,601,602,603,604,605,606,607,608,609,610,611,612,613,614,615,616,617,618,619,620,621,622,623,624,625,626,627,628,629,630,631,632,633,634,635,636,637,638,639,640,641,642,643,644,645,646,647,648,649,650,651,652,653,654,655,656,657,658,659,660,661,662,663,664,665,666,667,668,669,670,671,672,673,674,675,676,677,678,679,680,681,682,683,684,685,686,687,688,689,690,691,692,693,694,695,696,697,698,699,700,701,702,703,704,705,706,707,708,709,710,711,712,713,714,715,716,717,718,719,720,721,722,723,724,725,726,727,728,729,730,731,732,733,734,735,736,737,738,739,740,741,742,743,744,745,746,747,748,749,750,751,752,753,754,755,756,757,758,759,760,761,762,763,764,765,766,767,768,769,770,771,772,773,774,775,776,777,778,779,780,781,782,783,784,785,786,787,788,789,790,791,792,793,794,795,796,797,798,799,800,801,802,803,804,805,806,807,808,809,810,811,812,813,814,815,816,817,818,819,820,821,822,823,824,825,826,827,828,829,830,831,832,833,834,835,836,837,838,839,840,841,842,843,844,845,846,847,848,849,850,851,852,853,854,855,856,857,858,859,860,861,862,863,864,865,866,867,868,869,870,871,872,873,874,875,876,877,878,879,880,881,882,883,884,885,886,887,888,889,890,891,892,893,894,895,896,897,898,899,900,901,902,903,904,905,906,907,908,909,910,911,912,913,914,915,916,917,918,919,920,921,922,923,924,925,926,927,928,929,930,931,932,933,934,935,936,937,938,939,940,941,942,943,944,945,946,947,948,949,950,951,952,953,954,955,956,957,958,959,960,961,962,963,964,965,966,967,968,969,970,971,972,973,974,975,976,977,978,979,980,981,982,983,984,985,986,987,988,989,990,991,992,993,994,995,996,997,998,999,1000,1001,1002,1003,1004,1005,1006,1007,1008,1009,1010,1011,1012,1013,1014,1015,1016,1017,1018,1019,1020,1021,1022,1023,1024,1025,1026,1027,1028,1029,1030,1031,1032,1033,1034,1035,1036,1037,1038,1039,1040,1041,1042,1043,1044,1045,1046,1047,1048,1049,1050,1051,1052,1053,1054,1055,1056,1057,1058,1059,1060,1061,1062,1063,1064,1065,1066,1067,1068,1069,1070,1071,1072,1073,1074,1075,1076,1077,1078,1079,1080,1081,1082,1083,1084,1085,1086,1087,1088,1089,1090,1091,1092,1093,1094,1095,1096,1097,1098,1099,1100,1101,1102,1103,1104,1105,1106,1107,1108,1109,1110,1111,1112,1113,1114,1115,1116,1117,1118,1119,1120,1121,1122,1123,1124,1125,1126,1127,1128,1129,1130,1131,1132,1133,1134,1135,1136,1137,1138,1139,1140,1141,1142,1143,1144,1145,1146,1147,1148,1149,1150,1151,1152,1153,1154,1155,1156,1157,1158,1159,1160,1161,1162,1163,1164,1165,1166,1167,1168,1169,1170,1171,1172,1173,1174,1175,1176,1177,1178,1179,1180,1181,1182,1183,1184,1185,1186,1187,1188,1189,1190,1191,1192,1193,1194,1195,1196,1197,1198,1199,1200,1201,1202,1203,1204,1205,1206,1207,1208,1209,1210,1211,1212,1213,1214,1215,1216,1217,1218,1219,1220,1221,1222,1223,1224,1225,1226,1227,1228,1229,1230,1231,1232,1233,1234,1235,1236,1237,1238,1239,1240,1241,1242,1243,1244,1245,1246,1247,1248,1249,1250,1251,1252,1253,1254,1255,1256,1257,1258,1259,1260,1261,1262,1263,1264,1265,1266,1267,1268,1269,1270,1271,1272,1273,1274,1275,1276,1277,1278,1279,1280,1281,1282,1283,1284,1285,1286,1287,1288,1289,1290,1291,1292,1293,1294,1295,1296,1297,1298,1299,1300,1301,1302,1303,1304,1305,1306,1307,1308,1309,1310,1311,1312,1313,1314,1315,1316,1317,1318,1319,1320,1321,1322,1323,1324,1325,1326,1327,1328,1329,1330,1331,1332,1333,1334,1335,1336,1337,1338,1339,1340,1341,1342,1343,1344,1345,1346,1347,1348,1349,1350,1351,1352,1353,1354,1355,1356,1357,1358,1359,1360,1361,1362,1363,1364,1365,1366,1367,1368,1369,1370,1371,1372,1373,1374,1375,1376,1377,1378,1379,1380,1381,1382,1383,1384,1385,1386,1387,1388,1389,1390,1391,1392,1393,1394,1395,1396,1397,1398,1399,1400,1401,1402,1403,1404,1405,1406,1407,1408,1409,1410,1411,1412,1413,1414,1415,1416,1417,1418,1419,1420,1421,1422,1423,1424,1425,1426,1427,1428,1429,1430,1431,1432,1433,1434,1435,1436,1437,1438,1439,1440,1441,1442,1443,1444,1445,1446,1447,1448,1449,1450,1451,1452,1453,1454,1455,1456,1457,1458,1459,1460,1461,1462,1463,1464,1465,1466,1467,1468,1469,1470,1471,1472,1473,1474,1475,1476,1477,1478,1479,1480,1481,1482,1483,1484,1485,1486,1487,1488,1489,1490,1491,1492,1493,1494,1495,1496,1497,1498,1499,1500,1501,1502,1503,1504,1505,1506,1507,1508,1509,1510,1511,1512,1513,1514,1515,1516,1517,1518,1519,1520,1521,1522,1523,1524,1525,1526,1527,1528,1529,1530,1531,1532,1533,1534,1535,1536,1537,1538,1539,1540,1541,1542,1543,1544,1545,1546,1547,1548,1549,1550,1551,1552,1553,1554,1555,1556,1557,1558,1559,1560,1561,1562,1563,1564,1565,1566,1567,1568,1569,1570,1571,1572,1573,1574,1575,1576,1577,1578,1579,1580,1581,1582,1583,1584,1585,1586,1587,1588,1589,1590,1591,1592,1593,1594,1595,1596,1597,1598,1599,1600,1601,1602,1603,1604,1605,1606,1607,1608,1609,1610,1611,1612,1613,1614,1615,1616,1617,1618,1619,1620,1621,1622,1623,1624,1625,1626,1627,1628,1629,1630,1631,1632,1633,1634,1635,1636,1637,1638,1639,1640,1641,1642,1643,1644,1645,1646,1647,1648,1649,1650,1651,1652,1653,1654,1655,1656,1657,1658,1659,1660,1661,1662,1663,1664,1665,1666,1667,1668,1669,1670,1671,1672,1673,1674,1675,1676,1677,1678,1679,1680,1681,1682,1683,1684,1685,1686,1687,1688,1689,1690,1691,1692,1693,1694,1695,1696,1697,1698,1699,1700,1701,1702,1703,1704,1705,1706,1707,1708,1709,1710,1711,1712,1713,1714,1715,1716,1717,1718,1719,1720,1721,1722,1723,1724,1725,1726,1727,1728,1729,1730,1731,1732,1733,1734,1735,1736,1737,1738,1739,1740,1741,1742,1743,1744,1745,1746,1747,1748,1749,1750,1751,1752,1753,1754,1755,1756,1757,1758,1759,1760,1761,1762,1763,1764,1765,1766,1767,1768,1769,1770,1771,1772,1773,1774,1775,1776,1777,1778,1779,1780,1781,1782,1783,1784,1785,1786,1787,1788,1789,1790,1791,1792,1793,1794,1795,1796,1797,1798,1799,1800,1801,1802,1803,1804,1805,1806,1807,1808,1809,1810,1811,1812,1813,1814,1815,1816,1817,1818,1819,1820,1821,1822,1823,1824,1825,1826,1827,1828,1829,1830,1831,1832,1833,1834,1835,1836,1837,1838,1839,1840,1841,1842,1843,1844,1845,1846,1847,1848,1849,1850,1851,1852,1853,1854,1855,1856,1857,1858,1859,1860,1861,1862,1863,1864,1865,1866,1867,1868,1869,1870,1871,1872,1873,1874,1875,1876,1877,1878,1879,1880,1881,1882,1883,1884,1885,1886,1887,1888,1889,1890,1891,1892,1893,1894,1895,1896,1897,1898,1899,1900,1901,1902,1903,1904,1905,1906,1907,1908,1909,1910,1911,1912,1913,1914,1915,1916,1917,1918,1919,1920,1921,1922,1923,1924,1925,1926,1927,1928,1929,1930,1931,1932,1933,1934,1935,1936,1937,1938,1939,1940,1941,1942,1943,1944,1945,1946,1947,1948,1949,1950,1951,1952,1953,1954,1955,1956,1957,1958,1959,1960,1961,1962,1963,1964,1965,1966,1967,1968,1969,1970,1971,1972,1973,1974,1975,1976,1977,1978,1979,1980,1981,1982,1983,1984,1985,1986,1987,1988,1989,1990,1991,1992,1993,1994,1995,1996,1997,1998,1999,2000,2001,2002,2003,2004,2005,2006,2007,2008,2009,2010,2011,2012,2013,2014,2015,2016,2017,2018,2019,2020,2021,2022,2023,2024,2025,2026,2027,2028,2029,2030,2031,2032,2033,2034,2035,2036,2037,2038,2039,2040,2041,2042,2043,2044,2045,2046,2047,2048,2049,2050,2051,2052,2053,2054,2055,2056,2057,2058,2059,2060,2061,2062,2063,2064,2065,2066,2067,2068,2069,2070,2071,2072,2073,2074,2075,2076,2077,2078,2079,2080,2081,2082,2083,2084,2085,2086,2087,2088,2089,2090,2091,2092,2093,2094,2095,2096,2097,2098,2099,2100,2101,2102,2103,2104,2105,2106,2107,2108,2109,2110,2111,2112,2113,2114,2115,2116,2117,2118,2119,2120,2121,2122,2123,2124,2125,2126,2127,2128,2129,2130,2131,2132,2133,2134,2135,2136,2137,2138,2139,2140,2141,2142,2143,2144,2145,2146,2147,2148,2149,2150,2151,2152,2153,2154,2155,2156,2157,2158,2159,2160,2161,2162,2163,2164,2165,2166,2167,2168,2169,2170,2171,2172,2173,2174,2175,2176,2177,2178,2179,2180,2181,2182,2183,2184,2185,2186,2187,2188,2189,2190,2191],"tree_info":[0,0,0,0,0,0,0,0,0,0,0,0,0,0,0,0,0,0,0,0,0,0,0,0,0,0,0,0,0,0,0,0,0,0,0,0,0,0,0,0,0,0,0,0,0,0,0,0,0,0,0,0,0,0,0,0,0,0,0,0,0,0,0,0,0,0,0,0,0,0,0,0,0,0,0,0,0,0,0,0,0,0,0,0,0,0,0,0,0,0,0,0,0,0,0,0,0,0,0,0,0,0,0,0,0,0,0,0,0,0,0,0,0,0,0,0,0,0,0,0,0,0,0,0,0,0,0,0,0,0,0,0,0,0,0,0,0,0,0,0,0,0,0,0,0,0,0,0,0,0,0,0,0,0,0,0,0,0,0,0,0,0,0,0,0,0,0,0,0,0,0,0,0,0,0,0,0,0,0,0,0,0,0,0,0,0,0,0,0,0,0,0,0,0,0,0,0,0,0,0,0,0,0,0,0,0,0,0,0,0,0,0,0,0,0,0,0,0,0,0,0,0,0,0,0,0,0,0,0,0,0,0,0,0,0,0,0,0,0,0,0,0,0,0,0,0,0,0,0,0,0,0,0,0,0,0,0,0,0,0,0,0,0,0,0,0,0,0,0,0,0,0,0,0,0,0,0,0,0,0,0,0,0,0,0,0,0,0,0,0,0,0,0,0,0,0,0,0,0,0,0,0,0,0,0,0,0,0,0,0,0,0,0,0,0,0,0,0,0,0,0,0,0,0,0,0,0,0,0,0,0,0,0,0,0,0,0,0,0,0,0,0,0,0,0,0,0,0,0,0,0,0,0,0,0,0,0,0,0,0,0,0,0,0,0,0,0,0,0,0,0,0,0,0,0,0,0,0,0,0,0,0,0,0,0,0,0,0,0,0,0,0,0,0,0,0,0,0,0,0,0,0,0,0,0,0,0,0,0,0,0,0,0,0,0,0,0,0,0,0,0,0,0,0,0,0,0,0,0,0,0,0,0,0,0,0,0,0,0,0,0,0,0,0,0,0,0,0,0,0,0,0,0,0,0,0,0,0,0,0,0,0,0,0,0,0,0,0,0,0,0,0,0,0,0,0,0,0,0,0,0,0,0,0,0,0,0,0,0,0,0,0,0,0,0,0,0,0,0,0,0,0,0,0,0,0,0,0,0,0,0,0,0,0,0,0,0,0,0,0,0,0,0,0,0,0,0,0,0,0,0,0,0,0,0,0,0,0,0,0,0,0,0,0,0,0,0,0,0,0,0,0,0,0,0,0,0,0,0,0,0,0,0,0,0,0,0,0,0,0,0,0,0,0,0,0,0,0,0,0,0,0,0,0,0,0,0,0,0,0,0,0,0,0,0,0,0,0,0,0,0,0,0,0,0,0,0,0,0,0,0,0,0,0,0,0,0,0,0,0,0,0,0,0,0,0,0,0,0,0,0,0,0,0,0,0,0,0,0,0,0,0,0,0,0,0,0,0,0,0,0,0,0,0,0,0,0,0,0,0,0,0,0,0,0,0,0,0,0,0,0,0,0,0,0,0,0,0,0,0,0,0,0,0,0,0,0,0,0,0,0,0,0,0,0,0,0,0,0,0,0,0,0,0,0,0,0,0,0,0,0,0,0,0,0,0,0,0,0,0,0,0,0,0,0,0,0,0,0,0,0,0,0,0,0,0,0,0,0,0,0,0,0,0,0,0,0,0,0,0,0,0,0,0,0,0,0,0,0,0,0,0,0,0,0,0,0,0,0,0,0,0,0,0,0,0,0,0,0,0,0,0,0,0,0,0,0,0,0,0,0,0,0,0,0,0,0,0,0,0,0,0,0,0,0,0,0,0,0,0,0,0,0,0,0,0,0,0,0,0,0,0,0,0,0,0,0,0,0,0,0,0,0,0,0,0,0,0,0,0,0,0,0,0,0,0,0,0,0,0,0,0,0,0,0,0,0,0,0,0,0,0,0,0,0,0,0,0,0,0,0,0,0,0,0,0,0,0,0,0,0,0,0,0,0,0,0,0,0,0,0,0,0,0,0,0,0,0,0,0,0,0,0,0,0,0,0,0,0,0,0,0,0,0,0,0,0,0,0,0,0,0,0,0,0,0,0,0,0,0,0,0,0,0,0,0,0,0,0,0,0,0,0,0,0,0,0,0,0,0,0,0,0,0,0,0,0,0,0,0,0,0,0,0,0,0,0,0,0,0,0,0,0,0,0,0,0,0,0,0,0,0,0,0,0,0,0,0,0,0,0,0,0,0,0,0,0,0,0,0,0,0,0,0,0,0,0,0,0,0,0,0,0,0,0,0,0,0,0,0,0,0,0,0,0,0,0,0,0,0,0,0,0,0,0,0,0,0,0,0,0,0,0,0,0,0,0,0,0,0,0,0,0,0,0,0,0,0,0,0,0,0,0,0,0,0,0,0,0,0,0,0,0,0,0,0,0,0,0,0,0,0,0,0,0,0,0,0,0,0,0,0,0,0,0,0,0,0,0,0,0,0,0,0,0,0,0,0,0,0,0,0,0,0,0,0,0,0,0,0,0,0,0,0,0,0,0,0,0,0,0,0,0,0,0,0,0,0,0,0,0,0,0,0,0,0,0,0,0,0,0,0,0,0,0,0,0,0,0,0,0,0,0,0,0,0,0,0,0,0,0,0,0,0,0,0,0,0,0,0,0,0,0,0,0,0,0,0,0,0,0,0,0,0,0,0,0,0,0,0,0,0,0,0,0,0,0,0,0,0,0,0,0,0,0,0,0,0,0,0,0,0,0,0,0,0,0,0,0,0,0,0,0,0,0,0,0,0,0,0,0,0,0,0,0,0,0,0,0,0,0,0,0,0,0,0,0,0,0,0,0,0,0,0,0,0,0,0,0,0,0,0,0,0,0,0,0,0,0,0,0,0,0,0,0,0,0,0,0,0,0,0,0,0,0,0,0,0,0,0,0,0,0,0,0,0,0,0,0,0,0,0,0,0,0,0,0,0,0,0,0,0,0,0,0,0,0,0,0,0,0,0,0,0,0,0,0,0,0,0,0,0,0,0,0,0,0,0,0,0,0,0,0,0,0,0,0,0,0,0,0,0,0,0,0,0,0,0,0,0,0,0,0,0,0,0,0,0,0,0,0,0,0,0,0,0,0,0,0,0,0,0,0,0,0,0,0,0,0,0,0,0,0,0,0,0,0,0,0,0,0,0,0,0,0,0,0,0,0,0,0,0,0,0,0,0,0,0,0,0,0,0,0,0,0,0,0,0,0,0,0,0,0,0,0,0,0,0,0,0,0,0,0,0,0,0,0,0,0,0,0,0,0,0,0,0,0,0,0,0,0,0,0,0,0,0,0,0,0,0,0,0,0,0,0,0,0,0,0,0,0,0,0,0,0,0,0,0,0,0,0,0,0,0,0,0,0,0,0,0,0,0,0,0,0,0,0,0,0,0,0,0,0,0,0,0,0,0,0,0,0,0,0,0,0,0,0,0,0,0,0,0,0,0,0,0,0,0,0,0,0,0,0,0,0,0,0,0,0,0,0,0,0,0,0,0,0,0,0,0,0,0,0,0,0,0,0,0,0,0,0,0,0,0,0,0,0,0,0,0,0,0,0,0,0,0,0,0,0,0,0,0,0,0,0,0,0,0,0,0,0,0,0,0,0,0,0,0,0,0,0,0,0,0,0,0,0,0,0,0,0,0,0,0,0,0,0,0,0,0,0,0,0,0,0,0,0,0,0,0,0,0,0,0,0,0,0,0,0,0,0,0,0,0,0,0,0,0,0,0,0,0,0,0,0,0,0,0,0,0,0,0,0,0,0,0,0,0,0,0,0,0,0,0,0,0,0,0,0,0,0,0,0,0,0,0,0,0,0,0,0,0,0,0,0,0,0,0,0,0,0,0,0,0,0,0,0,0,0,0,0,0,0,0,0,0,0,0,0,0,0,0,0,0,0,0,0,0,0,0,0,0,0,0,0,0,0,0,0,0,0,0,0,0,0,0,0,0,0,0,0,0,0,0,0,0,0,0,0,0,0,0,0,0,0,0,0,0,0,0,0,0,0,0,0,0,0,0,0,0,0,0,0,0,0,0,0,0,0,0,0,0,0,0,0,0,0,0,0,0,0,0,0,0,0,0,0,0,0,0,0,0,0,0,0,0,0,0,0,0,0,0,0,0,0,0,0,0,0,0,0,0,0,0,0,0,0,0,0,0,0,0,0,0,0,0,0,0,0,0,0,0,0,0,0,0,0,0,0,0,0,0,0,0,0,0,0,0,0,0,0,0,0,0,0,0,0,0,0,0,0,0,0,0,0,0,0,0,0,0,0,0,0,0,0,0,0,0,0,0,0,0,0,0,0,0,0,0,0,0,0,0,0,0,0,0,0,0,0,0,0,0,0,0,0,0,0,0,0,0,0,0,0,0,0,0,0,0,0,0,0,0,0,0,0,0,0,0,0,0,0,0,0,0,0,0,0,0,0,0,0,0,0,0,0,0,0,0,0,0,0,0,0,0,0,0,0,0,0,0,0,0,0,0,0,0,0,0,0,0,0,0,0,0,0,0,0,0,0,0,0,0,0,0,0,0,0,0,0,0,0,0,0,0,0,0,0,0,0,0,0,0,0,0,0,0,0,0,0,0,0,0,0,0,0,0,0,0,0,0,0,0,0,0,0,0,0,0,0,0,0,0,0,0,0,0,0,0,0,0,0,0,0,0,0,0,0,0,0,0,0,0,0,0,0,0,0,0,0,0,0,0,0,0,0,0,0,0,0,0,0,0,0,0,0,0,0,0,0,0,0,0,0,0,0,0,0,0,0,0,0,0,0,0,0,0,0,0,0,0,0,0,0,0,0,0,0,0,0,0,0,0,0,0,0,0,0,0,0,0,0,0,0,0,0,0,0,0,0,0,0,0,0,0,0,0,0,0,0,0,0,0,0,0,0,0,0,0,0,0,0],"trees":[{"base_weights":[-2.4096246E-3,9.441621E-1,-1.1795708E1,-1.1873868E1,1.13500826E-1,-1.263567E0,1.1336187E-1,-1.2633047E0,1.11997545E-1],"categories":[],"categories_nodes":[],"categories_segments":[],"categories_sizes":[],"default_left":[0,0,0,0,0,0,0,0,0],"id":0,"left_children":[1,3,5,7,-1,-1,-1,-1,-1],"loss_changes":[5.165494E4,7.985615E3,1.4817734E3,1.5810596E2,0E0,0E0,0E0,0E0,0E0],"parents":[2147483647,0,0,1,1,2,2,3,3],"right_children":[2,4,6,8,-1,-1,-1,-1,-1],"split_conditions":[2.9307854E1,6.6374E4,9.829783E0,8.070149E0,1.13500826E-1,-1.263567E0,1.1336187E-1,-1.2633047E0,1.11997545E-1],"split_indices":[35,32,33,33,0,0,0,0,0],"split_type":[0,0,0,0,0,0,0,0,0],"sum_hessian":[4.6272275E3,4.283434E3,3.437933E2,4.80468E1,4.235387E3,3.3509464E2,8.698648E0,4.7123985E1,9.228132E-1],"tree_param":{"num_deleted":"0","num_feature":"45","num_nodes":"9","size_leaf_vector":"1"}},{"base_weights":[6.54002E-2,9.4793606E-1,-4.0390863E0,-4.12479E0,1.1252126E-1,-4.3195298E-1,1.124411E-1,-2.8052127E-1,-4.3153292E-1],"categories":[],"categories_nodes":[],"categories_segments":[],"categories_sizes":[],"default_left":[0,0,0,0,0,0,0,0,0],"id":1,"left_children":[1,3,5,7,-1,-1,-1,-1,-1],"loss_changes":[1.73471E4,2.6444846E3,4.669922E2,2.432373E0,0E0,0E0,0E0,0E0,0E0],"parents":[2147483647,0,0,1,1,2,2,3,3],"right_children":[2,4,6,8,-1,-1,-1,-1,-1],"split_conditions":[5.1511617E0,6.6374E4,9.829783E0,6.94E1,1.1252126E-1,-4.3195298E-1,1.124411E-1,-2.8052127E-1,-4.3153292E-1],"split_indices":[40,32,33,34,0,0,0,0,0],"split_type":[0,0,0,0,0,0,0,0,0],"sum_hessian":[4.7888765E3,3.9414133E3,8.474632E2,1.0014571E2,3.8412676E3,8.300104E2,1.7452854E1,1.2590951E0,9.888662E1],"tree_param":{"num_deleted":"0","num_feature":"45","num_nodes":"9","size_leaf_vector":"1"}},{"base_weights":[8.345797E-2,9.4969076E-1,-2.97797E0,-3.0138502E0,1.116321E-1,-3.1698847E-1,1.1154629E-1,-3.1717527E-1,1.1368131E-1],"categories":[],"categories_nodes":[],"categories_segments":[],"categories_sizes":[],"default_left":[0,0,0,0,0,0,0,0,0],"id":2,"left_children":[1,3,5,7,-1,-1,-1,-1,-1],"loss_changes":[1.2231806E4,1.738106E3,2.6818945E2,1.3708252E1,0E0,0E0,0E0,0E0,0E0],"parents":[2147483647,0,0,1,1,2,2,3,3],"right_children":[2,4,6,8,-1,-1,-1,-1,-1],"split_conditions":[5.1511617E0,6.6374E4,9.829783E0,8.070149E0,1.116321E-1,-3.1698847E-1,1.1154629E-1,-3.1717527E-1,1.1368131E-1],"split_indices":[40,32,33,33,0,0,0,0,0],"split_type":[0,0,0,0,0,0,0,0,0],"sum_hessian":[4.6124307E3,3.5951804E3,1.0172501E3,1.0732547E2,3.4878547E3,1.00115454E3,1.6095602E1,1.06523834E2,8.0163735E-1],"tree_param":{"num_deleted":"0","num_feature":"45","num_nodes":"9","size_leaf_vector":"1"}},{"base_weights":[7.693093E-2,9.349699E-1,-2.4265063E0,-2.4691365E0,1.1084353E-1,-2.5900957E-1,1.10771745E-1,-1.5155908E0,-2.5889674E-1,-2.8091067E-1,-5.262288E-2],"categories":[],"categories_nodes":[],"categories_segments":[],"categories_sizes":[],"default_left":[0,0,0,0,0,0,0,0,0,0,0],"id":3,"left_children":[1,3,5,7,-1,-1,-1,9,-1,-1,-1],"loss_changes":[9.482885E3,1.4451711E3,2.3589258E2,1.8150024E0,0E0,0E0,0E0,2.4207382E0,0E0,0E0,0E0],"parents":[2147483647,0,0,1,1,2,2,3,3,7,7],"right_children":[2,4,6,8,-1,-1,-1,10,-1,-1,-1],"split_conditions":[5.0940495E0,3.1655E3,8.195499E0,6.94E1,1.1084353E-1,-2.5900957E-1,1.10771745E-1,5.788207E-3,-2.5889674E-1,-2.8091067E-1,-5.262288E-2],"split_indices":[40,39,33,34,0,0,0,38,0,0,0],"split_type":[0,0,0,0,0,0,0,0,0,0,0],"sum_hessian":[4.414633E3,3.2877744E3,1.1268585E3,1.201451E2,3.1676294E3,1.1078241E3,1.903445E1,2.0337849E0,1.1811132E2,9.2835474E-1,1.1054301E0],"tree_param":{"num_deleted":"0","num_feature":"45","num_nodes":"11","size_leaf_vector":"1"}},{"base_weights":[9.209202E-2,9.325051E-1,-2.100084E0,-2.2204864E-1,1.101435E-1,-2.2365598E-1,1.1006247E-1],"categories":[],"categories_nodes":[],"categories_segments":[],"categories_sizes":[],"default_left":[0,0,0,0,0,0,0],"id":4,"left_children":[1,3,5,-1,-1,-1,-1],"loss_changes":[7.6392974E3,1.1468811E3,1.7052832E2,0E0,0E0,0E0,0E0],"parents":[2147483647,0,0,1,1,2,2],"right_children":[2,4,6,-1,-1,-1,-1],"split_conditions":[2.6021254E1,3.1655E3,8.195499E0,-2.2204864E-1,1.101435E-1,-2.2365598E-1,1.1006247E-1],"split_indices":[35,39,33,0,0,0,0],"split_type":[0,0,0,0,0,0,0],"sum_hessian":[4.1465117E3,2.9974055E3,1.1491062E3,1.173571E2,2.8800483E3,1.1322507E3,1.6855452E1],"tree_param":{"num_deleted":"0","num_feature":"45","num_nodes":"7","size_leaf_vector":"1"}},{"base_weights":[9.3727894E-2,9.169131E-1,-1.8773147E0,-1.9831151E-1,1.0952014E-1,1.0943375E-1,-1.9979925E-1],"categories":[],"categories_nodes":[],"categories_segments":[],"categories_sizes":[],"default_left":[0,0,0,0,0,0,0],"id":5,"left_children":[1,3,5,-1,-1,-1,-1],"loss_changes":[6.2949766E3,1.0381099E3,1.3639111E2,0E0,0E0,0E0,0E0],"parents":[2147483647,0,0,1,1,2,2],"right_children":[2,4,6,-1,-1,-1,-1],"split_conditions":[5.0940495E0,6.6374E4,1.3896979E2,-1.9831151E-1,1.0952014E-1,1.0943375E-1,-1.9979925E-1],"split_indices":[40,32,34,0,0,0,0],"split_type":[0,0,0,0,0,0,0],"sum_hessian":[3.8796995E3,2.7367368E3,1.1429626E3,1.2452847E2,2.6122085E3,1.5684827E1,1.1272778E3],"tree_param":{"num_deleted":"0","num_feature":"45","num_nodes":"7","size_leaf_vector":"1"}},{"base_weights":[8.9777865E-2,9.0816206E-1,-1.7059916E0,-1.8127142E-1,1.089652E-1,-1.739963E0,4.5767146E-1,-1.7419553E0,1.07259214E-1,-1.8196261E-1,1.08932115E-1,-1.8201454E-1,-1.0634813E0,-1.8214947E-1,1.0833131E-1],"categories":[],"categories_nodes":[],"categories_segments":[],"categories_sizes":[],"default_left":[0,0,0,0,0,0,0,0,0,0,0,0,0,0,0],"id":6,"left_children":[1,3,5,-1,-1,7,9,11,-1,-1,-1,-1,13,-1,-1],"loss_changes":[5.308501E3,9.062162E2,8.312891E1,0E0,0E0,6.1643066E0,2.2691902E1,4.033203E0,0E0,0E0,0E0,0E0,1.2671733E1,0E0,0E0],"parents":[2147483647,0,0,1,1,2,2,5,5,6,6,7,7,12,12],"right_children":[2,4,6,-1,-1,8,10,12,-1,-1,-1,-1,14,-1,-1],"split_conditions":[2.5687933E1,6.6374E4,5.844258E1,-1.8127142E-1,1.089652E-1,2.312755E5,1.33415E4,2.930089E1,1.07259214E-1,-1.8196261E-1,1.08932115E-1,-1.8201454E-1,1.33415E4,-1.8214947E-1,1.0833131E-1],"split_indices":[35,32,3,0,0,39,32,3,0,0,0,0,32,0,0],"split_type":[0,0,0,0,0,0,0,0,0,0,0,0,0,0,0],"sum_hessian":[3.612113E3,2.481313E3,1.1307999E3,1.2279966E2,2.3585134E3,1.1133226E3,1.7477303E1,1.1125271E3,7.9552484E-1,3.6752555E0,1.3802047E1,1.1037606E3,8.766456E0,6.6145263E0,2.1519299E0],"tree_param":{"num_deleted":"0","num_feature":"45","num_nodes":"15","size_leaf_vector":"1"}},{"base_weights":[7.769416E-2,9.061357E-1,-1.5840598E0,-1.5976595E0,1.0846942E-1,1.0861424E-1,-1.6238593E0,-1.6992255E-1,1.2304305E-1,3.940129E-2,-1.6951257E-1],"categories":[],"categories_nodes":[],"categories_segments":[],"categories_sizes":[],"default_left":[0,0,0,0,0,0,0,0,0,0,0],"id":7,"left_children":[1,3,5,7,-1,-1,9,-1,-1,-1,-1],"loss_changes":[4.62155E3,7.581742E2,1.167771E2,1.0733002E1,0E0,0E0,7.616699E0,0E0,0E0,0E0,0E0],"parents":[2147483647,0,0,1,1,2,2,3,3,6,6],"right_children":[2,4,6,8,-1,-1,10,-1,-1,-1,-1],"split_conditions":[5.062973E0,6.6374E4,2.5020963E2,8.070149E0,1.0846942E-1,1.0861424E-1,2.5687933E1,-1.6992255E-1,1.2304305E-1,3.940129E-2,-1.6951257E-1],"split_indices":[40,32,34,33,0,0,35,0,0,0,0],"split_type":[0,0,0,0,0,0,0,0,0,0,0],"sum_hessian":[3.3570374E3,2.2402178E3,1.1168196E3,1.1473582E2,2.125482E3,1.6664268E1,1.1001554E3,1.1337061E2,1.3652048E0,1.8918898E0,1.0982634E3],"tree_param":{"num_deleted":"0","num_feature":"45","num_nodes":"11","size_leaf_vector":"1"}},{"base_weights":[8.167003E-2,8.924309E-1,-1.4900773E0,-1.5128325E0,1.080268E-1,1.08096376E-1,-1.525983E0,-6.0305226E-1,-1.5947539E-1,3.6233306E-2,-1.5930419E-1,1.19227916E-1,-1.7119618E-1],"categories":[],"categories_nodes":[],"categories_segments":[],"categories_sizes":[],"default_left":[0,0,0,0,0,0,0,0,0,0,0,0,0],"id":8,"left_children":[1,3,5,7,-1,-1,9,11,-1,-1,-1,-1,-1],"loss_changes":[3.958995E3,7.129591E2,9.59751E1,1.9034119E0,0E0,0E0,6.5129395E0,4.1871367E0,0E0,0E0,0E0,0E0,0E0],"parents":[2147483647,0,0,1,1,2,2,3,3,6,6,7,7],"right_children":[2,4,6,8,-1,-1,10,12,-1,-1,-1,-1,-1],"split_conditions":[5.062973E0,6.6374E4,2.4634842E2,6.94E1,1.080268E-1,1.08096376E-1,2.5687933E1,7.0820208E0,-1.5947539E-1,3.6233306E-2,-1.5930419E-1,1.19227916E-1,-1.7119618E-1],"split_indices":[40,32,34,34,0,0,35,3,0,0,0,0,0],"split_type":[0,0,0,0,0,0,0,0,0,0,0,0,0],"sum_hessian":[3.1067505E3,2.0495356E3,1.0572147E3,1.1623685E2,1.9332988E3,1.4801755E1,1.042413E3,2.2794836E0,1.1395736E2,1.8465621E0,1.0405664E3,8.4970653E-1,1.429777E0],"tree_param":{"num_deleted":"0","num_feature":"45","num_nodes":"13","size_leaf_vector":"1"}},{"base_weights":[8.625065E-2,8.8966465E-1,-1.4170574E0,-1.4305944E0,1.0763284E-1,-1.4492831E0,1.0786736E-1,-1.514094E-1,1.1986017E-1,1.0656233E-1,-1.5124042E-1],"categories":[],"categories_nodes":[],"categories_segments":[],"categories_sizes":[],"default_left":[0,0,0,0,0,0,0,0,0,0,0],"id":9,"left_children":[1,3,5,7,-1,9,-1,-1,-1,-1,-1],"loss_changes":[3.4359626E3,6.177809E2,7.8329834E1,6.4152374E0,0E0,6.348633E0,0E0,0E0,0E0,0E0,0E0],"parents":[2147483647,0,0,1,1,2,2,3,3,5,5],"right_children":[2,4,6,8,-1,10,-1,-1,-1,-1,-1],"split_conditions":[2.5687933E1,6.6374E4,9.829783E0,8.070149E0,1.0763284E-1,5.045548E0,1.0786736E-1,-1.514094E-1,1.1986017E-1,1.0656233E-1,-1.5124042E-1],"split_indices":[35,32,33,33,0,40,0,0,0,0,0],"split_type":[0,0,0,0,0,0,0,0,0,0,0],"sum_hessian":[2.8448389E3,1.8540063E3,9.908324E2,1.0805403E2,1.7459524E3,9.779873E2,1.2845074E1,1.0710806E2,9.459692E-1,1.029531E0,9.769578E2],"tree_param":{"num_deleted":"0","num_feature":"45","num_nodes":"11","size_leaf_vector":"1"}},{"base_weights":[8.958825E-2,8.9791685E-1,-1.3542283E0,-1.3642573E0,1.07278004E-1,-1.3855693E0,1.07484184E-1,-1.4480925E-1,1.1644783E-1,2.986628E-2,-1.4463784E-1],"categories":[],"categories_nodes":[],"categories_segments":[],"categories_sizes":[],"default_left":[0,0,0,0,0,0,0,0,0,0,0],"id":10,"left_children":[1,3,5,7,-1,9,-1,-1,-1,-1,-1],"loss_changes":[3.0385889E3,4.9822778E2,6.989783E1,5.9332123E0,0E0,4.5526123E0,0E0,0E0,0E0,0E0,0E0],"parents":[2147483647,0,0,1,1,2,2,3,3,5,5],"right_children":[2,4,6,8,-1,10,-1,-1,-1,-1,-1],"split_conditions":[5.062973E0,6.6374E4,9.829783E0,8.070149E0,1.07278004E-1,2.5687933E1,1.07484184E-1,-1.4480925E-1,1.1644783E-1,2.986628E-2,-1.4463784E-1],"split_indices":[40,32,33,33,0,35,0,0,0,0,0],"split_type":[0,0,0,0,0,0,0,0,0,0,0],"sum_hessian":[2.6035637E3,1.6691091E3,9.3445465E2,9.198333E1,1.5771259E3,9.22345E2,1.2109689E1,9.103873E1,9.4460416E-1,1.6201612E0,9.207248E2],"tree_param":{"num_deleted":"0","num_feature":"45","num_nodes":"11","size_leaf_vector":"1"}},{"base_weights":[7.917497E-2,8.8928396E-1,-1.3130975E0,-1.307895E0,1.0696289E-1,1.06943496E-1,-1.3906893E-1,-2.2214207E-1,-1.3885422E-1,-1.481736E-1,1.1491453E-1],"categories":[],"categories_nodes":[],"categories_segments":[],"categories_sizes":[],"default_left":[0,0,0,0,0,0,0,0,0,0,0],"id":11,"left_children":[1,3,5,7,-1,-1,-1,9,-1,-1,-1],"loss_changes":[2.6862383E3,4.5505615E2,4.5024414E1,2.4119568E0,0E0,0E0,0E0,3.2302525E0,0E0,0E0,0E0],"parents":[2147483647,0,0,1,1,2,2,3,3,7,7],"right_children":[2,4,6,8,-1,-1,-1,10,-1,-1,-1],"split_conditions":[5.0940495E0,3.1655E3,1.3896979E2,6.94E1,1.0696289E-1,1.06943496E-1,-1.3906893E-1,1.33E1,-1.3885422E-1,-1.481736E-1,1.1491453E-1],"split_indices":[40,39,34,34,0,0,0,37,0,0,0],"split_type":[0,0,0,0,0,0,0,0,0,0,0],"sum_hessian":[2.3816216E3,1.5055853E3,8.760362E2,8.869808E1,1.4168872E3,8.139647E0,8.6789655E2,2.0079129E0,8.669017E1,1.0537742E0,9.541385E-1],"tree_param":{"num_deleted":"0","num_feature":"45","num_nodes":"11","size_leaf_vector":"1"}},{"base_weights":[8.5538596E-2,8.7838304E-1,-1.2604976E0,-1.2625759E0,1.0667773E-1,1.06693886E-1,-1.2886333E0,-1.3472866E-1,1.1584398E-1,1.0806296E-1,-1.3446881E-1],"categories":[],"categories_nodes":[],"categories_segments":[],"categories_sizes":[],"default_left":[0,0,0,0,0,0,0,0,0,0,0],"id":12,"left_children":[1,3,5,7,-1,-1,9,-1,-1,-1,-1],"loss_changes":[2.321651E3,4.2712988E2,5.185388E1,6.400589E0,0E0,0E0,4.2055664E0,0E0,0E0,0E0,0E0],"parents":[2147483647,0,0,1,1,2,2,3,3,6,6],"right_children":[2,4,6,8,-1,-1,10,-1,-1,-1,-1],"split_conditions":[5.062973E0,3.1655E3,2.5020963E2,8.070149E0,1.0667773E-1,1.06693886E-1,2.5233652E1,-1.3472866E-1,1.1584398E-1,1.0806296E-1,-1.3446881E-1],"split_indices":[40,39,34,33,0,0,35,0,0,0,0],"split_type":[0,0,0,0,0,0,0,0,0,0,0],"sum_hessian":[2.1754426E3,1.3690485E3,8.063943E2,8.723649E1,1.281812E3,9.804161E0,7.965901E2,8.612467E1,1.1118165E0,7.6806676E-1,7.95822E2],"tree_param":{"num_deleted":"0","num_feature":"45","num_nodes":"11","size_leaf_vector":"1"}},{"base_weights":[8.817794E-2,8.77182E-1,-1.2334217E0,-1.2305784E0,1.064255E-1,-1.307027E-1,1.0632134E-1,-1.3100623E-1,1.1567699E-1],"categories":[],"categories_nodes":[],"categories_segments":[],"categories_sizes":[],"default_left":[0,0,0,0,0,0,0,0,0],"id":13,"left_children":[1,3,5,7,-1,-1,-1,-1,-1],"loss_changes":[2.0716533E3,3.7890552E2,3.5704834E1,5.075287E0,0E0,0E0,0E0,0E0,0E0],"parents":[2147483647,0,0,1,1,2,2,3,3],"right_children":[2,4,6,8,-1,-1,-1,-1,-1],"split_conditions":[5.0940495E0,6.6374E4,9.829783E0,8.070149E0,1.064255E-1,-1.307027E-1,1.0632134E-1,-1.3100623E-1,1.1567699E-1],"split_indices":[40,32,33,33,0,0,0,0,0],"split_type":[0,0,0,0,0,0,0,0,0],"sum_hessian":[1.9867035E3,1.2440199E3,7.426836E2,7.980656E1,1.1642134E3,7.357309E2,6.952743E0,7.889986E1,9.0669554E-1],"tree_param":{"num_deleted":"0","num_feature":"45","num_nodes":"9","size_leaf_vector":"1"}},{"base_weights":[8.2795404E-2,8.822609E-1,-1.1940835E0,-1.2541628E-1,1.0619544E-1,1.0632662E-1,-1.2716997E-1],"categories":[],"categories_nodes":[],"categories_segments":[],"categories_sizes":[],"default_left":[0,0,0,0,0,0,0],"id":14,"left_children":[1,3,5,-1,-1,-1,-1],"loss_changes":[1.853783E3,3.1969305E2,4.1429016E1,0E0,0E0,0E0,0E0],"parents":[2147483647,0,0,1,1,2,2],"right_children":[2,4,6,-1,-1,-1,-1],"split_conditions":[5.062973E0,6.6374E4,2.4634842E2,-1.2541628E-1,1.0619544E-1,1.0632662E-1,-1.2716997E-1],"split_indices":[40,32,34,0,0,0,0],"split_type":[0,0,0,0,0,0,0],"sum_hessian":[1.8159508E3,1.1167488E3,6.9920197E2,6.890896E1,1.0478398E3,8.33616E0,6.9086584E2],"tree_param":{"num_deleted":"0","num_feature":"45","num_nodes":"7","size_leaf_vector":"1"}},{"base_weights":[9.4368674E-2,8.746532E-1,-1.1699823E0,-1.22402266E-1,1.0599335E-1,-1.2443712E-1,1.05878934E-1],"categories":[],"categories_nodes":[],"categories_segments":[],"categories_sizes":[],"default_left":[0,0,0,0,0,0,0],"id":15,"left_children":[1,3,5,-1,-1,-1,-1],"loss_changes":[1.6187032E3,2.9715082E2,3.3704346E1,0E0,0E0,0E0,0E0],"parents":[2147483647,0,0,1,1,2,2],"right_children":[2,4,6,-1,-1,-1,-1],"split_conditions":[2.5687933E1,6.6374E4,9.829783E0,-1.22402266E-1,1.0599335E-1,-1.2443712E-1,1.05878934E-1],"split_indices":[35,32,33,0,0,0,0],"split_type":[0,0,0,0,0,0,0],"sum_hessian":[1.6407433E3,1.01459705E3,6.2614624E2,6.6109535E1,9.4848755E2,6.191829E2,6.963336E0],"tree_param":{"num_deleted":"0","num_feature":"45","num_nodes":"7","size_leaf_vector":"1"}},{"base_weights":[9.4649024E-2,8.7474036E-1,-1.1443508E0,-1.1452671E0,1.0580744E-1,1.0584618E-1,-1.170266E0,-1.22482136E-1,1.1657967E-1,-1.22352384E-1,-1.3660268E-1,-1.2115308E-1,1.0840708E-1],"categories":[],"categories_nodes":[],"categories_segments":[],"categories_sizes":[],"default_left":[0,0,0,0,0,0,0,0,0,0,0,0,0],"id":16,"left_children":[1,3,5,7,-1,-1,9,-1,-1,-1,11,-1,-1],"loss_changes":[1.440917E3,2.60586E2,3.2262512E1,4.145462E0,0E0,0E0,2.532898E0,0E0,0E0,0E0,2.8878725E0,0E0,0E0],"parents":[2147483647,0,0,1,1,2,2,3,3,6,6,10,10],"right_children":[2,4,6,8,-1,-1,10,-1,-1,-1,12,-1,-1],"split_conditions":[5.062973E0,6.6374E4,2.4634842E2,8.070149E0,1.0580744E-1,1.0584618E-1,9.6262634E1,-1.22482136E-1,1.1657967E-1,-1.22352384E-1,7.7349E3,-1.2115308E-1,1.0840708E-1],"split_indices":[40,32,34,33,0,0,3,0,0,0,32,0,0],"split_type":[0,0,0,0,0,0,0,0,0,0,0,0,0],"sum_hessian":[1.4907874E3,9.14813E2,5.7597437E2,5.968577E1,8.5512726E2,6.82128E0,5.6915314E2,5.889706E1,7.887068E-1,5.667861E2,2.3670156E0,1.2652357E0,1.1017799E0],"tree_param":{"num_deleted":"0","num_feature":"45","num_nodes":"13","size_leaf_vector":"1"}},{"base_weights":[7.923352E-2,8.587343E-1,-1.1334286E0,-1.1788609E-1,1.0564613E-1,1.0545423E-1,-1.2012697E-1],"categories":[],"categories_nodes":[],"categories_segments":[],"categories_sizes":[],"default_left":[0,0,0,0,0,0,0],"id":17,"left_children":[1,3,5,-1,-1,-1,-1],"loss_changes":[1.2906316E3,2.5719397E2,2.2694275E1,0E0,0E0,0E0,0E0],"parents":[2147483647,0,0,1,1,2,2],"right_children":[2,4,6,-1,-1,-1,-1],"split_conditions":[5.0940495E0,6.6374E4,1.3896979E2,-1.1788609E-1,1.0564613E-1,1.0545423E-1,-1.2012697E-1],"split_indices":[40,32,34,0,0,0,0],"split_type":[0,0,0,0,0,0,0],"sum_hessian":[1.3653336E3,8.311036E2,5.3423E2,6.020518E1,7.7089844E2,4.875008E0,5.29355E2],"tree_param":{"num_deleted":"0","num_feature":"45","num_nodes":"7","size_leaf_vector":"1"}},{"base_weights":[8.620778E-2,8.636155E-1,-1.1115928E0,-1.166705E-1,1.0549998E-1,1.0529013E-1,-1.1809907E-1],"categories":[],"categories_nodes":[],"categories_segments":[],"categories_sizes":[],"default_left":[0,0,0,0,0,0,0],"id":18,"left_children":[1,3,5,-1,-1,-1,-1],"loss_changes":[1.1425941E3,2.2020624E2,2.2719788E1,0E0,0E0,0E0,0E0],"parents":[2147483647,0,0,1,1,2,2],"right_children":[2,4,6,-1,-1,-1,-1],"split_conditions":[2.5687933E1,6.6374E4,2.5090393E2,-1.166705E-1,1.0549998E-1,1.0529013E-1,-1.1809907E-1],"split_indices":[35,32,34,0,0,0,0],"split_type":[0,0,0,0,0,0,0],"sum_hessian":[1.2270171E3,7.4408704E2,4.8293002E2,5.2039097E1,6.92048E2,4.9828687E0,4.7794714E2],"tree_param":{"num_deleted":"0","num_feature":"45","num_nodes":"7","size_leaf_vector":"1"}},{"base_weights":[8.4591046E-2,8.576988E-1,-1.093577E0,-1.1431457E-1,1.05362035E-1,-1.117149E0,1.05338246E-1,-1.1684384E-1,1.3772571E-2],"categories":[],"categories_nodes":[],"categories_segments":[],"categories_sizes":[],"default_left":[0,0,0,0,0,0,0,0,0],"id":19,"left_children":[1,3,5,-1,-1,7,-1,-1,-1],"loss_changes":[1.0255245E3,2.043919E2,2.2145508E1,0E0,0E0,2.5090942E0,0E0,0E0,0E0],"parents":[2147483647,0,0,1,1,2,2,5,5],"right_children":[2,4,6,-1,-1,8,-1,-1,-1],"split_conditions":[5.062973E0,6.6374E4,9.829783E0,-1.1431457E-1,1.05362035E-1,1.24484955E2,1.05338246E-1,-1.1684384E-1,1.3772571E-2],"split_indices":[40,32,33,0,0,3,0,0,0],"split_type":[0,0,0,0,0,0,0,0,0],"sum_hessian":[1.1258748E3,6.7979865E2,4.4607608E2,4.95627E1,6.3023596E2,4.4114166E2,4.9344172E0,4.395443E2,1.5973358E0],"tree_param":{"num_deleted":"0","num_feature":"45","num_nodes":"9","size_leaf_vector":"1"}},{"base_weights":[8.215599E-2,8.6173695E-1,-1.080702E0,-1.0713404E0,1.0524822E-1,-1.14901006E-1,1.05162024E-1,-1.1565034E-1,1.16457626E-1],"categories":[],"categories_nodes":[],"categories_segments":[],"categories_sizes":[],"default_left":[0,0,0,0,0,0,0,0,0],"id":20,"left_children":[1,3,5,7,-1,-1,-1,-1,-1],"loss_changes":[9.239434E2,1.7532993E2,1.9115997E1,3.724537E0,0E0,0E0,0E0,0E0,0E0],"parents":[2147483647,0,0,1,1,2,2,3,3],"right_children":[2,4,6,8,-1,-1,-1,-1,-1],"split_conditions":[2.5687933E1,3.1655E3,9.829783E0,8.070149E0,1.0524822E-1,-1.14901006E-1,1.05162024E-1,-1.1565034E-1,1.16457626E-1],"split_indices":[35,39,33,33,0,0,0,0,0],"split_type":[0,0,0,0,0,0,0,0,0],"sum_hessian":[1.0191731E3,6.101393E2,4.0903378E2,4.3560234E1,5.6657904E2,4.0471378E2,4.32002E0,4.2805904E1,7.543299E-1],"tree_param":{"num_deleted":"0","num_feature":"45","num_nodes":"9","size_leaf_vector":"1"}},{"base_weights":[9.199237E-2,8.675331E-1,-1.0672176E0,-1.1130681E-1,1.05135046E-1,1.04867965E-1,-1.0914094E0,-1.1421028E-1,6.650431E-3],"categories":[],"categories_nodes":[],"categories_segments":[],"categories_sizes":[],"default_left":[0,0,0,0,0,0,0,0,0],"id":21,"left_children":[1,3,5,-1,-1,-1,7,-1,-1],"loss_changes":[8.2083124E2,1.5015207E2,1.8375092E1,0E0,0E0,0E0,2.0937805E0,0E0,0E0],"parents":[2147483647,0,0,1,1,2,2,6,6],"right_children":[2,4,6,-1,-1,-1,8,-1,-1],"split_conditions":[5.062973E0,6.6374E4,1.3896979E2,-1.1130681E-1,1.05135046E-1,1.04867965E-1,1.24484955E2,-1.1421028E-1,6.650431E-3],"split_indices":[40,32,34,0,0,0,3,0,0],"split_type":[0,0,0,0,0,0,0,0,0],"sum_hessian":[9.1301196E2,5.4703546E2,3.659765E2,3.7315434E1,5.0972003E2,4.213812E0,3.617627E2,3.6020416E2,1.5585201E0],"tree_param":{"num_deleted":"0","num_feature":"45","num_nodes":"9","size_leaf_vector":"1"}},{"base_weights":[7.1272776E-2,8.643045E-1,-1.0589868E0,-1.0283401E0,1.0503795E-1,1.0502312E-1,-1.0809289E0,-1.132376E-1,1.1976223E-1,-1.1314258E-1,-5.293088E-2,-1.13890246E-1,1.06439084E-1],"categories":[],"categories_nodes":[],"categories_segments":[],"categories_sizes":[],"default_left":[0,0,0,0,0,0,0,0,0,0,0,0,0],"id":22,"left_children":[1,3,5,7,-1,-1,9,-1,-1,-1,11,-1,-1],"loss_changes":[7.514642E2,1.343411E2,1.5692413E1,4.472698E0,0E0,0E0,1.8385925E0,0E0,0E0,0E0,1.9653908E0,0E0,0E0],"parents":[2147483647,0,0,1,1,2,2,3,3,6,6,10,10],"right_children":[2,4,6,8,-1,-1,10,-1,-1,-1,12,-1,-1],"split_conditions":[5.062973E0,6.6374E4,2.5020963E2,8.070149E0,1.0503795E-1,1.0502312E-1,8.31427E1,-1.132376E-1,1.1976223E-1,-1.1314258E-1,7.7349E3,-1.13890246E-1,1.06439084E-1],"split_indices":[40,32,34,33,0,0,3,0,0,0,32,0,0],"split_type":[0,0,0,0,0,0,0,0,0,0,0,0,0],"sum_hessian":[8.3835486E2,4.926779E2,3.45677E2,3.4841393E1,4.578365E2,3.6246097E0,3.420524E2,3.393262E1,9.087713E-1,3.4031735E2,1.7350639E0,8.8218665E-1,8.528773E-1],"tree_param":{"num_deleted":"0","num_feature":"45","num_nodes":"13","size_leaf_vector":"1"}},{"base_weights":[7.885298E-2,8.552627E-1,-1.0501689E0,-1.0174471E0,1.0495469E-1,1.04572065E-1,-1.11622244E-1,-1.123112E-1,1.1760162E-1],"categories":[],"categories_nodes":[],"categories_segments":[],"categories_sizes":[],"default_left":[0,0,0,0,0,0,0,0,0],"id":23,"left_children":[1,3,5,7,-1,-1,-1,-1,-1],"loss_changes":[6.650692E2,1.2822894E2,1.3601379E1,4.4219284E0,0E0,0E0,0E0,0E0,0E0],"parents":[2147483647,0,0,1,1,2,2,3,3],"right_children":[2,4,6,8,-1,-1,-1,-1,-1],"split_conditions":[2.5687933E1,6.6374E4,2.5090393E2,8.070149E0,1.0495469E-1,1.04572065E-1,-1.11622244E-1,-1.123112E-1,1.1760162E-1],"split_indices":[35,32,34,33,0,0,0,0,0],"split_type":[0,0,0,0,0,0,0,0,0],"sum_hessian":[7.5868353E2,4.495437E2,3.091398E2,3.3803997E1,4.1573972E2,3.1814885E0,3.059583E2,3.287989E1,9.2410636E-1],"tree_param":{"num_deleted":"0","num_feature":"45","num_nodes":"9","size_leaf_vector":"1"}},{"base_weights":[8.544084E-2,8.635337E-1,-1.0421699E0,-9.982282E-1,1.04871914E-1,-1.10908225E-1,1.04590826E-1,-1.1138737E-1,1.15766376E-1],"categories":[],"categories_nodes":[],"categories_segments":[],"categories_sizes":[],"default_left":[0,0,0,0,0,0,0,0,0],"id":24,"left_children":[1,3,5,7,-1,-1,-1,-1,-1],"loss_changes":[5.95049E2,1.0702298E2,1.2786224E1,4.3131237E0,0E0,0E0,0E0,0E0,0E0],"parents":[2147483647,0,0,1,1,2,2,3,3],"right_children":[2,4,6,8,-1,-1,-1,-1,-1],"split_conditions":[5.062973E0,6.6374E4,9.829783E0,8.070149E0,1.04871914E-1,-1.10908225E-1,1.04590826E-1,-1.1138737E-1,1.15766376E-1],"split_indices":[40,32,33,33,0,0,0,0,0],"split_type":[0,0,0,0,0,0,0,0,0],"sum_hessian":[6.7818414E2,4.0128598E2,2.7689816E2,2.8661434E1,3.7262457E2,2.7388675E2,3.0114202E0,2.773315E1,9.282834E-1],"tree_param":{"num_deleted":"0","num_feature":"45","num_nodes":"9","size_leaf_vector":"1"}},{"base_weights":[7.360982E-2,8.528422E-1,-1.0415491E0,-1.0036547E0,1.04812466E-1,-1.1031352E-1,1.0422717E-1,-1.1068652E-1,1.1192468E-1],"categories":[],"categories_nodes":[],"categories_segments":[],"categories_sizes":[],"default_left":[0,0,0,0,0,0,0,0,0],"id":25,"left_children":[1,3,5,7,-1,-1,-1,-1,-1],"loss_changes":[5.419463E2,1.0453305E2,9.15683E0,3.4440174E0,0E0,0E0,0E0,0E0,0E0],"parents":[2147483647,0,0,1,1,2,2,3,3],"right_children":[2,4,6,8,-1,-1,-1,-1,-1],"split_conditions":[5.0940495E0,6.6374E4,8.191219E0,8.070149E0,1.04812466E-1,-1.1031352E-1,1.0422717E-1,-1.1068652E-1,1.1192468E-1],"split_indices":[40,32,33,33,0,0,0,0,0],"split_type":[0,0,0,0,0,0,0,0,0],"sum_hessian":[6.236441E2,3.671188E2,2.565253E2,2.8005941E1,3.3911285E2,2.5435721E2,2.1681068E0,2.7239676E1,7.6626694E-1],"tree_param":{"num_deleted":"0","num_feature":"45","num_nodes":"9","size_leaf_vector":"1"}},{"base_weights":[8.142257E-2,8.578282E-1,-1.0293887E0,-1.0331637E-1,1.0474417E-1,-1.0934684E-1,1.0429411E-1],"categories":[],"categories_nodes":[],"categories_segments":[],"categories_sizes":[],"default_left":[0,0,0,0,0,0,0],"id":26,"left_children":[1,3,5,-1,-1,-1,-1],"loss_changes":[4.8169135E2,8.982951E1,9.500565E0,0E0,0E0,0E0,0E0],"parents":[2147483647,0,0,1,1,2,2],"right_children":[2,4,6,-1,-1,-1,-1],"split_conditions":[2.5687933E1,6.6374E4,8.195499E0,-1.0331637E-1,1.0474417E-1,-1.0934684E-1,1.0429411E-1],"split_indices":[35,32,33,0,0,0,0],"split_type":[0,0,0,0,0,0,0],"sum_hessian":[5.58499E2,3.287334E2,2.297656E2,2.430529E1,3.0442813E2,2.2749342E2,2.2721734E0],"tree_param":{"num_deleted":"0","num_feature":"45","num_nodes":"7","size_leaf_vector":"1"}},{"base_weights":[7.909106E-2,8.532224E-1,-1.0228106E0,-1.0477951E-1,1.0468105E-1,1.0418129E-1,-1.0873077E-1],"categories":[],"categories_nodes":[],"categories_segments":[],"categories_sizes":[],"default_left":[0,0,0,0,0,0,0],"id":27,"left_children":[1,3,5,-1,-1,-1,-1],"loss_changes":[4.3168372E2,8.384761E1,8.883118E0,0E0,0E0,0E0,0E0],"parents":[2147483647,0,0,1,1,2,2],"right_children":[2,4,6,-1,-1,-1,-1],"split_conditions":[5.062973E0,6.6374E4,1.3896979E2,-1.0477951E-1,1.0468105E-1,1.0418129E-1,-1.0873077E-1],"split_indices":[40,32,34,0,0,0,0],"split_type":[0,0,0,0,0,0,0],"sum_hessian":[5.0604465E2,2.9723126E2,2.0881339E2,2.241993E1,2.7481134E2,2.1393113E0,2.0667407E2],"tree_param":{"num_deleted":"0","num_feature":"45","num_nodes":"7","size_leaf_vector":"1"}},{"base_weights":[7.9671435E-2,8.5558236E-1,-1.02415E0,-9.595327E-1,1.04631804E-1,-1.0845396E-1,1.03817485E-1,-1.08864345E-1,1.12937875E-1],"categories":[],"categories_nodes":[],"categories_segments":[],"categories_sizes":[],"default_left":[0,0,0,0,0,0,0,0,0],"id":28,"left_children":[1,3,5,7,-1,-1,-1,-1,-1],"loss_changes":[3.9131635E2,7.251402E1,6.4919434E0,3.5699768E0,0E0,0E0,0E0,0E0,0E0],"parents":[2147483647,0,0,1,1,2,2,3,3],"right_children":[2,4,6,8,-1,-1,-1,-1,-1],"split_conditions":[5.0940495E0,6.6374E4,8.183823E0,8.070149E0,1.04631804E-1,-1.0845396E-1,1.03817485E-1,-1.08864345E-1,1.12937875E-1],"split_indices":[40,32,33,33,0,0,0,0,0],"split_type":[0,0,0,0,0,0,0,0,0],"sum_hessian":[4.568734E2,2.6828867E2,1.8858475E2,2.0331963E1,2.4795671E2,1.8701732E2,1.5674237E0,1.9520926E1,8.110364E-1],"tree_param":{"num_deleted":"0","num_feature":"45","num_nodes":"9","size_leaf_vector":"1"}},{"base_weights":[8.180053E-2,8.425853E-1,-1.0198197E0,-1.0244349E-1,1.0459498E-1,-1.07981175E-1,1.03664935E-1],"categories":[],"categories_nodes":[],"categories_segments":[],"categories_sizes":[],"default_left":[0,0,0,0,0,0,0],"id":29,"left_children":[1,3,5,-1,-1,-1,-1],"loss_changes":[3.473831E2,7.232391E1,5.741684E0,0E0,0E0,0E0,0E0],"parents":[2147483647,0,0,1,1,2,2],"right_children":[2,4,6,-1,-1,-1,-1],"split_conditions":[2.6021254E1,6.6374E4,9.829783E0,-1.0244349E-1,1.0459498E-1,-1.07981175E-1,1.03664935E-1],"split_indices":[35,32,33,0,0,0,0],"split_type":[0,0,0,0,0,0,0],"sum_hessian":[4.1446826E2,2.4516202E2,1.6930626E2,1.9918076E1,2.2524394E2,1.6791289E2,1.3933704E0],"tree_param":{"num_deleted":"0","num_feature":"45","num_nodes":"7","size_leaf_vector":"1"}},{"base_weights":[8.378382E-2,8.4416586E-1,-1.0151463E0,-9.4747823E-1,1.04562044E-1,-1.07539035E-1,1.03546165E-1,-1.07966065E-1,1.1253673E-1],"categories":[],"categories_nodes":[],"categories_segments":[],"categories_sizes":[],"default_left":[0,0,0,0,0,0,0,0,0],"id":30,"left_children":[1,3,5,7,-1,-1,-1,-1,-1],"loss_changes":[3.111644E2,6.295555E1,5.281708E0,3.2626152E0,0E0,0E0,0E0,0E0,0E0],"parents":[2147483647,0,0,1,1,2,2,3,3],"right_children":[2,4,6,8,-1,-1,-1,-1,-1],"split_conditions":[5.0940495E0,6.6374E4,9.829783E0,8.070149E0,1.04562044E-1,-1.07539035E-1,1.03546165E-1,-1.07966065E-1,1.1253673E-1],"split_indices":[40,32,33,33,0,0,0,0,0],"split_type":[0,0,0,0,0,0,0,0,0],"sum_hessian":[3.7235886E2,2.2008174E2,1.5227711E2,1.799869E1,2.0208305E2,1.5098894E2,1.2881787E0,1.7247972E1,7.507186E-1],"tree_param":{"num_deleted":"0","num_feature":"45","num_nodes":"9","size_leaf_vector":"1"}},{"base_weights":[7.884377E-2,8.425969E-1,-1.0090817E0,-9.969567E-2,1.04529895E-1,-1.0687219E-1,1.03401184E-1],"categories":[],"categories_nodes":[],"categories_segments":[],"categories_sizes":[],"default_left":[0,0,0,0,0,0,0],"id":31,"left_children":[1,3,5,-1,-1,-1,-1],"loss_changes":[2.820466E2,5.775569E1,4.7441864E0,0E0,0E0,0E0,0E0],"parents":[2147483647,0,0,1,1,2,2],"right_children":[2,4,6,-1,-1,-1,-1],"split_conditions":[2.6021254E1,6.6374E4,9.829783E0,-9.969567E-2,1.04529895E-1,-1.0687219E-1,1.03401184E-1],"split_indices":[35,32,33,0,0,0,0],"split_type":[0,0,0,0,0,0,0],"sum_hessian":[3.3942197E2,1.9942445E2,1.3999751E2,1.6359697E1,1.8306476E2,1.3883252E2,1.1649979E0],"tree_param":{"num_deleted":"0","num_feature":"45","num_nodes":"7","size_leaf_vector":"1"}},{"base_weights":[8.626196E-2,8.451687E-1,-1.0099046E0,-9.7237E-2,1.0446901E-1,-1.0691519E-1,1.0319012E-1],"categories":[],"categories_nodes":[],"categories_segments":[],"categories_sizes":[],"default_left":[0,0,0,0,0,0,0],"id":32,"left_children":[1,3,5,-1,-1,-1,-1],"loss_changes":[2.5266272E2,5.0359802E1,4.1070786E0,0E0,0E0,0E0,0E0],"parents":[2147483647,0,0,1,1,2,2],"right_children":[2,4,6,-1,-1,-1,-1],"split_conditions":[5.0940495E0,6.6374E4,9.829783E0,-9.7237E-2,1.0446901E-1,-1.0691519E-1,1.0319012E-1],"split_indices":[40,32,33,0,0,0,0],"split_type":[0,0,0,0,0,0,0],"sum_hessian":[3.036994E2,1.794589E2,1.24240524E2,1.4612786E1,1.648461E2,1.23231766E2,1.0087576E0],"tree_param":{"num_deleted":"0","num_feature":"45","num_nodes":"7","size_leaf_vector":"1"}},{"base_weights":[8.501945E-2,8.361083E-1,-1.0554813E-1,-1.00449555E-1,1.0447852E-1],"categories":[],"categories_nodes":[],"categories_segments":[],"categories_sizes":[],"default_left":[0,0,0,0,0],"id":33,"left_children":[1,3,-1,-1,-1],"loss_changes":[2.252908E2,4.8742554E1,0E0,0E0,0E0],"parents":[2147483647,0,0,1,1],"right_children":[2,4,-1,-1,-1],"split_conditions":[5.1511617E0,6.6374E4,-1.0554813E-1,-1.00449555E-1,1.0447852E-1],"split_indices":[40,32,0,0,0],"split_type":[0,0,0,0,0],"sum_hessian":[2.7308917E2,1.6218095E2,1.1090822E2,1.3752097E1,1.4842886E2],"tree_param":{"num_deleted":"0","num_feature":"45","num_nodes":"5","size_leaf_vector":"1"}},{"base_weights":[7.2750136E-2,8.4344155E-1,-1.0051744E0,-9.774305E-2,1.0442949E-1,-1.06601596E-1,1.0307198E-1],"categories":[],"categories_nodes":[],"categories_segments":[],"categories_sizes":[],"default_left":[0,0,0,0,0,0,0],"id":34,"left_children":[1,3,5,-1,-1,-1,-1],"loss_changes":[2.0648929E2,4.1090736E1,3.7725525E0,0E0,0E0,0E0,0E0],"parents":[2147483647,0,0,1,1,2,2],"right_children":[2,4,6,-1,-1,-1,-1],"split_conditions":[5.0940495E0,6.6374E4,9.829783E0,-9.774305E-2,1.0442949E-1,-1.06601596E-1,1.0307198E-1],"split_indices":[40,32,33,0,0,0,0],"split_type":[0,0,0,0,0,0,0],"sum_hessian":[2.4853604E2,1.4492311E2,1.0361293E2,1.1873031E1,1.3305008E2,1.0268241E2,9.305226E-1],"tree_param":{"num_deleted":"0","num_feature":"45","num_nodes":"7","size_leaf_vector":"1"}},{"base_weights":[7.5723216E-2,8.2908386E-1,-1.0047221E0,1.0365909E-1,-1.0525439E-1,9.26392E-2,-1.06344976E-1],"categories":[],"categories_nodes":[],"categories_segments":[],"categories_sizes":[],"default_left":[0,0,0,0,0,0,0],"id":35,"left_children":[1,3,5,-1,-1,-1,-1],"loss_changes":[1.8374878E2,4.0635452E1,2.853386E0,0E0,0E0,0E0,0E0],"parents":[2147483647,0,0,1,1,2,2],"right_children":[2,4,6,-1,-1,-1,-1],"split_conditions":[5.1511617E0,2.296327E1,2.533852E2,1.0365909E-1,-1.0525439E-1,9.26392E-2,-1.06344976E-1],"split_indices":[40,36,34,0,0,0,0],"split_type":[0,0,0,0,0,0,0],"sum_hessian":[2.2572281E2,1.3299411E2,9.272869E1,1.21989075E2,1.1005037E1,7.797721E-1,9.194892E1],"tree_param":{"num_deleted":"0","num_feature":"45","num_nodes":"7","size_leaf_vector":"1"}},{"base_weights":[9.092513E-2,8.4347826E-1,-9.958666E-1,1.03317454E-1,-1.0471339E-1,-1.0584388E-1,1.0284301E-1],"categories":[],"categories_nodes":[],"categories_segments":[],"categories_sizes":[],"default_left":[0,0,0,0,0,0,0],"id":36,"left_children":[1,3,5,-1,-1,-1,-1],"loss_changes":[1.6481421E2,3.2669823E1,3.3191452E0,0E0,0E0,0E0,0E0],"parents":[2147483647,0,0,1,1,2,2],"right_children":[2,4,6,-1,-1,-1,-1],"split_conditions":[2.6021254E1,2.1217325E1,8.195499E0,1.03317454E-1,-1.0471339E-1,-1.0584388E-1,1.0284301E-1],"split_indices":[35,36,33,0,0,0,0],"split_type":[0,0,0,0,0,0,0],"sum_hessian":[2.0149419E2,1.1905673E2,8.243746E1,1.10217476E2,8.839251E0,8.161116E1,8.2630074E-1],"tree_param":{"num_deleted":"0","num_feature":"45","num_nodes":"7","size_leaf_vector":"1"}},{"base_weights":[8.372295E-2,8.350587E-1,-9.943957E-1,1.0307167E-1,-1.0426241E-1,7.434268E-2,-1.05594024E-1],"categories":[],"categories_nodes":[],"categories_segments":[],"categories_sizes":[],"default_left":[0,0,0,0,0,0,0],"id":37,"left_children":[1,3,5,-1,-1,-1,-1],"loss_changes":[1.4810857E2,3.056099E1,2.4843597E0,0E0,0E0,0E0,0E0],"parents":[2147483647,0,0,1,1,2,2],"right_children":[2,4,6,-1,-1,-1,-1],"split_conditions":[2.6021254E1,2.1217325E1,2.5033742E2,1.0307167E-1,-1.0426241E-1,7.434268E-2,-1.05594024E-1],"split_indices":[35,36,34,0,0,0,0],"split_type":[0,0,0,0,0,0,0],"sum_hessian":[1.8282097E2,1.0774078E2,7.508018E1,9.938724E1,8.353551E0,8.336204E-1,7.424656E1],"tree_param":{"num_deleted":"0","num_feature":"45","num_nodes":"7","size_leaf_vector":"1"}},{"base_weights":[7.156476E-2,8.243662E-1,-1.0430514E-1,9.799803E-1,-1.0568682E-1,-9.599495E-2,1.0376063E-1],"categories":[],"categories_nodes":[],"categories_segments":[],"categories_sizes":[],"default_left":[0,0,0,0,0,0,0],"id":38,"left_children":[1,3,-1,5,-1,-1,-1],"loss_changes":[1.3486469E2,2.8092117E1,0E0,2.7834015E0,0E0,0E0,0E0],"parents":[2147483647,0,0,1,1,3,3],"right_children":[2,4,-1,6,-1,-1,-1],"split_conditions":[5.1511617E0,2.452922E1,-1.0430514E-1,1.53E1,-1.0568682E-1,-9.599495E-2,1.0376063E-1],"split_indices":[40,36,0,37,0,0,0],"split_type":[0,0,0,0,0,0,0],"sum_hessian":[1.6695686E2,9.8116554E1,6.884032E1,9.046718E1,7.6493764E0,7.5429076E-1,8.971288E1],"tree_param":{"num_deleted":"0","num_feature":"45","num_nodes":"7","size_leaf_vector":"1"}},{"base_weights":[7.837624E-2,8.377858E-1,-9.7727805E-1,-8.800856E-2,1.0432049E-1,1.029019E-1,-1.0472201E-1],"categories":[],"categories_nodes":[],"categories_segments":[],"categories_sizes":[],"default_left":[0,0,0,0,0,0,0],"id":39,"left_children":[1,3,5,-1,-1,-1,-1],"loss_changes":[1.20166885E2,2.4021778E1,3.4680023E0,0E0,0E0,0E0,0E0],"parents":[2147483647,0,0,1,1,2,2],"right_children":[2,4,6,-1,-1,-1,-1],"split_conditions":[2.5687933E1,6.6374E4,2.5090393E2,-8.800856E-2,1.0432049E-1,1.029019E-1,-1.0472201E-1],"split_indices":[35,32,34,0,0,0,0],"split_type":[0,0,0,0,0,0,0],"sum_hessian":[1.4987244E2,8.716903E1,6.27034E1,7.7229605E0,7.944607E1,8.762419E-1,6.1827156E1],"tree_param":{"num_deleted":"0","num_feature":"45","num_nodes":"7","size_leaf_vector":"1"}},{"base_weights":[7.306323E-2,8.279366E-1,-1.0341247E-1,-8.468876E-2,1.0434422E-1],"categories":[],"categories_nodes":[],"categories_segments":[],"categories_sizes":[],"default_left":[0,0,0,0,0],"id":40,"left_children":[1,3,-1,-1,-1],"loss_changes":[1.0935556E2,2.2696854E1,0E0,0E0,0E0],"parents":[2147483647,0,0,1,1],"right_children":[2,4,-1,-1,-1],"split_conditions":[5.1511617E0,3.1655E3,-1.0341247E-1,-8.468876E-2,1.0434422E-1],"split_indices":[40,39,0,0,0],"split_type":[0,0,0,0,0],"sum_hessian":[1.3589755E2,7.9555595E1,5.634195E1,7.612921E0,7.194267E1],"tree_param":{"num_deleted":"0","num_feature":"45","num_nodes":"5","size_leaf_vector":"1"}},{"base_weights":[7.453655E-2,8.2764834E-1,-9.798056E-1,-9.087341E-2,1.0427088E-1,-1.0499057E-1,7.878628E-2],"categories":[],"categories_nodes":[],"categories_segments":[],"categories_sizes":[],"default_left":[0,0,0,0,0,0,0],"id":41,"left_children":[1,3,5,-1,-1,-1,-1],"loss_changes":[9.706087E1,2.1023315E1,2.4936714E0,0E0,0E0,0E0,0E0],"parents":[2147483647,0,0,1,1,2,2],"right_children":[2,4,6,-1,-1,-1,-1],"split_conditions":[5.0940495E0,6.6374E4,8.156528E0,-9.087341E-2,1.0427088E-1,-1.0499057E-1,7.878628E-2],"split_indices":[40,32,33,0,0,0,0],"split_type":[0,0,0,0,0,0,0],"sum_hessian":[1.2221463E2,7.129366E1,5.0920967E1,6.591995E0,6.470167E1,5.0115402E1,8.055653E-1],"tree_param":{"num_deleted":"0","num_feature":"45","num_nodes":"7","size_leaf_vector":"1"}},{"base_weights":[8.346453E-2,8.320125E-1,-1.0185231E-1,1.0240593E-1,-1.0495885E-1],"categories":[],"categories_nodes":[],"categories_segments":[],"categories_sizes":[],"default_left":[0,0,0,0,0],"id":42,"left_children":[1,3,-1,-1,-1],"loss_changes":[8.774981E1,1.8013657E1,0E0,0E0,0E0],"parents":[2147483647,0,0,1,1],"right_children":[2,4,-1,-1,-1],"split_conditions":[5.0940495E0,2.296327E1,-1.0185231E-1,1.0240593E-1,-1.0495885E-1],"split_indices":[40,36,0,0,0],"split_type":[0,0,0,0,0],"sum_hessian":[1.1043922E2,6.476263E1,4.5676582E1,5.985315E1,4.909479E0],"tree_param":{"num_deleted":"0","num_feature":"45","num_nodes":"5","size_leaf_vector":"1"}},{"base_weights":[7.8073725E-2,8.0876666E-1,-1.0188627E-1,-8.3644345E-2,1.042807E-1],"categories":[],"categories_nodes":[],"categories_segments":[],"categories_sizes":[],"default_left":[0,0,0,0,0],"id":43,"left_children":[1,3,-1,-1,-1],"loss_changes":[7.70432E1,1.8300392E1,0E0,0E0,0E0],"parents":[2147483647,0,0,1,1],"right_children":[2,4,-1,-1,-1],"split_conditions":[5.1511617E0,6.6374E4,-1.0188627E-1,-8.3644345E-2,1.042807E-1],"split_indices":[40,32,0,0,0],"split_type":[0,0,0,0,0],"sum_hessian":[9.980781E1,5.899643E1,4.081138E1,6.284727E0,5.27117E1],"tree_param":{"num_deleted":"0","num_feature":"45","num_nodes":"5","size_leaf_vector":"1"}},{"base_weights":[7.336571E-2,8.1314826E-1,-9.710548E-1,-8.1854634E-2,1.0423883E-1,8.046879E-2,-1.0500317E-1],"categories":[],"categories_nodes":[],"categories_segments":[],"categories_sizes":[],"default_left":[0,0,0,0,0,0,0],"id":44,"left_children":[1,3,5,-1,-1,-1,-1],"loss_changes":[7.039187E1,1.6001282E1,2.4441032E0,0E0,0E0,0E0,0E0],"parents":[2147483647,0,0,1,1,2,2],"right_children":[2,4,6,-1,-1,-1,-1],"split_conditions":[5.1511617E0,6.6374E4,2.5033742E2,-8.1854634E-2,1.0423883E-1,8.046879E-2,-1.0500317E-1],"split_indices":[40,32,34,0,0,0,0],"split_type":[0,0,0,0,0,0,0],"sum_hessian":[9.108268E1,5.3319405E1,3.7763275E1,5.592735E0,4.772667E1,7.7867055E-1,3.6984604E1],"tree_param":{"num_deleted":"0","num_feature":"45","num_nodes":"7","size_leaf_vector":"1"}},{"base_weights":[9.170396E-2,1.01660475E-1,-7.404442E-1,-1.01524524E-1,7.986034E-2],"categories":[],"categories_nodes":[],"categories_segments":[],"categories_sizes":[],"default_left":[0,0,0,0,0],"id":45,"left_children":[1,-1,3,-1,-1],"loss_changes":[6.0230637E1,0E0,1.4892183E1,0E0,0E0],"parents":[2147483647,0,0,2,2],"right_children":[2,-1,4,-1,-1],"split_conditions":[1.3783007E1,1.01660475E-1,4.284179E1,-1.01524524E-1,7.986034E-2],"split_indices":[41,0,3,0,0],"split_type":[0,0,0,0,0],"sum_hessian":[8.1833206E1,3.9674862E1,4.2158344E1,3.6492702E1,5.665642E0],"tree_param":{"num_deleted":"0","num_feature":"45","num_nodes":"5","size_leaf_vector":"1"}},{"base_weights":[7.992915E-2,8.163478E-1,-9.570706E-1,-6.70711E-1,1.042188E-1,9.0563096E-2,-1.0442855E-1,7.1936056E-2,-9.888223E-2],"categories":[],"categories_nodes":[],"categories_segments":[],"categories_sizes":[],"default_left":[0,0,0,0,0,0,0,0,0],"id":46,"left_children":[1,3,5,7,-1,-1,-1,-1,-1],"loss_changes":[5.703537E1,1.1967369E1,2.58391E0,1.8347688E0,0E0,0E0,0E0,0E0,0E0],"parents":[2147483647,0,0,1,1,2,2,3,3],"right_children":[2,4,6,8,-1,-1,-1,-1,-1],"split_conditions":[2.6021254E1,6.6374E4,2.533852E2,6.94E1,1.042188E-1,9.0563096E-2,-1.0442855E-1,7.1936056E-2,-9.888223E-2],"split_indices":[35,32,34,34,0,0,0,0,0],"split_type":[0,0,0,0,0,0,0,0,0],"sum_hessian":[7.466376E1,4.3661556E1,3.10022E1,4.8068814E0,3.8854675E1,7.468306E-1,3.025537E1,8.128257E-1,3.9940555E0],"tree_param":{"num_deleted":"0","num_feature":"45","num_nodes":"9","size_leaf_vector":"1"}},{"base_weights":[8.701475E-2,8.1850123E-1,-1.0043364E-1,1.015899E-1,-1.04505196E-1],"categories":[],"categories_nodes":[],"categories_segments":[],"categories_sizes":[],"default_left":[0,0,0,0,0],"id":47,"left_children":[1,3,-1,-1,-1],"loss_changes":[5.2312637E1,1.146744E1,0E0,0E0,0E0],"parents":[2147483647,0,0,1,1],"right_children":[2,4,-1,-1,-1],"split_conditions":[5.1511617E0,2.4530672E1,-1.0043364E-1,1.015899E-1,-1.04505196E-1],"split_indices":[40,41,0,0,0],"split_type":[0,0,0,0,0],"sum_hessian":[6.801143E1,4.0106274E1,2.7905153E1,3.6934185E1,3.172091E0],"tree_param":{"num_deleted":"0","num_feature":"45","num_nodes":"5","size_leaf_vector":"1"}},{"base_weights":[8.335417E-2,7.9141587E-1,-9.990065E-2,9.970038E-2,-1.0441695E-1],"categories":[],"categories_nodes":[],"categories_segments":[],"categories_sizes":[],"default_left":[0,0,0,0,0],"id":48,"left_children":[1,3,-1,-1,-1],"loss_changes":[4.572526E1,1.0976685E1,0E0,0E0,0E0],"parents":[2147483647,0,0,1,1],"right_children":[2,4,-1,-1,-1],"split_conditions":[5.1511617E0,2.452922E1,-9.990065E-2,9.970038E-2,-1.0441695E-1],"split_indices":[40,36,0,0,0],"split_type":[0,0,0,0,0],"sum_hessian":[6.192904E1,3.688112E1,2.5047922E1,3.3767864E1,3.1132545E0],"tree_param":{"num_deleted":"0","num_feature":"45","num_nodes":"5","size_leaf_vector":"1"}},{"base_weights":[8.383099E-2,7.8452617E-1,-9.4400233E-1,-7.1181625E-2,1.0421889E-1,-1.0461947E-1,8.170839E-2],"categories":[],"categories_nodes":[],"categories_segments":[],"categories_sizes":[],"default_left":[0,0,0,0,0,0,0],"id":49,"left_children":[1,3,5,-1,-1,-1,-1],"loss_changes":[4.008546E1,1.0500349E1,2.3622475E0,0E0,0E0,0E0,0E0],"parents":[2147483647,0,0,1,1,2,2],"right_children":[2,4,6,-1,-1,-1,-1],"split_conditions":[5.1511617E0,6.6374E4,8.1145735E0,-7.1181625E-2,1.0421889E-1,-1.0461947E-1,8.170839E-2],"split_indices":[40,32,33,0,0,0,0],"split_type":[0,0,0,0,0,0,0],"sum_hessian":[5.5636417E1,3.308544E1,2.2550976E1,4.2396E0,2.8845842E1,2.1795614E1,7.5536174E-1],"tree_param":{"num_deleted":"0","num_feature":"45","num_nodes":"7","size_leaf_vector":"1"}},{"base_weights":[7.424273E-2,7.754351E-1,-9.399862E-1,-7.42424E-2,1.04207866E-1,7.7745825E-2,-1.0457035E-1],"categories":[],"categories_nodes":[],"categories_segments":[],"categories_sizes":[],"default_left":[0,0,0,0,0,0,0],"id":50,"left_children":[1,3,5,-1,-1,-1,-1],"loss_changes":[3.600294E1,1.0028778E1,2.2381E0,0E0,0E0,0E0,0E0],"parents":[2147483647,0,0,1,1,2,2],"right_children":[2,4,6,-1,-1,-1,-1],"split_conditions":[5.1511617E0,3.1655E3,2.5181493E2,-7.42424E-2,1.04207866E-1,7.7745825E-2,-1.0457035E-1],"split_indices":[40,39,34,0,0,0,0],"split_type":[0,0,0,0,0,0,0],"sum_hessian":[5.060248E1,2.9920708E1,2.0681776E1,3.9249682E0,2.5995739E1,7.496936E-1,1.9932083E1],"tree_param":{"num_deleted":"0","num_feature":"45","num_nodes":"7","size_leaf_vector":"1"}},{"base_weights":[7.219969E-2,7.874366E-1,-9.394754E-1,-7.330576E-2,1.04189694E-1,-1.04524925E-1,6.1002363E-2],"categories":[],"categories_nodes":[],"categories_segments":[],"categories_sizes":[],"default_left":[0,0,0,0,0,0,0],"id":51,"left_children":[1,3,5,-1,-1,-1,-1],"loss_changes":[3.3170837E1,8.529537E0,1.8592072E0,0E0,0E0,0E0,0E0],"parents":[2147483647,0,0,1,1,2,2],"right_children":[2,4,6,-1,-1,-1,-1],"split_conditions":[5.1511617E0,6.6374E4,8.161353E0,-7.330576E-2,1.04189694E-1,-1.04524925E-1,6.1002363E-2],"split_indices":[40,32,33,0,0,0,0],"split_type":[0,0,0,0,0,0,0],"sum_hessian":[4.5819714E1,2.6844805E1,1.897491E1,3.3481529E0,2.349665E1,1.8215767E1,7.5914454E-1],"tree_param":{"num_deleted":"0","num_feature":"45","num_nodes":"7","size_leaf_vector":"1"}},{"base_weights":[8.0469124E-2,7.666044E-1,-9.763719E-2,-6.610194E-2,1.0418186E-1],"categories":[],"categories_nodes":[],"categories_segments":[],"categories_sizes":[],"default_left":[0,0,0,0,0],"id":52,"left_children":[1,3,-1,-1,-1],"loss_changes":[2.872416E1,8.047454E0,0E0,0E0,0E0],"parents":[2147483647,0,0,1,1],"right_children":[2,4,-1,-1,-1],"split_conditions":[5.1511617E0,6.6374E4,-9.763719E-2,-6.610194E-2,1.0418186E-1],"split_indices":[40,32,0,0,0],"split_type":[0,0,0,0,0],"sum_hessian":[4.1109768E1,2.4558138E1,1.655163E1,3.5047596E0,2.1053377E1],"tree_param":{"num_deleted":"0","num_feature":"45","num_nodes":"5","size_leaf_vector":"1"}},{"base_weights":[6.8642534E-2,7.2284645E-1,-1.0319482E-1,-7.723612E-2,9.7167924E-2],"categories":[],"categories_nodes":[],"categories_segments":[],"categories_sizes":[],"default_left":[0,0,0,0,0],"id":53,"left_children":[1,3,-1,-1,-1],"loss_changes":[2.5950361E1,7.1255207E0,0E0,0E0,0E0],"parents":[2147483647,0,0,1,1],"right_children":[2,4,-1,-1,-1],"split_conditions":[7.124496E0,2.1145802E1,-1.0319482E-1,-7.723612E-2,9.7167924E-2],"split_indices":[0,37,0,0,0],"split_type":[0,0,0,0,0],"sum_hessian":[3.7423847E1,2.3138794E1,1.4285052E1,2.8972855E0,2.0241508E1],"tree_param":{"num_deleted":"0","num_feature":"45","num_nodes":"5","size_leaf_vector":"1"}},{"base_weights":[8.5467115E-2,7.646906E-1,-1.00001864E-1,9.7700365E-2,-9.846487E-2],"categories":[],"categories_nodes":[],"categories_segments":[],"categories_sizes":[],"default_left":[0,0,0,0,0],"id":54,"left_children":[1,3,-1,-1,-1],"loss_changes":[2.497511E1,6.325204E0,0E0,0E0,0E0],"parents":[2147483647,0,0,1,1],"right_children":[2,4,-1,-1,-1],"split_conditions":[2.9307854E1,2.7879221E1,-1.00001864E-1,9.7700365E-2,-9.846487E-2],"split_indices":[35,36,0,0,0],"split_type":[0,0,0,0,0],"sum_hessian":[3.5147984E1,2.1308655E1,1.3839328E1,1.93539E1,1.9547536E0],"tree_param":{"num_deleted":"0","num_feature":"45","num_nodes":"5","size_leaf_vector":"1"}},{"base_weights":[7.18088E-2,9.809673E-2,-7.226083E-1,-1.0176955E-1,6.7405984E-2],"categories":[],"categories_nodes":[],"categories_segments":[],"categories_sizes":[],"default_left":[0,0,0,0,0],"id":55,"left_children":[1,-1,3,-1,-1],"loss_changes":[2.207916E1,0E0,5.825693E0,0E0,0E0],"parents":[2147483647,0,0,2,2],"right_children":[2,-1,4,-1,-1],"split_conditions":[1.3784355E1,9.809673E-2,2.930089E1,-1.0176955E-1,6.7405984E-2],"split_indices":[36,0,5,0,0],"split_type":[0,0,0,0,0],"sum_hessian":[3.1926153E1,1.5238809E1,1.6687346E1,1.4077251E1,2.610093E0],"tree_param":{"num_deleted":"0","num_feature":"45","num_nodes":"5","size_leaf_vector":"1"}},{"base_weights":[6.890709E-2,9.685641E-2,-7.0902413E-1,-1.010538E-1,6.0712025E-2],"categories":[],"categories_nodes":[],"categories_segments":[],"categories_sizes":[],"default_left":[0,0,0,0,0],"id":56,"left_children":[1,-1,3,-1,-1],"loss_changes":[1.9267931E1,0E0,5.104248E0,0E0,0E0],"parents":[2147483647,0,0,2,2],"right_children":[2,-1,4,-1,-1],"split_conditions":[1.3783007E1,9.685641E-2,2.930089E1,-1.010538E-1,6.0712025E-2],"split_indices":[41,0,3,0,0],"split_type":[0,0,0,0,0],"sum_hessian":[2.8746914E1,1.3645514E1,1.5101399E1,1.2565737E1,2.535663E0],"tree_param":{"num_deleted":"0","num_feature":"45","num_nodes":"5","size_leaf_vector":"1"}},{"base_weights":[8.860544E-2,7.1868557E-1,-9.757775E-2,-4.4435475E-2,1.0410364E-1],"categories":[],"categories_nodes":[],"categories_segments":[],"categories_sizes":[],"default_left":[0,0,0,0,0],"id":57,"left_children":[1,3,-1,-1,-1],"loss_changes":[1.7126236E1,5.284216E0,0E0,0E0,0E0],"parents":[2147483647,0,0,1,1],"right_children":[2,4,-1,-1,-1],"split_conditions":[2.9307854E1,6.6374E4,-9.757775E-2,-4.4435475E-2,1.0410364E-1],"split_indices":[35,32,0,0,0],"split_type":[0,0,0,0,0],"sum_hessian":[2.648657E1,1.640834E1,1.0078231E1,3.2278636E0,1.3180476E1],"tree_param":{"num_deleted":"0","num_feature":"45","num_nodes":"5","size_leaf_vector":"1"}},{"base_weights":[8.785689E-2,7.0682836E-1,-9.631097E-2,-3.087153E-2,1.0389597E-1],"categories":[],"categories_nodes":[],"categories_segments":[],"categories_sizes":[],"default_left":[0,0,0,0,0],"id":58,"left_children":[1,3,-1,-1,-1],"loss_changes":[1.55736475E1,4.500033E0,0E0,0E0,0E0],"parents":[2147483647,0,0,1,1],"right_children":[2,4,-1,-1,-1],"split_conditions":[2.9307854E1,6.6374E4,-9.631097E-2,-3.087153E-2,1.0389597E-1],"split_indices":[35,32,0,0,0],"split_type":[0,0,0,0,0],"sum_hessian":[2.4828896E1,1.5411572E1,9.417323E0,3.460163E0,1.1951409E1],"tree_param":{"num_deleted":"0","num_feature":"45","num_nodes":"5","size_leaf_vector":"1"}},{"base_weights":[6.447007E-2,6.567611E-1,-1.0261402E-1,-6.814556E-2,9.2079274E-2],"categories":[],"categories_nodes":[],"categories_segments":[],"categories_sizes":[],"default_left":[0,0,0,0,0],"id":59,"left_children":[1,3,-1,-1,-1],"loss_changes":[1.38611555E1,4.252429E0,0E0,0E0,0E0],"parents":[2147483647,0,0,1,1],"right_children":[2,4,-1,-1,-1],"split_conditions":[7.124496E0,1.85E1,-1.0261402E-1,-6.814556E-2,9.2079274E-2],"split_indices":[0,37,0,0,0],"split_type":[0,0,0,0,0],"sum_hessian":[2.2275291E1,1.4243135E1,8.032156E0,2.0997596E0,1.2143376E1],"tree_param":{"num_deleted":"0","num_feature":"45","num_nodes":"5","size_leaf_vector":"1"}},{"base_weights":[4.74871E-2,9.3242705E-2,-7.0004976E-1,-1.02836296E-1,4.6532493E-2],"categories":[],"categories_nodes":[],"categories_segments":[],"categories_sizes":[],"default_left":[0,0,0,0,0],"id":60,"left_children":[1,-1,3,-1,-1],"loss_changes":[1.2841764E1,0E0,3.5520134E0,0E0,0E0],"parents":[2147483647,0,0,2,2],"right_children":[2,-1,4,-1,-1],"split_conditions":[1.3783007E1,9.3242705E-2,1.5868804E1,-1.02836296E-1,4.6532493E-2],"split_indices":[41,0,5,0,0],"split_type":[0,0,0,0,0],"sum_hessian":[2.0243765E1,9.486554E0,1.0757212E1,8.605108E0,2.1521032E0],"tree_param":{"num_deleted":"0","num_feature":"45","num_nodes":"5","size_leaf_vector":"1"}},{"base_weights":[7.51965E-2,6.56211E-1,-1.02508925E-1,-7.2571054E-2,9.519906E-2],"categories":[],"categories_nodes":[],"categories_segments":[],"categories_sizes":[],"default_left":[0,0,0,0,0],"id":61,"left_children":[1,3,-1,-1,-1],"loss_changes":[1.1430122E1,4.188965E0,0E0,0E0,0E0],"parents":[2147483647,0,0,1,1],"right_children":[2,4,-1,-1,-1],"split_conditions":[7.124496E0,2.1145802E1,-1.02508925E-1,-7.2571054E-2,9.519906E-2],"split_indices":[0,37,0,0,0],"split_type":[0,0,0,0,0],"sum_hessian":[1.8549469E1,1.1982624E1,6.5668454E0,1.9132808E0,1.0069343E1],"tree_param":{"num_deleted":"0","num_feature":"45","num_nodes":"5","size_leaf_vector":"1"}},{"base_weights":[3.7785783E-2,9.096249E-2,-6.8437696E-1,-1.0205335E-1,3.9678358E-2],"categories":[],"categories_nodes":[],"categories_segments":[],"categories_sizes":[],"default_left":[0,0,0,0,0],"id":62,"left_children":[1,-1,3,-1,-1],"loss_changes":[1.0100108E1,0E0,2.8297243E0,0E0,0E0],"parents":[2147483647,0,0,2,2],"right_children":[2,-1,4,-1,-1],"split_conditions":[1.3784355E1,9.096249E-2,1.5868804E1,-1.0205335E-1,3.9678358E-2],"split_indices":[36,0,3,0,0],"split_type":[0,0,0,0,0],"sum_hessian":[1.6717701E1,7.75072E0,8.966981E0,7.0223956E0,1.944585E0],"tree_param":{"num_deleted":"0","num_feature":"45","num_nodes":"5","size_leaf_vector":"1"}},{"base_weights":[6.830923E-2,6.672866E-1,-8.9820944E-2,9.130652E-2,-1.0327101E-1],"categories":[],"categories_nodes":[],"categories_segments":[],"categories_sizes":[],"default_left":[0,0,0,0,0],"id":63,"left_children":[1,3,-1,-1,-1],"loss_changes":[8.986756E0,3.4143453E0,0E0,0E0,0E0],"parents":[2147483647,0,0,1,1],"right_children":[2,4,-1,-1,-1],"split_conditions":[5.1511617E0,2.452922E1,-8.9820944E-2,9.130652E-2,-1.0327101E-1],"split_indices":[40,36,0,0,0],"split_type":[0,0,0,0,0],"sum_hessian":[1.6100227E1,9.798246E0,6.3019805E0,8.706097E0,1.0921504E0],"tree_param":{"num_deleted":"0","num_feature":"45","num_nodes":"5","size_leaf_vector":"1"}},{"base_weights":[8.1209056E-2,6.136837E-1,-1.0148262E-1,-6.332338E-2,8.923784E-2],"categories":[],"categories_nodes":[],"categories_segments":[],"categories_sizes":[],"default_left":[0,0,0,0,0],"id":64,"left_children":[1,3,-1,-1,-1],"loss_changes":[8.496673E0,2.9893038E0,0E0,0E0,0E0],"parents":[2147483647,0,0,1,1],"right_children":[2,4,-1,-1,-1],"split_conditions":[7.124496E0,1.85E1,-1.0148262E-1,-6.332338E-2,8.923784E-2],"split_indices":[0,37,0,0,0],"split_type":[0,0,0,0,0],"sum_hessian":[1.5096456E1,1.0038193E1,5.058263E0,1.6617055E0,8.376488E0],"tree_param":{"num_deleted":"0","num_feature":"45","num_nodes":"5","size_leaf_vector":"1"}},{"base_weights":[8.8745125E-2,6.582069E-1,-8.685766E-2,-5.522449E-2,9.339869E-2],"categories":[],"categories_nodes":[],"categories_segments":[],"categories_sizes":[],"default_left":[0,0,0,0,0],"id":65,"left_children":[1,3,-1,-1,-1],"loss_changes":[7.4529786E0,2.4912028E0,0E0,0E0,0E0],"parents":[2147483647,0,0,1,1],"right_children":[2,4,-1,-1,-1],"split_conditions":[5.0940495E0,1.85E1,-8.685766E-2,-5.522449E-2,9.339869E-2],"split_indices":[40,37,0,0,0],"split_type":[0,0,0,0,0],"sum_hessian":[1.4163557E1,8.760739E0,5.4028172E0,1.4606318E0,7.300108E0],"tree_param":{"num_deleted":"0","num_feature":"45","num_nodes":"5","size_leaf_vector":"1"}},{"base_weights":[9.493007E-2,6.0218275E-1,-8.859365E-2,-7.655024E-2,8.839004E-2],"categories":[],"categories_nodes":[],"categories_segments":[],"categories_sizes":[],"default_left":[0,0,0,0,0],"id":66,"left_children":[1,3,-1,-1,-1],"loss_changes":[6.315446E0,2.830374E0,0E0,0E0,0E0],"parents":[2147483647,0,0,1,1],"right_children":[2,4,-1,-1,-1],"split_conditions":[2.9307854E1,1.85E1,-8.859365E-2,-7.655024E-2,8.839004E-2],"split_indices":[35,37,0,0,0],"split_type":[0,0,0,0,0],"sum_hessian":[1.3146423E1,8.559538E0,4.5868855E0,1.3273684E0,7.2321696E0],"tree_param":{"num_deleted":"0","num_feature":"45","num_nodes":"5","size_leaf_vector":"1"}},{"base_weights":[9.082325E-2,5.213284E-1,-1.0192461E-1,-1.2604243E-1,1.03113405E-1,-1.04433134E-1,1.2060816E-1],"categories":[],"categories_nodes":[],"categories_segments":[],"categories_sizes":[],"default_left":[0,0,0,0,0,0,0],"id":67,"left_children":[1,3,-1,5,-1,-1,-1],"loss_changes":[5.7500596E0,2.704073E0,0E0,4.230776E0,0E0,0E0,0E0],"parents":[2147483647,0,0,1,1,3,3],"right_children":[2,4,-1,6,-1,-1,-1],"split_conditions":[2.62E2,6.2455E3,-1.0192461E-1,8.070149E0,1.03113405E-1,-1.04433134E-1,1.2060816E-1],"split_indices":[34,39,0,33,0,0,0],"split_type":[0,0,0,0,0,0,0],"sum_hessian":[1.24686365E1,8.894685E0,3.573952E0,3.736888E0,5.1577964E0,2.2228854E0,1.5140026E0],"tree_param":{"num_deleted":"0","num_feature":"45","num_nodes":"7","size_leaf_vector":"1"}},{"base_weights":[8.482414E-2,5.842734E-2,-9.718074E-2],"categories":[],"categories_nodes":[],"categories_segments":[],"categories_sizes":[],"default_left":[0,0,0],"id":68,"left_children":[1,-1,-1],"loss_changes":[5.3738947E0,0E0,0E0],"parents":[2147483647,0,0],"right_children":[2,-1,-1],"split_conditions":[7.124496E0,5.842734E-2,-9.718074E-2],"split_indices":[0,0,0],"split_type":[0,0,0],"sum_hessian":[1.106863E1,7.5455165E0,3.5231137E0],"tree_param":{"num_deleted":"0","num_feature":"45","num_nodes":"3","size_leaf_vector":"1"}},{"base_weights":[5.4999266E-2,8.784577E-2,-6.000104E-2],"categories":[],"categories_nodes":[],"categories_segments":[],"categories_sizes":[],"default_left":[0,0,0],"id":69,"left_children":[1,-1,-1],"loss_changes":[5.0047436E0,0E0,0E0],"parents":[2147483647,0,0],"right_children":[2,-1,-1],"split_conditions":[1.3783007E1,8.784577E-2,-6.000104E-2],"split_indices":[41,0,0],"split_type":[0,0,0],"sum_hessian":[1.0038105E1,4.4620867E0,5.5760183E0],"tree_param":{"num_deleted":"0","num_feature":"45","num_nodes":"3","size_leaf_vector":"1"}},{"base_weights":[6.630782E-2,5.024693E-1,-9.587157E-2,-7.714511E-2,8.255163E-2],"categories":[],"categories_nodes":[],"categories_segments":[],"categories_sizes":[],"default_left":[0,0,0,0,0],"id":70,"left_children":[1,3,-1,-1,-1],"loss_changes":[4.2690725E0,2.487021E0,0E0,0E0,0E0],"parents":[2147483647,0,0,1,1],"right_children":[2,4,-1,-1,-1],"split_conditions":[7.124496E0,1.85E1,-9.587157E-2,-7.714511E-2,8.255163E-2],"split_indices":[0,37,0,0,0],"split_type":[0,0,0,0,0],"sum_hessian":[9.898058E0,6.868697E0,3.0293605E0,1.2951549E0,5.573542E0],"tree_param":{"num_deleted":"0","num_feature":"45","num_nodes":"5","size_leaf_vector":"1"}},{"base_weights":[2.9905776E-2,8.999165E-2,-6.0800593E-2],"categories":[],"categories_nodes":[],"categories_segments":[],"categories_sizes":[],"default_left":[0,0,0],"id":71,"left_children":[1,-1,-1],"loss_changes":[4.4281216E0,0E0,0E0],"parents":[2147483647,0,0],"right_children":[2,-1,-1],"split_conditions":[1.3784355E1,8.999165E-2,-6.0800593E-2],"split_indices":[36,0,0],"split_type":[0,0,0],"sum_hessian":[8.62993E0,3.6569731E0,4.972956E0],"tree_param":{"num_deleted":"0","num_feature":"45","num_nodes":"3","size_leaf_vector":"1"}},{"base_weights":[2.7834402E-2,8.467762E-2,-5.850412E-2],"categories":[],"categories_nodes":[],"categories_segments":[],"categories_sizes":[],"default_left":[0,0,0],"id":72,"left_children":[1,-1,-1],"loss_changes":[3.8749344E0,0E0,0E0],"parents":[2147483647,0,0],"right_children":[2,-1,-1],"split_conditions":[1.3783007E1,8.467762E-2,-5.850412E-2],"split_indices":[41,0,0],"split_type":[0,0,0],"sum_hessian":[8.350106E0,3.5801506E0,4.7699556E0],"tree_param":{"num_deleted":"0","num_feature":"45","num_nodes":"3","size_leaf_vector":"1"}},{"base_weights":[7.24955E-2,4.655919E-1,-1.010497E-1,-6.068258E-2,8.093551E-2],"categories":[],"categories_nodes":[],"categories_segments":[],"categories_sizes":[],"default_left":[0,0,0,0,0],"id":73,"left_children":[1,3,-1,-1,-1],"loss_changes":[3.5588193E0,2.0637853E0,0E0,0E0,0E0],"parents":[2147483647,0,0,1,1],"right_children":[2,4,-1,-1,-1],"split_conditions":[2.62E2,2.4060701E1,-1.010497E-1,-6.068258E-2,8.093551E-2],"split_indices":[34,35,0,0,0],"split_type":[0,0,0,0,0],"sum_hessian":[8.661717E0,6.29559E0,2.3661273E0,1.438644E0,4.8569455E0],"tree_param":{"num_deleted":"0","num_feature":"45","num_nodes":"5","size_leaf_vector":"1"}},{"base_weights":[9.5662795E-2,5.2457333E-2,-9.904521E-2],"categories":[],"categories_nodes":[],"categories_segments":[],"categories_sizes":[],"default_left":[0,0,0],"id":74,"left_children":[1,-1,-1],"loss_changes":[3.413545E0,0E0,0E0],"parents":[2147483647,0,0],"right_children":[2,-1,-1],"split_conditions":[8.4E0,5.2457333E-2,-9.904521E-2],"split_indices":[0,0,0],"split_type":[0,0,0],"sum_hessian":[7.9738784E0,5.7426033E0,2.231275E0],"tree_param":{"num_deleted":"0","num_feature":"45","num_nodes":"3","size_leaf_vector":"1"}},{"base_weights":[7.3953174E-2,4.5641357E-1,-9.0102986E-2,-6.314533E-2,8.41341E-2],"categories":[],"categories_nodes":[],"categories_segments":[],"categories_sizes":[],"default_left":[0,0,0,0,0],"id":75,"left_children":[1,3,-1,-1,-1],"loss_changes":[2.7101686E0,2.00776E0,0E0,0E0,0E0],"parents":[2147483647,0,0,1,1],"right_children":[2,4,-1,-1,-1],"split_conditions":[7.124496E0,2.1145802E1,-9.0102986E-2,-6.314533E-2,8.41341E-2],"split_indices":[0,37,0,0,0],"split_type":[0,0,0,0,0],"sum_hessian":[7.5249395E0,5.3521423E0,2.1727974E0,1.3266736E0,4.025469E0],"tree_param":{"num_deleted":"0","num_feature":"45","num_nodes":"5","size_leaf_vector":"1"}},{"base_weights":[7.089575E-2,4.3677986E-2,-1.0041208E-1],"categories":[],"categories_nodes":[],"categories_segments":[],"categories_sizes":[],"default_left":[0,0,0],"id":76,"left_children":[1,-1,-1],"loss_changes":[2.688993E0,0E0,0E0],"parents":[2147483647,0,0],"right_children":[2,-1,-1],"split_conditions":[2.62E2,4.3677986E-2,-1.0041208E-1],"split_indices":[34,0,0],"split_type":[0,0,0],"sum_hessian":[7.4362345E0,5.569261E0,1.8669735E0],"tree_param":{"num_deleted":"0","num_feature":"45","num_nodes":"3","size_leaf_vector":"1"}},{"base_weights":[5.6396767E-2,3.663289E-1,-9.962406E-2,-2.1850502E-1,1.0229815E-1,-1.0438341E-1,1.177162E-1],"categories":[],"categories_nodes":[],"categories_segments":[],"categories_sizes":[],"default_left":[0,0,0,0,0,0,0],"id":77,"left_children":[1,3,-1,5,-1,-1,-1],"loss_changes":[2.2097454E0,1.9451216E0,0E0,2.9431975E0,0E0,0E0,0E0],"parents":[2147483647,0,0,1,1,3,3],"right_children":[2,4,-1,6,-1,-1,-1],"split_conditions":[2.62E2,6.2455E3,-9.962406E-2,8.070149E0,1.0229815E-1,-1.0438341E-1,1.177162E-1],"split_indices":[34,39,0,33,0,0,0],"split_type":[0,0,0,0,0,0,0],"sum_hessian":[7.0186105E0,5.3806276E0,1.6379827E0,2.7620883E0,2.6185393E0,1.7495102E0,1.0125781E0],"tree_param":{"num_deleted":"0","num_feature":"45","num_nodes":"7","size_leaf_vector":"1"}},{"base_weights":[5.2293602E-2,-2.8593752E-1,1.0204501E-1,-6.984721E-2,1.1591371E-1],"categories":[],"categories_nodes":[],"categories_segments":[],"categories_sizes":[],"default_left":[0,0,0,0,0],"id":78,"left_children":[1,3,-1,-1,-1],"loss_changes":[1.9947855E0,2.5134885E0,0E0,0E0,0E0],"parents":[2147483647,0,0,1,1],"right_children":[2,4,-1,-1,-1],"split_conditions":[2.173555E5,9.829783E0,1.0204501E-1,-6.984721E-2,1.1591371E-1],"split_indices":[39,33,0,0,0],"split_type":[0,0,0,0,0],"sum_hessian":[6.3353653E0,4.646781E0,1.6885844E0,3.6500373E0,9.9674344E-1],"tree_param":{"num_deleted":"0","num_feature":"45","num_nodes":"5","size_leaf_vector":"1"}},{"base_weights":[-4.035268E-2,-4.4001177E-2,1.02941446E-1],"categories":[],"categories_nodes":[],"categories_segments":[],"categories_sizes":[],"default_left":[0,0,0],"id":79,"left_children":[1,-1,-1],"loss_changes":[2.2069342E0,0E0,0E0],"parents":[2147483647,0,0],"right_children":[2,-1,-1],"split_conditions":[2.193255E5,-4.4001177E-2,1.02941446E-1],"split_indices":[39,0,0],"split_type":[0,0,0],"sum_hessian":[5.594731E0,4.0853124E0,1.5094188E0],"tree_param":{"num_deleted":"0","num_feature":"45","num_nodes":"3","size_leaf_vector":"1"}},{"base_weights":[3.1086558E-3],"categories":[],"categories_nodes":[],"categories_segments":[],"categories_sizes":[],"default_left":[0],"id":80,"left_children":[-1],"loss_changes":[0E0],"parents":[2147483647],"right_children":[-1],"split_conditions":[3.2381975E-4],"split_indices":[0],"split_type":[0],"sum_hessian":[5.434623E0],"tree_param":{"num_deleted":"0","num_feature":"45","num_nodes":"1","size_leaf_vector":"1"}},{"base_weights":[4.735931E-2],"categories":[],"categories_nodes":[],"categories_segments":[],"categories_sizes":[],"default_left":[0],"id":81,"left_children":[-1],"loss_changes":[0E0],"parents":[2147483647],"right_children":[-1],"split_conditions":[4.9332837E-3],"split_indices":[0],"split_type":[0],"sum_hessian":[5.610405E0],"tree_param":{"num_deleted":"0","num_feature":"45","num_nodes":"1","size_leaf_vector":"1"}},{"base_weights":[1.4962238E-3],"categories":[],"categories_nodes":[],"categories_segments":[],"categories_sizes":[],"default_left":[0],"id":82,"left_children":[-1],"loss_changes":[0E0],"parents":[2147483647],"right_children":[-1],"split_conditions":[1.5585736E-4],"split_indices":[0],"split_type":[0],"sum_hessian":[5.519609E0],"tree_param":{"num_deleted":"0","num_feature":"45","num_nodes":"1","size_leaf_vector":"1"}},{"base_weights":[-3.9401367E-2,-3.9385647E-2,1.01949655E-1],"categories":[],"categories_nodes":[],"categories_segments":[],"categories_sizes":[],"default_left":[0,0,0],"id":83,"left_children":[1,-1,-1],"loss_changes":[1.9170724E0,0E0,0E0],"parents":[2147483647,0,0],"right_children":[2,-1,-1],"split_conditions":[2.173555E5,-3.9385647E-2,1.01949655E-1],"split_indices":[39,0,0],"split_type":[0,0,0],"sum_hessian":[5.5385213E0,4.1623125E0,1.3762085E0],"tree_param":{"num_deleted":"0","num_feature":"45","num_nodes":"3","size_leaf_vector":"1"}},{"base_weights":[4.060837E-2],"categories":[],"categories_nodes":[],"categories_segments":[],"categories_sizes":[],"default_left":[0],"id":84,"left_children":[-1],"loss_changes":[0E0],"parents":[2147483647],"right_children":[-1],"split_conditions":[4.2300574E-3],"split_indices":[0],"split_type":[0],"sum_hessian":[5.4099765E0],"tree_param":{"num_deleted":"0","num_feature":"45","num_nodes":"1","size_leaf_vector":"1"}},{"base_weights":[2.2754215E-2],"categories":[],"categories_nodes":[],"categories_segments":[],"categories_sizes":[],"default_left":[0],"id":85,"left_children":[-1],"loss_changes":[0E0],"parents":[2147483647],"right_children":[-1],"split_conditions":[2.3702413E-3],"split_indices":[0],"split_type":[0],"sum_hessian":[5.4274797E0],"tree_param":{"num_deleted":"0","num_feature":"45","num_nodes":"1","size_leaf_vector":"1"}},{"base_weights":[6.79173E-2],"categories":[],"categories_nodes":[],"categories_segments":[],"categories_sizes":[],"default_left":[0],"id":86,"left_children":[-1],"loss_changes":[0E0],"parents":[2147483647],"right_children":[-1],"split_conditions":[7.0747505E-3],"split_indices":[0],"split_type":[0],"sum_hessian":[5.511873E0],"tree_param":{"num_deleted":"0","num_feature":"45","num_nodes":"1","size_leaf_vector":"1"}},{"base_weights":[7.5603663E-3],"categories":[],"categories_nodes":[],"categories_segments":[],"categories_sizes":[],"default_left":[0],"id":87,"left_children":[-1],"loss_changes":[0E0],"parents":[2147483647],"right_children":[-1],"split_conditions":[7.875417E-4],"split_indices":[0],"split_type":[0],"sum_hessian":[5.4717026E0],"tree_param":{"num_deleted":"0","num_feature":"45","num_nodes":"1","size_leaf_vector":"1"}},{"base_weights":[2.209433E-2],"categories":[],"categories_nodes":[],"categories_segments":[],"categories_sizes":[],"default_left":[0],"id":88,"left_children":[-1],"loss_changes":[0E0],"parents":[2147483647],"right_children":[-1],"split_conditions":[2.301503E-3],"split_indices":[0],"split_type":[0],"sum_hessian":[5.3928576E0],"tree_param":{"num_deleted":"0","num_feature":"45","num_nodes":"1","size_leaf_vector":"1"}},{"base_weights":[7.959284E-3],"categories":[],"categories_nodes":[],"categories_segments":[],"categories_sizes":[],"default_left":[0],"id":89,"left_children":[-1],"loss_changes":[0E0],"parents":[2147483647],"right_children":[-1],"split_conditions":[8.290958E-4],"split_indices":[0],"split_type":[0],"sum_hessian":[5.3250113E0],"tree_param":{"num_deleted":"0","num_feature":"45","num_nodes":"1","size_leaf_vector":"1"}},{"base_weights":[-3.1002692E-3],"categories":[],"categories_nodes":[],"categories_segments":[],"categories_sizes":[],"default_left":[0],"id":90,"left_children":[-1],"loss_changes":[0E0],"parents":[2147483647],"right_children":[-1],"split_conditions":[-3.2294617E-4],"split_indices":[0],"split_type":[0],"sum_hessian":[5.3467693E0],"tree_param":{"num_deleted":"0","num_feature":"45","num_nodes":"1","size_leaf_vector":"1"}},{"base_weights":[3.4393627E-2],"categories":[],"categories_nodes":[],"categories_segments":[],"categories_sizes":[],"default_left":[0],"id":91,"left_children":[-1],"loss_changes":[0E0],"parents":[2147483647],"right_children":[-1],"split_conditions":[3.5826855E-3],"split_indices":[0],"split_type":[0],"sum_hessian":[5.675008E0],"tree_param":{"num_deleted":"0","num_feature":"45","num_nodes":"1","size_leaf_vector":"1"}},{"base_weights":[-4.620537E-3],"categories":[],"categories_nodes":[],"categories_segments":[],"categories_sizes":[],"default_left":[0],"id":92,"left_children":[-1],"loss_changes":[0E0],"parents":[2147483647],"right_children":[-1],"split_conditions":[-4.8130812E-4],"split_indices":[0],"split_type":[0],"sum_hessian":[5.2619767E0],"tree_param":{"num_deleted":"0","num_feature":"45","num_nodes":"1","size_leaf_vector":"1"}},{"base_weights":[1.5492252E-2],"categories":[],"categories_nodes":[],"categories_segments":[],"categories_sizes":[],"default_left":[0],"id":93,"left_children":[-1],"loss_changes":[0E0],"parents":[2147483647],"right_children":[-1],"split_conditions":[1.6137835E-3],"split_indices":[0],"split_type":[0],"sum_hessian":[5.657297E0],"tree_param":{"num_deleted":"0","num_feature":"45","num_nodes":"1","size_leaf_vector":"1"}},{"base_weights":[6.98581E-2],"categories":[],"categories_nodes":[],"categories_segments":[],"categories_sizes":[],"default_left":[0],"id":94,"left_children":[-1],"loss_changes":[0E0],"parents":[2147483647],"right_children":[-1],"split_conditions":[7.276918E-3],"split_indices":[0],"split_type":[0],"sum_hessian":[5.791248E0],"tree_param":{"num_deleted":"0","num_feature":"45","num_nodes":"1","size_leaf_vector":"1"}},{"base_weights":[3.9603874E-2],"categories":[],"categories_nodes":[],"categories_segments":[],"categories_sizes":[],"default_left":[0],"id":95,"left_children":[-1],"loss_changes":[0E0],"parents":[2147483647],"right_children":[-1],"split_conditions":[4.125422E-3],"split_indices":[0],"split_type":[0],"sum_hessian":[5.620883E0],"tree_param":{"num_deleted":"0","num_feature":"45","num_nodes":"1","size_leaf_vector":"1"}},{"base_weights":[2.4734942E-2],"categories":[],"categories_nodes":[],"categories_segments":[],"categories_sizes":[],"default_left":[0],"id":96,"left_children":[-1],"loss_changes":[0E0],"parents":[2147483647],"right_children":[-1],"split_conditions":[2.576568E-3],"split_indices":[0],"split_type":[0],"sum_hessian":[5.5674233E0],"tree_param":{"num_deleted":"0","num_feature":"45","num_nodes":"1","size_leaf_vector":"1"}},{"base_weights":[-2.7023688E-2],"categories":[],"categories_nodes":[],"categories_segments":[],"categories_sizes":[],"default_left":[0],"id":97,"left_children":[-1],"loss_changes":[0E0],"parents":[2147483647],"right_children":[-1],"split_conditions":[-2.8149802E-3],"split_indices":[0],"split_type":[0],"sum_hessian":[5.5389137E0],"tree_param":{"num_deleted":"0","num_feature":"45","num_nodes":"1","size_leaf_vector":"1"}},{"base_weights":[7.058682E-2,4.0471505E-2,-9.8700866E-2],"categories":[],"categories_nodes":[],"categories_segments":[],"categories_sizes":[],"default_left":[0,0,0],"id":98,"left_children":[1,-1,-1],"loss_changes":[1.8486716E0,0E0,0E0],"parents":[2147483647,0,0],"right_children":[2,-1,-1],"split_conditions":[2.62E2,4.0471505E-2,-9.8700866E-2],"split_indices":[34,0,0],"split_type":[0,0,0],"sum_hessian":[5.689509E0,4.3419585E0,1.3475503E0],"tree_param":{"num_deleted":"0","num_feature":"45","num_nodes":"3","size_leaf_vector":"1"}},{"base_weights":[-1.9011268E-3],"categories":[],"categories_nodes":[],"categories_segments":[],"categories_sizes":[],"default_left":[0],"id":99,"left_children":[-1],"loss_changes":[0E0],"parents":[2147483647],"right_children":[-1],"split_conditions":[-1.9803493E-4],"split_indices":[0],"split_type":[0],"sum_hessian":[5.592793E0],"tree_param":{"num_deleted":"0","num_feature":"45","num_nodes":"1","size_leaf_vector":"1"}},{"base_weights":[-2.8389387E-2],"categories":[],"categories_nodes":[],"categories_segments":[],"categories_sizes":[],"default_left":[0],"id":100,"left_children":[-1],"loss_changes":[0E0],"parents":[2147483647],"right_children":[-1],"split_conditions":[-2.9572411E-3],"split_indices":[0],"split_type":[0],"sum_hessian":[5.3346324E0],"tree_param":{"num_deleted":"0","num_feature":"45","num_nodes":"1","size_leaf_vector":"1"}},{"base_weights":[-3.9366256E-2],"categories":[],"categories_nodes":[],"categories_segments":[],"categories_sizes":[],"default_left":[0],"id":101,"left_children":[-1],"loss_changes":[0E0],"parents":[2147483647],"right_children":[-1],"split_conditions":[-4.10067E-3],"split_indices":[0],"split_type":[0],"sum_hessian":[5.051623E0],"tree_param":{"num_deleted":"0","num_feature":"45","num_nodes":"1","size_leaf_vector":"1"}},{"base_weights":[1.4412644E-2],"categories":[],"categories_nodes":[],"categories_segments":[],"categories_sizes":[],"default_left":[0],"id":102,"left_children":[-1],"loss_changes":[0E0],"parents":[2147483647],"right_children":[-1],"split_conditions":[1.5013239E-3],"split_indices":[0],"split_type":[0],"sum_hessian":[5.251406E0],"tree_param":{"num_deleted":"0","num_feature":"45","num_nodes":"1","size_leaf_vector":"1"}},{"base_weights":[2.9027963E-2],"categories":[],"categories_nodes":[],"categories_segments":[],"categories_sizes":[],"default_left":[0],"id":103,"left_children":[-1],"loss_changes":[0E0],"parents":[2147483647],"right_children":[-1],"split_conditions":[3.0237597E-3],"split_indices":[0],"split_type":[0],"sum_hessian":[5.4862485E0],"tree_param":{"num_deleted":"0","num_feature":"45","num_nodes":"1","size_leaf_vector":"1"}},{"base_weights":[4.628868E-2],"categories":[],"categories_nodes":[],"categories_segments":[],"categories_sizes":[],"default_left":[0],"id":104,"left_children":[-1],"loss_changes":[0E0],"parents":[2147483647],"right_children":[-1],"split_conditions":[4.821759E-3],"split_indices":[0],"split_type":[0],"sum_hessian":[5.385163E0],"tree_param":{"num_deleted":"0","num_feature":"45","num_nodes":"1","size_leaf_vector":"1"}},{"base_weights":[1.222308E-4],"categories":[],"categories_nodes":[],"categories_segments":[],"categories_sizes":[],"default_left":[0],"id":105,"left_children":[-1],"loss_changes":[0E0],"parents":[2147483647],"right_children":[-1],"split_conditions":[1.2732433E-5],"split_indices":[0],"split_type":[0],"sum_hessian":[5.655164E0],"tree_param":{"num_deleted":"0","num_feature":"45","num_nodes":"1","size_leaf_vector":"1"}},{"base_weights":[-2.1906119E-2],"categories":[],"categories_nodes":[],"categories_segments":[],"categories_sizes":[],"default_left":[0],"id":106,"left_children":[-1],"loss_changes":[0E0],"parents":[2147483647],"right_children":[-1],"split_conditions":[-2.2818977E-3],"split_indices":[0],"split_type":[0],"sum_hessian":[5.276535E0],"tree_param":{"num_deleted":"0","num_feature":"45","num_nodes":"1","size_leaf_vector":"1"}},{"base_weights":[-2.4149588E-3],"categories":[],"categories_nodes":[],"categories_segments":[],"categories_sizes":[],"default_left":[0],"id":107,"left_children":[-1],"loss_changes":[0E0],"parents":[2147483647],"right_children":[-1],"split_conditions":[-2.5155934E-4],"split_indices":[0],"split_type":[0],"sum_hessian":[5.22203E0],"tree_param":{"num_deleted":"0","num_feature":"45","num_nodes":"1","size_leaf_vector":"1"}},{"base_weights":[-1.6623963E-2],"categories":[],"categories_nodes":[],"categories_segments":[],"categories_sizes":[],"default_left":[0],"id":108,"left_children":[-1],"loss_changes":[0E0],"parents":[2147483647],"right_children":[-1],"split_conditions":[-1.7316706E-3],"split_indices":[0],"split_type":[0],"sum_hessian":[5.192136E0],"tree_param":{"num_deleted":"0","num_feature":"45","num_nodes":"1","size_leaf_vector":"1"}},{"base_weights":[-9.093317E-3],"categories":[],"categories_nodes":[],"categories_segments":[],"categories_sizes":[],"default_left":[0],"id":109,"left_children":[-1],"loss_changes":[0E0],"parents":[2147483647],"right_children":[-1],"split_conditions":[-9.472248E-4],"split_indices":[0],"split_type":[0],"sum_hessian":[5.177813E0],"tree_param":{"num_deleted":"0","num_feature":"45","num_nodes":"1","size_leaf_vector":"1"}},{"base_weights":[3.877928E-2],"categories":[],"categories_nodes":[],"categories_segments":[],"categories_sizes":[],"default_left":[0],"id":110,"left_children":[-1],"loss_changes":[0E0],"parents":[2147483647],"right_children":[-1],"split_conditions":[4.0395265E-3],"split_indices":[0],"split_type":[0],"sum_hessian":[5.4990077E0],"tree_param":{"num_deleted":"0","num_feature":"45","num_nodes":"1","size_leaf_vector":"1"}},{"base_weights":[-3.963125E-2],"categories":[],"categories_nodes":[],"categories_segments":[],"categories_sizes":[],"default_left":[0],"id":111,"left_children":[-1],"loss_changes":[0E0],"parents":[2147483647],"right_children":[-1],"split_conditions":[-4.128274E-3],"split_indices":[0],"split_type":[0],"sum_hessian":[5.0575166E0],"tree_param":{"num_deleted":"0","num_feature":"45","num_nodes":"1","size_leaf_vector":"1"}},{"base_weights":[-1.910887E-2],"categories":[],"categories_nodes":[],"categories_segments":[],"categories_sizes":[],"default_left":[0],"id":112,"left_children":[-1],"loss_changes":[0E0],"parents":[2147483647],"right_children":[-1],"split_conditions":[-1.9905162E-3],"split_indices":[0],"split_type":[0],"sum_hessian":[5.378548E0],"tree_param":{"num_deleted":"0","num_feature":"45","num_nodes":"1","size_leaf_vector":"1"}},{"base_weights":[-4.1390847E-2],"categories":[],"categories_nodes":[],"categories_segments":[],"categories_sizes":[],"default_left":[0],"id":113,"left_children":[-1],"loss_changes":[0E0],"parents":[2147483647],"right_children":[-1],"split_conditions":[-4.311566E-3],"split_indices":[0],"split_type":[0],"sum_hessian":[5.253639E0],"tree_param":{"num_deleted":"0","num_feature":"45","num_nodes":"1","size_leaf_vector":"1"}},{"base_weights":[-7.208898E-2],"categories":[],"categories_nodes":[],"categories_segments":[],"categories_sizes":[],"default_left":[0],"id":114,"left_children":[-1],"loss_changes":[0E0],"parents":[2147483647],"right_children":[-1],"split_conditions":[-7.5093023E-3],"split_indices":[0],"split_type":[0],"sum_hessian":[4.9987082E0],"tree_param":{"num_deleted":"0","num_feature":"45","num_nodes":"1","size_leaf_vector":"1"}},{"base_weights":[-2.640226E-3],"categories":[],"categories_nodes":[],"categories_segments":[],"categories_sizes":[],"default_left":[0],"id":115,"left_children":[-1],"loss_changes":[0E0],"parents":[2147483647],"right_children":[-1],"split_conditions":[-2.7502477E-4],"split_indices":[0],"split_type":[0],"sum_hessian":[5.208929E0],"tree_param":{"num_deleted":"0","num_feature":"45","num_nodes":"1","size_leaf_vector":"1"}},{"base_weights":[4.5300376E-2],"categories":[],"categories_nodes":[],"categories_segments":[],"categories_sizes":[],"default_left":[0],"id":116,"left_children":[-1],"loss_changes":[0E0],"parents":[2147483647],"right_children":[-1],"split_conditions":[4.7188103E-3],"split_indices":[0],"split_type":[0],"sum_hessian":[5.4598894E0],"tree_param":{"num_deleted":"0","num_feature":"45","num_nodes":"1","size_leaf_vector":"1"}},{"base_weights":[2.6965221E-2],"categories":[],"categories_nodes":[],"categories_segments":[],"categories_sizes":[],"default_left":[0],"id":117,"left_children":[-1],"loss_changes":[0E0],"parents":[2147483647],"right_children":[-1],"split_conditions":[2.8088898E-3],"split_indices":[0],"split_type":[0],"sum_hessian":[5.3745604E0],"tree_param":{"num_deleted":"0","num_feature":"45","num_nodes":"1","size_leaf_vector":"1"}},{"base_weights":[-2.4164774E-2],"categories":[],"categories_nodes":[],"categories_segments":[],"categories_sizes":[],"default_left":[0],"id":118,"left_children":[-1],"loss_changes":[0E0],"parents":[2147483647],"right_children":[-1],"split_conditions":[-2.5171752E-3],"split_indices":[0],"split_type":[0],"sum_hessian":[5.39329E0],"tree_param":{"num_deleted":"0","num_feature":"45","num_nodes":"1","size_leaf_vector":"1"}},{"base_weights":[3.8500037E-2],"categories":[],"categories_nodes":[],"categories_segments":[],"categories_sizes":[],"default_left":[0],"id":119,"left_children":[-1],"loss_changes":[0E0],"parents":[2147483647],"right_children":[-1],"split_conditions":[4.0104385E-3],"split_indices":[0],"split_type":[0],"sum_hessian":[5.467332E0],"tree_param":{"num_deleted":"0","num_feature":"45","num_nodes":"1","size_leaf_vector":"1"}},{"base_weights":[1.9048076E-2],"categories":[],"categories_nodes":[],"categories_segments":[],"categories_sizes":[],"default_left":[0],"id":120,"left_children":[-1],"loss_changes":[0E0],"parents":[2147483647],"right_children":[-1],"split_conditions":[1.9841834E-3],"split_indices":[0],"split_type":[0],"sum_hessian":[5.313108E0],"tree_param":{"num_deleted":"0","num_feature":"45","num_nodes":"1","size_leaf_vector":"1"}},{"base_weights":[-4.9902935E-2],"categories":[],"categories_nodes":[],"categories_segments":[],"categories_sizes":[],"default_left":[0],"id":121,"left_children":[-1],"loss_changes":[0E0],"parents":[2147483647],"right_children":[-1],"split_conditions":[-5.198246E-3],"split_indices":[0],"split_type":[0],"sum_hessian":[5.098064E0],"tree_param":{"num_deleted":"0","num_feature":"45","num_nodes":"1","size_leaf_vector":"1"}},{"base_weights":[4.4037342E-2],"categories":[],"categories_nodes":[],"categories_segments":[],"categories_sizes":[],"default_left":[0],"id":122,"left_children":[-1],"loss_changes":[0E0],"parents":[2147483647],"right_children":[-1],"split_conditions":[4.587244E-3],"split_indices":[0],"split_type":[0],"sum_hessian":[5.442339E0],"tree_param":{"num_deleted":"0","num_feature":"45","num_nodes":"1","size_leaf_vector":"1"}},{"base_weights":[-1.4384343E-2],"categories":[],"categories_nodes":[],"categories_segments":[],"categories_sizes":[],"default_left":[0],"id":123,"left_children":[-1],"loss_changes":[0E0],"parents":[2147483647],"right_children":[-1],"split_conditions":[-1.4983758E-3],"split_indices":[0],"split_type":[0],"sum_hessian":[5.392863E0],"tree_param":{"num_deleted":"0","num_feature":"45","num_nodes":"1","size_leaf_vector":"1"}},{"base_weights":[5.1818997E-2],"categories":[],"categories_nodes":[],"categories_segments":[],"categories_sizes":[],"default_left":[0],"id":124,"left_children":[-1],"loss_changes":[0E0],"parents":[2147483647],"right_children":[-1],"split_conditions":[5.397836E-3],"split_indices":[0],"split_type":[0],"sum_hessian":[5.512904E0],"tree_param":{"num_deleted":"0","num_feature":"45","num_nodes":"1","size_leaf_vector":"1"}},{"base_weights":[-1.5466611E-2],"categories":[],"categories_nodes":[],"categories_segments":[],"categories_sizes":[],"default_left":[0],"id":125,"left_children":[-1],"loss_changes":[0E0],"parents":[2147483647],"right_children":[-1],"split_conditions":[-1.6111125E-3],"split_indices":[0],"split_type":[0],"sum_hessian":[5.0864205E0],"tree_param":{"num_deleted":"0","num_feature":"45","num_nodes":"1","size_leaf_vector":"1"}},{"base_weights":[8.869119E-3],"categories":[],"categories_nodes":[],"categories_segments":[],"categories_sizes":[],"default_left":[0],"id":126,"left_children":[-1],"loss_changes":[0E0],"parents":[2147483647],"right_children":[-1],"split_conditions":[9.238707E-4],"split_indices":[0],"split_type":[0],"sum_hessian":[5.52743E0],"tree_param":{"num_deleted":"0","num_feature":"45","num_nodes":"1","size_leaf_vector":"1"}},{"base_weights":[-1.5454323E-2],"categories":[],"categories_nodes":[],"categories_segments":[],"categories_sizes":[],"default_left":[0],"id":127,"left_children":[-1],"loss_changes":[0E0],"parents":[2147483647],"right_children":[-1],"split_conditions":[-1.6098325E-3],"split_indices":[0],"split_type":[0],"sum_hessian":[5.387643E0],"tree_param":{"num_deleted":"0","num_feature":"45","num_nodes":"1","size_leaf_vector":"1"}},{"base_weights":[3.2615182E-3],"categories":[],"categories_nodes":[],"categories_segments":[],"categories_sizes":[],"default_left":[0],"id":128,"left_children":[-1],"loss_changes":[0E0],"parents":[2147483647],"right_children":[-1],"split_conditions":[3.39743E-4],"split_indices":[0],"split_type":[0],"sum_hessian":[5.276064E0],"tree_param":{"num_deleted":"0","num_feature":"45","num_nodes":"1","size_leaf_vector":"1"}},{"base_weights":[4.2664476E-2],"categories":[],"categories_nodes":[],"categories_segments":[],"categories_sizes":[],"default_left":[0],"id":129,"left_children":[-1],"loss_changes":[0E0],"parents":[2147483647],"right_children":[-1],"split_conditions":[4.444236E-3],"split_indices":[0],"split_type":[0],"sum_hessian":[5.436818E0],"tree_param":{"num_deleted":"0","num_feature":"45","num_nodes":"1","size_leaf_vector":"1"}},{"base_weights":[-3.8103245E-2],"categories":[],"categories_nodes":[],"categories_segments":[],"categories_sizes":[],"default_left":[0],"id":130,"left_children":[-1],"loss_changes":[0E0],"parents":[2147483647],"right_children":[-1],"split_conditions":[-3.969106E-3],"split_indices":[0],"split_type":[0],"sum_hessian":[5.1910753E0],"tree_param":{"num_deleted":"0","num_feature":"45","num_nodes":"1","size_leaf_vector":"1"}},{"base_weights":[3.416568E-2],"categories":[],"categories_nodes":[],"categories_segments":[],"categories_sizes":[],"default_left":[0],"id":131,"left_children":[-1],"loss_changes":[0E0],"parents":[2147483647],"right_children":[-1],"split_conditions":[3.558941E-3],"split_indices":[0],"split_type":[0],"sum_hessian":[5.2465267E0],"tree_param":{"num_deleted":"0","num_feature":"45","num_nodes":"1","size_leaf_vector":"1"}},{"base_weights":[3.200142E-2],"categories":[],"categories_nodes":[],"categories_segments":[],"categories_sizes":[],"default_left":[0],"id":132,"left_children":[-1],"loss_changes":[0E0],"parents":[2147483647],"right_children":[-1],"split_conditions":[3.3334964E-3],"split_indices":[0],"split_type":[0],"sum_hessian":[5.38344E0],"tree_param":{"num_deleted":"0","num_feature":"45","num_nodes":"1","size_leaf_vector":"1"}},{"base_weights":[-1.1164983E-3],"categories":[],"categories_nodes":[],"categories_segments":[],"categories_sizes":[],"default_left":[0],"id":133,"left_children":[-1],"loss_changes":[0E0],"parents":[2147483647],"right_children":[-1],"split_conditions":[-1.1630242E-4],"split_indices":[0],"split_type":[0],"sum_hessian":[5.467807E0],"tree_param":{"num_deleted":"0","num_feature":"45","num_nodes":"1","size_leaf_vector":"1"}},{"base_weights":[-1.6967345E-2],"categories":[],"categories_nodes":[],"categories_segments":[],"categories_sizes":[],"default_left":[0],"id":134,"left_children":[-1],"loss_changes":[0E0],"parents":[2147483647],"right_children":[-1],"split_conditions":[-1.7674397E-3],"split_indices":[0],"split_type":[0],"sum_hessian":[5.181923E0],"tree_param":{"num_deleted":"0","num_feature":"45","num_nodes":"1","size_leaf_vector":"1"}},{"base_weights":[-5.084104E-2],"categories":[],"categories_nodes":[],"categories_segments":[],"categories_sizes":[],"default_left":[0],"id":135,"left_children":[-1],"loss_changes":[0E0],"parents":[2147483647],"right_children":[-1],"split_conditions":[-5.2959654E-3],"split_indices":[0],"split_type":[0],"sum_hessian":[5.292799E0],"tree_param":{"num_deleted":"0","num_feature":"45","num_nodes":"1","size_leaf_vector":"1"}},{"base_weights":[-4.784639E-2],"categories":[],"categories_nodes":[],"categories_segments":[],"categories_sizes":[],"default_left":[0],"id":136,"left_children":[-1],"loss_changes":[0E0],"parents":[2147483647],"right_children":[-1],"split_conditions":[-4.9840217E-3],"split_indices":[0],"split_type":[0],"sum_hessian":[5.215102E0],