{"learner":{"attributes":{},"feature_names":[],"feature_types":[],"gradient_booster":{"model":{"cats":{"enc":[],"feature_segments":[],"sorted_idx":[]},"gbtree_model_param":{"num_parallel_tree":"1","num_trees":"1442"},"iteration_indptr":[0,1,2,3,4,5,6,7,8,9,10,11,12,13,14,15,16,17,18,19,20,21,22,23,24,25,26,27,28,29,30,31,32,33,34,35,36,37,38,39,40,41,42,43,44,45,46,47,48,49,50,51,52,53,54,55,56,57,58,59,60,61,62,63,64,65,66,67,68,69,70,71,72,73,74,75,76,77,78,79,80,81,82,83,84,85,86,87,88,89,90,91,92,93,94,95,96,97,98,99,100,101,102,103,104,105,106,107,108,109,110,111,112,113,114,115,116,117,118,119,120,121,122,123,124,125,126,127,128,129,130,131,132,133,134,135,136,137,138,139,140,141,142,143,144,145,146,147,148,149,150,151,152,153,154,155,156,157,158,159,160,161,162,163,164,165,166,167,168,169,170,171,172,173,174,175,176,177,178,179,180,181,182,183,184,185,186,187,188,189,190,191,192,193,194,195,196,197,198,199,200,201,202,203,204,205,206,207,208,209,210,211,212,213,214,215,216,217,218,219,220,221,222,223,224,225,226,227,228,229,230,231,232,233,234,235,236,237,238,239,240,241,242,243,244,245,246,247,248,249,250,251,252,253,254,255,256,257,258,259,260,261,262,263,264,265,266,267,268,269,270,271,272,273,274,275,276,277,278,279,280,281,282,283,284,285,286,287,288,289,290,291,292,293,294,295,296,297,298,299,300,301,302,303,304,305,306,307,308,309,310,311,312,313,314,315,316,317,318,319,320,321,322,323,324,325,326,327,328,329,330,331,332,333,334,335,336,337,338,339,340,341,342,343,344,345,346,347,348,349,350,351,352,353,354,355,356,357,358,359,360,361,362,363,364,365,366,367,368,369,370,371,372,373,374,375,376,377,378,379,380,381,382,383,384,385,386,387,388,389,390,391,392,393,394,395,396,397,398,399,400,401,402,403,404,405,406,407,408,409,410,411,412,413,414,415,416,417,418,419,420,421,422,423,424,425,426,427,428,429,430,431,432,433,434,435,436,437,438,439,440,441,442,443,444,445,446,447,448,449,450,451,452,453,454,455,456,457,458,459,460,461,462,463,464,465,466,467,468,469,470,471,472,473,474,475,476,477,478,479,480,481,482,483,484,485,486,487,488,489,490,491,492,493,494,495,496,497,498,499,500,501,502,503,504,505,506,507,508,509,510,511,512,513,514,515,516,517,518,519,520,521,522,523,524,525,526,527,528,529,530,531,532,533,534,535,536,537,538,539,540,541,542,543,544,545,546,547,548,549,550,551,552,553,554,555,556,557,558,559,560,561,562,563,564,565,566,567,568,569,570,571,572,573,574,575,576,577,578,579,580,581,582,583,584,585,586,587,588,589,590,591,592,593,594,595,596,597,598,599,600,601,602,603,604,605,606,607,608,609,610,611,612,613,614,615,616,617,618,619,620,621,622,623,624,625,626,627,628,629,630,631,632,633,634,635,636,637,638,639,640,641,642,643,644,645,646,647,648,649,650,651,652,653,654,655,656,657,658,659,660,661,662,663,664,665,666,667,668,669,670,671,672,673,674,675,676,677,678,679,680,681,682,683,684,685,686,687,688,689,690,691,692,693,694,695,696,697,698,699,700,701,702,703,704,705,706,707,708,709,710,711,712,713,714,715,716,717,718,719,720,721,722,723,724,725,726,727,728,729,730,731,732,733,734,735,736,737,738,739,740,741,742,743,744,745,746,747,748,749,750,751,752,753,754,755,756,757,758,759,760,761,762,763,764,765,766,767,768,769,770,771,772,773,774,775,776,777,778,779,780,781,782,783,784,785,786,787,788,789,790,791,792,793,794,795,796,797,798,799,800,801,802,803,804,805,806,807,808,809,810,811,812,813,814,815,816,817,818,819,820,821,822,823,824,825,826,827,828,829,830,831,832,833,834,835,836,837,838,839,840,841,842,843,844,845,846,847,848,849,850,851,852,853,854,855,856,857,858,859,860,861,862,863,864,865,866,867,868,869,870,871,872,873,874,875,876,877,878,879,880,881,882,883,884,885,886,887,888,889,890,891,892,893,894,895,896,897,898,899,900,901,902,903,904,905,906,907,908,909,910,911,912,913,914,915,916,917,918,919,920,921,922,923,924,925,926,927,928,929,930,931,932,933,934,935,936,937,938,939,940,941,942,943,944,945,946,947,948,949,950,951,952,953,954,955,956,957,958,959,960,961,962,963,964,965,966,967,968,969,970,971,972,973,974,975,976,977,978,979,980,981,982,983,984,985,986,987,988,989,990,991,992,993,994,995,996,997,998,999,1000,1001,1002,1003,1004,1005,1006,1007,1008,1009,1010,1011,1012,1013,1014,1015,1016,1017,1018,1019,1020,1021,1022,1023,1024,1025,1026,1027,1028,1029,1030,1031,1032,1033,1034,1035,1036,1037,1038,1039,1040,1041,1042,1043,1044,1045,1046,1047,1048,1049,1050,1051,1052,1053,1054,1055,1056,1057,1058,1059,1060,1061,1062,1063,1064,1065,1066,1067,1068,1069,1070,1071,1072,1073,1074,1075,1076,1077,1078,1079,1080,1081,1082,1083,1084,1085,1086,1087,1088,1089,1090,1091,1092,1093,1094,1095,1096,1097,1098,1099,1100,1101,1102,1103,1104,1105,1106,1107,1108,1109,1110,1111,1112,1113,1114,1115,1116,1117,1118,1119,1120,1121,1122,1123,1124,1125,1126,1127,1128,1129,1130,1131,1132,1133,1134,1135,1136,1137,1138,1139,1140,1141,1142,1143,1144,1145,1146,1147,1148,1149,1150,1151,1152,1153,1154,1155,1156,1157,1158,1159,1160,1161,1162,1163,1164,1165,1166,1167,1168,1169,1170,1171,1172,1173,1174,1175,1176,1177,1178,1179,1180,1181,1182,1183,1184,1185,1186,1187,1188,1189,1190,1191,1192,1193,1194,1195,1196,1197,1198,1199,1200,1201,1202,1203,1204,1205,1206,1207,1208,1209,1210,1211,1212,1213,1214,1215,1216,1217,1218,1219,1220,1221,1222,1223,1224,1225,1226,1227,1228,1229,1230,1231,1232,1233,1234,1235,1236,1237,1238,1239,1240,1241,1242,1243,1244,1245,1246,1247,1248,1249,1250,1251,1252,1253,1254,1255,1256,1257,1258,1259,1260,1261,1262,1263,1264,1265,1266,1267,1268,1269,1270,1271,1272,1273,1274,1275,1276,1277,1278,1279,1280,1281,1282,1283,1284,1285,1286,1287,1288,1289,1290,1291,1292,1293,1294,1295,1296,1297,1298,1299,1300,1301,1302,1303,1304,1305,1306,1307,1308,1309,1310,1311,1312,1313,1314,1315,1316,1317,1318,1319,1320,1321,1322,1323,1324,1325,1326,1327,1328,1329,1330,1331,1332,1333,1334,1335,1336,1337,1338,1339,1340,1341,1342,1343,1344,1345,1346,1347,1348,1349,1350,1351,1352,1353,1354,1355,1356,1357,1358,1359,1360,1361,1362,1363,1364,1365,1366,1367,1368,1369,1370,1371,1372,1373,1374,1375,1376,1377,1378,1379,1380,1381,1382,1383,1384,1385,1386,1387,1388,1389,1390,1391,1392,1393,1394,1395,1396,1397,1398,1399,1400,1401,1402,1403,1404,1405,1406,1407,1408,1409,1410,1411,1412,1413,1414,1415,1416,1417,1418,1419,1420,1421,1422,1423,1424,1425,1426,1427,1428,1429,1430,1431,1432,1433,1434,1435,1436,1437,1438,1439,1440,1441,1442],"tree_info":[0,0,0,0,0,0,0,0,0,0,0,0,0,0,0,0,0,0,0,0,0,0,0,0,0,0,0,0,0,0,0,0,0,0,0,0,0,0,0,0,0,0,0,0,0,0,0,0,0,0,0,0,0,0,0,0,0,0,0,0,0,0,0,0,0,0,0,0,0,0,0,0,0,0,0,0,0,0,0,0,0,0,0,0,0,0,0,0,0,0,0,0,0,0,0,0,0,0,0,0,0,0,0,0,0,0,0,0,0,0,0,0,0,0,0,0,0,0,0,0,0,0,0,0,0,0,0,0,0,0,0,0,0,0,0,0,0,0,0,0,0,0,0,0,0,0,0,0,0,0,0,0,0,0,0,0,0,0,0,0,0,0,0,0,0,0,0,0,0,0,0,0,0,0,0,0,0,0,0,0,0,0,0,0,0,0,0,0,0,0,0,0,0,0,0,0,0,0,0,0,0,0,0,0,0,0,0,0,0,0,0,0,0,0,0,0,0,0,0,0,0,0,0,0,0,0,0,0,0,0,0,0,0,0,0,0,0,0,0,0,0,0,0,0,0,0,0,0,0,0,0,0,0,0,0,0,0,0,0,0,0,0,0,0,0,0,0,0,0,0,0,0,0,0,0,0,0,0,0,0,0,0,0,0,0,0,0,0,0,0,0,0,0,0,0,0,0,0,0,0,0,0,0,0,0,0,0,0,0,0,0,0,0,0,0,0,0,0,0,0,0,0,0,0,0,0,0,0,0,0,0,0,0,0,0,0,0,0,0,0,0,0,0,0,0,0,0,0,0,0,0,0,0,0,0,0,0,0,0,0,0,0,0,0,0,0,0,0,0,0,0,0,0,0,0,0,0,0,0,0,0,0,0,0,0,0,0,0,0,0,0,0,0,0,0,0,0,0,0,0,0,0,0,0,0,0,0,0,0,0,0,0,0,0,0,0,0,0,0,0,0,0,0,0,0,0,0,0,0,0,0,0,0,0,0,0,0,0,0,0,0,0,0,0,0,0,0,0,0,0,0,0,0,0,0,0,0,0,0,0,0,0,0,0,0,0,0,0,0,0,0,0,0,0,0,0,0,0,0,0,0,0,0,0,0,0,0,0,0,0,0,0,0,0,0,0,0,0,0,0,0,0,0,0,0,0,0,0,0,0,0,0,0,0,0,0,0,0,0,0,0,0,0,0,0,0,0,0,0,0,0,0,0,0,0,0,0,0,0,0,0,0,0,0,0,0,0,0,0,0,0,0,0,0,0,0,0,0,0,0,0,0,0,0,0,0,0,0,0,0,0,0,0,0,0,0,0,0,0,0,0,0,0,0,0,0,0,0,0,0,0,0,0,0,0,0,0,0,0,0,0,0,0,0,0,0,0,0,0,0,0,0,0,0,0,0,0,0,0,0,0,0,0,0,0,0,0,0,0,0,0,0,0,0,0,0,0,0,0,0,0,0,0,0,0,0,0,0,0,0,0,0,0,0,0,0,0,0,0,0,0,0,0,0,0,0,0,0,0,0,0,0,0,0,0,0,0,0,0,0,0,0,0,0,0,0,0,0,0,0,0,0,0,0,0,0,0,0,0,0,0,0,0,0,0,0,0,0,0,0,0,0,0,0,0,0,0,0,0,0,0,0,0,0,0,0,0,0,0,0,0,0,0,0,0,0,0,0,0,0,0,0,0,0,0,0,0,0,0,0,0,0,0,0,0,0,0,0,0,0,0,0,0,0,0,0,0,0,0,0,0,0,0,0,0,0,0,0,0,0,0,0,0,0,0,0,0,0,0,0,0,0,0,0,0,0,0,0,0,0,0,0,0,0,0,0,0,0,0,0,0,0,0,0,0,0,0,0,0,0,0,0,0,0,0,0,0,0,0,0,0,0,0,0,0,0,0,0,0,0,0,0,0,0,0,0,0,0,0,0,0,0,0,0,0,0,0,0,0,0,0,0,0,0,0,0,0,0,0,0,0,0,0,0,0,0,0,0,0,0,0,0,0,0,0,0,0,0,0,0,0,0,0,0,0,0,0,0,0,0,0,0,0,0,0,0,0,0,0,0,0,0,0,0,0,0,0,0,0,0,0,0,0,0,0,0,0,0,0,0,0,0,0,0,0,0,0,0,0,0,0,0,0,0,0,0,0,0,0,0,0,0,0,0,0,0,0,0,0,0,0,0,0,0,0,0,0,0,0,0,0,0,0,0,0,0,0,0,0,0,0,0,0,0,0,0,0,0,0,0,0,0,0,0,0,0,0,0,0,0,0,0,0,0,0,0,0,0,0,0,0,0,0,0,0,0,0,0,0,0,0,0,0,0,0,0,0,0,0,0,0,0,0,0,0,0,0,0,0,0,0,0,0,0,0,0,0,0,0,0,0,0,0,0,0,0,0,0,0,0,0,0,0,0,0,0,0,0,0,0,0,0,0,0,0,0,0,0,0,0,0,0,0,0,0,0,0,0,0,0,0,0,0,0,0,0,0,0,0,0,0,0,0,0,0,0,0,0,0,0,0,0,0,0,0,0,0,0,0,0,0,0,0,0,0,0,0,0,0,0,0,0,0,0,0,0,0,0,0,0,0,0,0,0,0,0,0,0,0,0,0,0,0,0,0,0,0,0,0,0,0,0,0,0,0,0,0,0,0,0,0,0,0,0,0,0,0,0,0,0,0,0,0,0,0,0,0,0,0,0,0,0,0,0,0,0,0,0,0,0,0,0,0,0,0,0,0,0,0,0,0,0,0,0,0,0,0,0,0,0,0,0,0,0,0,0,0,0,0,0,0,0,0,0,0,0,0,0,0,0,0,0,0,0,0,0,0,0,0,0,0,0,0,0,0,0,0,0,0,0,0,0,0,0,0,0,0,0,0,0,0,0,0,0,0,0,0,0,0,0,0,0,0,0,0,0,0,0,0,0,0,0,0,0,0,0,0,0,0,0,0,0,0,0,0,0,0,0,0,0,0,0,0,0,0,0,0,0,0,0,0,0,0,0,0,0,0,0,0,0,0,0,0,0,0,0,0,0,0,0,0,0,0,0,0,0,0,0,0,0,0,0,0,0,0,0,0,0,0,0,0,0,0,0,0,0,0,0,0,0,0,0,0,0,0,0,0,0,0,0,0,0,0,0,0,0,0,0,0,0,0,0,0,0,0,0,0,0,0,0,0,0,0,0,0,0,0,0,0,0,0,0,0,0,0,0,0,0,0,0,0,0,0,0,0,0,0,0,0,0,0,0,0,0,0,0,0,0,0,0,0,0],"trees":[{"base_weights":[-4.5806527E-4,9.094839E-1,-1.3369025E1,1.0571374E0,-1.3047556E1,-1.3689318E1,8.042375E-1,2.5009824E-2,-3.5619253E-1,-3.472202E-2,-3.28641E-1,-3.2795346E-1,-1.411185E-2,-3.4782144E-1,2.3354512E-2],"categories":[],"categories_nodes":[],"categories_segments":[],"categories_sizes":[],"default_left":[0,0,0,0,0,0,0,0,0,0,0,0,0,0,0],"id":0,"left_children":[1,3,5,7,9,11,13,-1,-1,-1,-1,-1,-1,-1,-1],"loss_changes":[2.9677845E6,4.7072444E5,7.058575E4,3.2527812E4,2.6551969E4,5.752825E4,1.0202037E3,0E0,0E0,0E0,0E0,0E0,0E0,0E0,0E0],"parents":[2147483647,0,0,1,1,2,2,3,3,4,4,5,5,6,6],"right_children":[2,4,6,8,10,12,14,-1,-1,-1,-1,-1,-1,-1,-1],"split_conditions":[5.81E1,1E-1,4.3E-1,1.694615E8,1.4059344E1,7.516674E3,5.752451E0,2.5009824E-2,-3.5619253E-1,-3.472202E-2,-3.28641E-1,-3.2795346E-1,-1.411185E-2,-3.4782144E-1,2.3354512E-2],"split_indices":[33,9,28,38,41,3,39,0,0,0,0,0,0,0,0],"split_type":[0,0,0,0,0,0,0,0,0,0,0,0,0,0,0],"sum_hessian":[2.4396805E5,2.2842039E5,1.5547647E4,2.2602923E5,2.3911602E3,1.5204093E4,3.43554E2,2.2590595E5,1.2327344E2,1.833108E2,2.2078494E3,1.4875426E4,3.2866766E2,4.1214175E0,3.3943256E2],"tree_param":{"num_deleted":"0","num_feature":"45","num_nodes":"15","size_leaf_vector":"1"}},{"base_weights":[3.0817897E-3,1.04707E0,-9.331171E0,1.0605156E0,-9.833395E0,-3.9892974E0,-1.06842985E1,2.4963332E-2,-2.6046678E-1,-2.503422E-1,1.4271696E-2,-8.567403E-3,-2.4873537E-1,-2.5274277E-1,-8.630365E-3],"categories":[],"categories_nodes":[],"categories_segments":[],"categories_sizes":[],"default_left":[0,0,0,0,0,0,0,0,0,0,0,0,0,0,0],"id":1,"left_children":[1,3,5,7,9,11,13,-1,-1,-1,-1,-1,-1,-1,-1],"loss_changes":[2.3833232E6,3.217611E4,1.77826E5,9.357719E3,2.3771836E3,1.1916048E5,1.7903E4,0E0,0E0,0E0,0E0,0E0,0E0,0E0,0E0],"parents":[2147483647,0,0,1,1,2,2,3,3,4,4,5,5,6,6],"right_children":[2,4,6,8,10,12,14,-1,-1,-1,-1,-1,-1,-1,-1],"split_conditions":[6.6E1,2E-1,6.911765E-1,1.694615E8,5.5081573E1,1E0,2.1E-1,2.4963332E-2,-2.6046678E-1,-2.503422E-1,1.4271696E-2,-8.567403E-3,-2.4873537E-1,-2.5274277E-1,-8.630365E-3],"split_indices":[37,9,43,38,4,10,7,0,0,0,0,0,0,0,0],"split_type":[0,0,0,0,0,0,0,0,0,0,0,0,0,0,0],"sum_hessian":[2.4457295E5,2.1997044E5,2.4602516E4,2.19699E5,2.714482E2,4.9724893E3,1.9630025E4,2.1963577E5,6.323376E1,2.5134534E2,2.0102858E1,3.212121E3,1.7603683E3,1.9463145E4,1.6688164E2],"tree_param":{"num_deleted":"0","num_feature":"45","num_nodes":"15","size_leaf_vector":"1"}},{"base_weights":[5.07595E-3,1.0483031E0,-7.6788654E0,1.0602827E0,-7.6287894E0,-7.936207E0,7.684991E-1,2.4911417E-2,-2.078273E-1,-2.043434E-1,-5.9884086E-2,-1.909425E-1,2.0105118E-2,2.188143E-2,-2.5158966E-1],"categories":[],"categories_nodes":[],"categories_segments":[],"categories_sizes":[],"default_left":[0,0,0,0,0,0,0,0,0,0,0,0,0,0,0],"id":2,"left_children":[1,3,5,7,9,11,13,-1,-1,-1,-1,-1,-1,-1,-1],"loss_changes":[1.9612422E6,2.2389125E4,6.3581E4,3.2478906E3,1.6241328E3,5.0513625E4,1.6264392E3,0E0,0E0,0E0,0E0,0E0,0E0,0E0,0E0],"parents":[2147483647,0,0,1,1,2,2,3,3,4,4,5,5,6,6],"right_children":[2,4,6,8,10,12,14,-1,-1,-1,-1,-1,-1,-1,-1],"split_conditions":[1.1375574E1,2E-1,2.1E-1,1.694615E8,3.0028362E0,4.3E-1,1.694615E8,2.4911417E-2,-2.078273E-1,-2.043434E-1,-5.9884086E-2,-1.909425E-1,2.0105118E-2,2.188143E-2,-2.5158966E-1],"split_indices":[40,9,7,38,3,28,38,0,0,0,0,0,0,0,0],"split_type":[0,0,0,0,0,0,0,0,0,0,0,0,0,0,0],"sum_hessian":[2.4466339E5,2.154169E5,2.9246486E4,2.1511997E5,2.9694043E2,2.8381912E4,8.645736E2,2.1508697E5,3.2998257E1,2.4473148E2,5.2208942E1,2.7743398E4,6.3851465E2,8.5243884E2,1.2134744E1],"tree_param":{"num_deleted":"0","num_feature":"45","num_nodes":"15","size_leaf_vector":"1"}},{"base_weights":[7.152266E-3,8.971882E-1,-6.8346796E0,1.0516499E0,-6.7600822E0,-6.942629E0,7.627248E-1,2.488613E-2,-1.7284788E-1,-2.1740394E-2,-1.6496341E-1,-1.6511074E-1,1.863977E-2,2.0388508E-2,-2.0696776E-1],"categories":[],"categories_nodes":[],"categories_segments":[],"categories_sizes":[],"default_left":[0,0,0,0,0,0,0,0,0,0,0,0,0,0,0],"id":3,"left_children":[1,3,5,7,9,11,13,-1,-1,-1,-1,-1,-1,-1,-1],"loss_changes":[1.4885435E6,2.558355E5,2.3080375E4,1.6203547E4,6.762578E3,2.0381875E4,3.9782693E2,0E0,0E0,0E0,0E0,0E0,0E0,0E0,0E0],"parents":[2147483647,0,0,1,1,2,2,3,3,4,4,5,5,6,6],"right_children":[2,4,6,8,10,12,14,-1,-1,-1,-1,-1,-1,-1,-1],"split_conditions":[5.81E1,1E-1,2.1E-1,1.694615E8,3.9E0,4.3E-1,1.694615E8,2.488613E-2,-1.7284788E-1,-2.1740394E-2,-1.6496341E-1,-1.6511074E-1,1.863977E-2,2.0388508E-2,-2.0696776E-1],"split_indices":[33,9,7,38,16,28,38,0,0,0,0,0,0,0,0],"split_type":[0,0,0,0,0,0,0,0,0,0,0,0,0,0,0],"sum_hessian":[2.4444569E5,2.1630697E5,2.8138734E4,2.1202997E5,4.276986E3,2.7744582E4,3.941516E2,2.1180162E5,2.2834564E2,1.9008507E2,4.086901E3,2.7408344E4,3.3623865E2,3.8987762E2,4.27399E0],"tree_param":{"num_deleted":"0","num_feature":"45","num_nodes":"15","size_leaf_vector":"1"}},{"base_weights":[9.158039E-3,1.0441345E0,-5.7000346E0,1.056639E0,-5.701132E0,-2.9908063E0,-6.224944E0,2.485454E-2,-2.3080352E-1,-1.412935E-1,-9.468672E-3,-1.5080738E-1,-4.9220244E-3,-1.477509E-1,-1.2849009E-2],"categories":[],"categories_nodes":[],"categories_segments":[],"categories_sizes":[],"default_left":[0,0,0,0,0,0,0,0,0,0,0,0,0,0,0],"id":4,"left_children":[1,3,5,7,9,11,13,-1,-1,-1,-1,-1,-1,-1,-1],"loss_changes":[1.4401641E6,1.7400703E4,5.318675E4,6.151047E3,6.4660645E2,5.802526E4,1.292625E4,0E0,0E0,0E0,0E0,0E0,0E0,0E0,0E0],"parents":[2147483647,0,0,1,1,2,2,3,3,4,4,5,5,6,6],"right_children":[2,4,6,8,10,12,14,-1,-1,-1,-1,-1,-1,-1,-1],"split_conditions":[1.1375574E1,2E-1,6.911765E-1,2E-1,1.1E-1,2.436853E1,6.1E-1,2.485454E-2,-2.3080352E-1,-1.412935E-1,-9.468672E-3,-1.5080738E-1,-4.9220244E-3,-1.477509E-1,-1.2849009E-2],"split_indices":[40,9,43,27,15,41,15,0,0,0,0,0,0,0,0],"split_type":[0,0,0,0,0,0,0,0,0,0,0,0,0,0,0],"sum_hessian":[2.4372917E5,2.0632598E5,3.740319E4,2.0594427E5,3.817138E2,6.070788E3,3.1332404E4,2.0589245E5,5.1804455E1,3.5980472E2,2.1909088E1,2.7150461E3,3.3557422E3,3.093625E4,3.9615598E2],"tree_param":{"num_deleted":"0","num_feature":"45","num_nodes":"15","size_leaf_vector":"1"}},{"base_weights":[1.0030593E-2,1.0544587E0,-4.9791903E0,-7.3567767E0,1.0576832E0,-5.100576E0,6.521494E-1,-2.3528738E-1,-1.4961001E-1,2.4868047E-2,-2.4140191E-1,-1.222837E-1,2.2945538E-2,2.3470772E-2,-1.144343E-1],"categories":[],"categories_nodes":[],"categories_segments":[],"categories_sizes":[],"default_left":[0,0,0,0,0,0,0,0,0,0,0,0,0,0,0],"id":5,"left_children":[1,3,5,7,9,11,13,-1,-1,-1,-1,-1,-1,-1,-1],"loss_changes":[1.2663025E6,5.447E3,2.8756438E4,1.9366162E2,5.1809062E3,2.7925375E4,1.7073069E3,0E0,0E0,0E0,0E0,0E0,0E0,0E0,0E0],"parents":[2147483647,0,0,1,1,2,2,3,3,4,4,5,5,6,6],"right_children":[2,4,6,8,10,12,14,-1,-1,-1,-1,-1,-1,-1,-1],"split_conditions":[6.1282585E1,8.6E-1,9.851648E3,3.042E2,8E-1,5.4E-1,7E-1,-2.3528738E-1,-1.4961001E-1,2.4868047E-2,-2.4140191E-1,-1.222837E-1,2.2945538E-2,2.3470772E-2,-1.144343E-1],"split_indices":[35,30,3,32,18,28,10,0,0,0,0,0,0,0,0],"split_type":[0,0,0,0,0,0,0,0,0,0,0,0,0,0,0],"sum_hessian":[2.4301147E5,2.0094612E5,4.2065348E4,7.694626E1,2.0086919E5,4.117783E4,8.875201E2,2.051535E1,5.643091E1,2.0082895E5,4.022162E1,4.0435805E4,7.4202295E2,8.350182E2,5.250189E1],"tree_param":{"num_deleted":"0","num_feature":"45","num_nodes":"15","size_leaf_vector":"1"}},{"base_weights":[1.0775987E-2,1.0530889E0,-4.5026393E0,1.0584027E0,-4.3341618E0,-2.1842008E0,-4.9668617E0,2.4854083E-2,-1.6573101E-1,-1.6611205E-1,-4.44784E-2,-1.1993995E-1,4.2102918E-5,-1.17542595E-1,5.114992E-3],"categories":[],"categories_nodes":[],"categories_segments":[],"categories_sizes":[],"default_left":[0,0,0,0,0,0,0,0,0,0,0,0,0,0,0],"id":6,"left_children":[1,3,5,7,9,11,13,-1,-1,-1,-1,-1,-1,-1,-1],"loss_changes":[1.1378522E6,5.6235E3,4.8834938E4,1.5280938E3,1.2916611E3,4.845762E4,8.4688125E3,0E0,0E0,0E0,0E0,0E0,0E0,0E0,0E0],"parents":[2147483647,0,0,1,1,2,2,3,3,4,4,5,5,6,6],"right_children":[2,4,6,8,10,12,14,-1,-1,-1,-1,-1,-1,-1,-1],"split_conditions":[6.1282585E1,1.641E2,6.911765E-1,3E-1,4.304E2,1.2639825E1,2.1E-1,2.4854083E-2,-1.6573101E-1,-1.6611205E-1,-4.44784E-2,-1.1993995E-1,4.2102918E-5,-1.17542595E-1,5.114992E-3],"split_indices":[35,16,43,27,32,41,7,0,0,0,0,0,0,0,0],"split_type":[0,0,0,0,0,0,0,0,0,0,0,0,0,0,0],"sum_hessian":[2.418706E5,1.9649322E5,4.5377375E4,1.9629969E5,1.9353702E2,7.570331E3,3.7807043E4,1.9627655E5,2.3143297E1,9.093264E1,1.02604385E2,3.2360342E3,4.334297E3,3.7494797E4,3.1224677E2],"tree_param":{"num_deleted":"0","num_feature":"45","num_nodes":"15","size_leaf_vector":"1"}},{"base_weights":[1.2180148E-2,1.0384698E0,-4.1956673E0,1.0550325E0,-4.461234E0,-4.2975082E0,8.1097937E-1,2.4791854E-2,-1.3453399E-1,-1.14717975E-1,1.8971771E-2,-1.0266505E-1,1.2940526E-2,2.2542018E-2,-1.3871278E-1],"categories":[],"categories_nodes":[],"categories_segments":[],"categories_sizes":[],"default_left":[0,0,0,0,0,0,0,0,0,0,0,0,0,0,0],"id":7,"left_children":[1,3,5,7,9,11,13,-1,-1,-1,-1,-1,-1,-1,-1],"loss_changes":[1.039764E6,1.7629938E4,2.4072938E4,2.196375E3,1.313877E3,1.7594812E4,9.4569653E2,0E0,0E0,0E0,0E0,0E0,0E0,0E0,0E0],"parents":[2147483647,0,0,1,1,2,2,3,3,4,4,5,5,6,6],"right_children":[2,4,6,8,10,12,14,-1,-1,-1,-1,-1,-1,-1,-1],"split_conditions":[1.1375574E1,1.641E2,2.1E-1,2E-1,1.0870827E2,9.851648E3,1.694615E8,2.4791854E-2,-1.3453399E-1,-1.14717975E-1,1.8971771E-2,-1.0266505E-1,1.2940526E-2,2.2542018E-2,-1.3871278E-1],"split_indices":[40,16,7,27,3,3,38,0,0,0,0,0,0,0,0],"split_type":[0,0,0,0,0,0,0,0,0,0,0,0,0,0,0],"sum_hessian":[2.4077173E5,1.9356222E5,4.7209516E4,1.9298114E5,5.8108685E2,4.6268453E4,9.410608E2,1.9293352E5,4.7614902E1,5.3748096E2,4.360588E1,4.553225E4,7.362028E2,9.206152E2,2.0445587E1],"tree_param":{"num_deleted":"0","num_feature":"45","num_nodes":"15","size_leaf_vector":"1"}},{"base_weights":[1.3299645E-2,1.0365511E0,-3.8715003E0,1.0501388E0,-3.932026E0,-2.2527795E0,-4.186315E0,2.4705328E-2,-1.6372436E-1,-9.776311E-2,2.3486879E-2,-1.0061236E-1,-6.269528E-3,-9.8889984E-2,1.6757777E-2],"categories":[],"categories_nodes":[],"categories_segments":[],"categories_sizes":[],"default_left":[0,0,0,0,0,0,0,0,0,0,0,0,0,0,0],"id":8,"left_children":[1,3,5,7,9,11,13,-1,-1,-1,-1,-1,-1,-1,-1],"loss_changes":[9.509489E5,1.2781984E4,2.5412938E4,4.36925E3,5.9995215E2,3.2820992E4,5.8745E3,0E0,0E0,0E0,0E0,0E0,0E0,0E0,0E0],"parents":[2147483647,0,0,1,1,2,2,3,3,4,4,5,5,6,6],"right_children":[2,4,6,8,10,12,14,-1,-1,-1,-1,-1,-1,-1,-1],"split_conditions":[1.1375574E1,2E-1,8E-1,8E-1,1.2511078E2,3.0272876E3,3.1E-1,2.4705328E-2,-1.6372436E-1,-9.776311E-2,2.3486879E-2,-1.0061236E-1,-6.269528E-3,-9.8889984E-2,1.6757777E-2],"split_indices":[40,9,43,18,3,42,8,0,0,0,0,0,0,0,0],"split_type":[0,0,0,0,0,0,0,0,0,0,0,0,0,0,0],"sum_hessian":[2.3922512E5,1.8935055E5,4.9874574E4,1.8883423E5,5.1631445E2,8.12074E3,4.1753836E4,1.8876648E5,6.7742744E1,4.929323E2,2.3382147E1,4.009665E3,4.111075E3,4.1510812E4,2.4302399E2],"tree_param":{"num_deleted":"0","num_feature":"45","num_nodes":"15","size_leaf_vector":"1"}},{"base_weights":[1.3939139E-2,1.0354877E0,-3.5967584E0,1.051487E0,-2.900458E0,-2.039822E0,-3.8631148E0,2.4721444E-2,-1.5245828E-1,-8.417704E-2,2.4704402E-2,-9.33212E-2,1.7316452E-3,-9.16065E-2,-4.1654073E-3],"categories":[],"categories_nodes":[],"categories_segments":[],"categories_sizes":[],"default_left":[0,0,0,0,0,0,0,0,0,0,0,0,0,0,0],"id":9,"left_children":[1,3,5,7,9,11,13,-1,-1,-1,-1,-1,-1,-1,-1],"loss_changes":[8.7605106E5,1.1657234E4,2.171825E4,3.091125E3,2.0378306E3,3.134291E4,6.8316875E3,0E0,0E0,0E0,0E0,0E0,0E0,0E0,0E0],"parents":[2147483647,0,0,1,1,2,2,3,3,4,4,5,5,6,6],"right_children":[2,4,6,8,10,12,14,-1,-1,-1,-1,-1,-1,-1,-1],"split_conditions":[1.1375574E1,1E-1,6.911765E-1,9E-1,1.3327943E2,3.0272876E3,6.1E-1,2.4721444E-2,-1.5245828E-1,-8.417704E-2,2.4704402E-2,-9.33212E-2,1.7316452E-3,-9.16065E-2,-4.1654073E-3],"split_indices":[40,9,43,18,4,42,15,0,0,0,0,0,0,0,0],"split_type":[0,0,0,0,0,0,0,0,0,0,0,0,0,0,0],"sum_hessian":[2.375089E5,1.851312E5,5.2377703E4,1.8438183E5,7.493738E2,7.651876E3,4.472583E4,1.8432764E5,5.419683E1,6.3847235E2,1.1090142E2,3.992064E3,3.6598123E3,4.422821E4,4.9761603E2],"tree_param":{"num_deleted":"0","num_feature":"45","num_nodes":"15","size_leaf_vector":"1"}},{"base_weights":[1.3580378E-2,1.0336375E0,-3.3673098E0,1.050563E0,-3.6549096E0,-1.8986821E0,-3.5980797E0,-1.16310805E-1,2.4687136E-2,-9.249757E-2,1.6163625E-2,-8.614004E-2,5.71922E-3,-8.5084625E-2,1.6853461E-2],"categories":[],"categories_nodes":[],"categories_segments":[],"categories_sizes":[],"default_left":[0,0,0,0,0,0,0,0,0,0,0,0,0,0,0],"id":10,"left_children":[1,3,5,7,9,11,13,-1,-1,-1,-1,-1,-1,-1,-1],"loss_changes":[8.1388825E5,1.4385844E4,1.8536062E4,1.8259688E3,8.162246E2,2.8216668E4,5.81825E3,0E0,0E0,0E0,0E0,0E0,0E0,0E0,0E0],"parents":[2147483647,0,0,1,1,2,2,3,3,4,4,5,5,6,6],"right_children":[2,4,6,8,10,12,14,-1,-1,-1,-1,-1,-1,-1,-1],"split_conditions":[1.1375574E1,1.641E2,6E-1,8.6E-1,1.0870827E2,3.0557823E1,3.1E-1,-1.16310805E-1,2.4687136E-2,-9.249757E-2,1.6163625E-2,-8.614004E-2,5.71922E-3,-8.5084625E-2,1.6853461E-2],"split_indices":[40,16,43,30,4,41,7,0,0,0,0,0,0,0,0],"split_type":[0,0,0,0,0,0,0,0,0,0,0,0,0,0,0],"sum_hessian":[2.3599878E5,1.812988E5,5.469999E4,1.8064677E5,6.520223E2,7.428265E3,4.7271723E4,5.0541805E1,1.8059623E5,6.116301E2,4.0392193E1,4.0648245E3,3.3634407E3,4.696168E4,3.100446E2],"tree_param":{"num_deleted":"0","num_feature":"45","num_nodes":"15","size_leaf_vector":"1"}},{"base_weights":[1.3665793E-2,1.0318791E0,-3.1697254E0,1.0492202E0,-3.4194665E0,-3.2184706E0,9.9323213E-1,-1.0485482E-1,2.4656046E-2,-8.6531214E-2,1.5497061E-2,-7.671832E-2,1.3773454E-2,-8.292186E-2,2.4832472E-2],"categories":[],"categories_nodes":[],"categories_segments":[],"categories_sizes":[],"default_left":[0,0,0,0,0,0,0,0,0,0,0,0,0,0,0],"id":11,"left_children":[1,3,5,7,9,11,13,-1,-1,-1,-1,-1,-1,-1,-1],"loss_changes":[7.584491E5,1.3683766E4,1.150775E4,1.6567969E3,7.5575635E2,1.0989625E4,1.9256836E2,0E0,0E0,0E0,0E0,0E0,0E0,0E0,0E0],"parents":[2147483647,0,0,1,1,2,2,3,3,4,4,5,5,6,6],"right_children":[2,4,6,8,10,12,14,-1,-1,-1,-1,-1,-1,-1,-1],"split_conditions":[1.1375574E1,1.641E2,5.4E-1,8.6E-1,1.0870827E2,9.851648E3,6.4627504E-1,-1.0485482E-1,2.4656046E-2,-8.6531214E-2,1.5497061E-2,-7.671832E-2,1.3773454E-2,-8.292186E-2,2.4832472E-2],"split_indices":[40,16,28,30,3,3,3,0,0,0,0,0,0,0,0],"split_type":[0,0,0,0,0,0,0,0,0,0,0,0,0,0,0],"sum_hessian":[2.339905E5,1.7728555E5,5.6704945E4,1.7659769E5,6.8786414E2,5.604877E4,6.56175E2,5.4354324E1,1.7654334E5,6.454589E2,4.240521E1,5.5300273E4,7.484963E2,9.212927E0,6.4696204E2],"tree_param":{"num_deleted":"0","num_feature":"45","num_nodes":"15","size_leaf_vector":"1"}},{"base_weights":[1.4455279E-2,1.0300908E0,-2.9931595E0,1.0469859E0,-2.509146E0,-1.6991752E0,-3.1931798E0,2.4622688E-2,-1.20207E-1,1.870981E-2,-7.235566E-2,-7.727536E-2,6.8129087E-3,-7.598852E-2,-1.4095694E-2],"categories":[],"categories_nodes":[],"categories_segments":[],"categories_sizes":[],"default_left":[0,0,0,0,0,0,0,0,0,0,0,0,0,0,0],"id":12,"left_children":[1,3,5,7,9,11,13,-1,-1,-1,-1,-1,-1,-1,-1],"loss_changes":[7.0894725E5,1.0373922E4,1.5161875E4,2.6769844E3,1.5677744E3,2.4887244E4,6.010125E3,0E0,0E0,0E0,0E0,0E0,0E0,0E0,0E0],"parents":[2147483647,0,0,1,1,2,2,3,3,4,4,5,5,6,6],"right_children":[2,4,6,8,10,12,14,-1,-1,-1,-1,-1,-1,-1,-1],"split_conditions":[1.1375574E1,1E-1,6E-1,8E-1,8.1341E2,2.0823916E3,3.1E-1,2.4622688E-2,-1.20207E-1,1.870981E-2,-7.235566E-2,-7.727536E-2,6.8129087E-3,-7.598852E-2,-1.4095694E-2],"split_indices":[40,9,43,18,0,42,15,0,0,0,0,0,0,0,0],"split_type":[0,0,0,0,0,0,0,0,0,0,0,0,0,0,0],"sum_hessian":[2.3208892E5,1.7350016E5,5.8588766E4,1.7267598E5,8.2416394E2,7.8443047E3,5.074446E4,1.7260573E5,7.024982E1,1.2194534E2,7.022186E2,4.354547E3,3.4897576E3,4.98652E4,8.792621E2],"tree_param":{"num_deleted":"0","num_feature":"45","num_nodes":"15","size_leaf_vector":"1"}},{"base_weights":[1.5661346E-2,1.0424659E0,-2.8011518E0,1.0482308E0,-2.6223786E0,-1.4831321E0,-3.0306745E0,2.462088E-2,-1.0310059E-1,-9.348946E-2,-2.7340965E-2,7.194599E-3,-7.0954755E-2,-7.1932286E-2,1.2880095E-3],"categories":[],"categories_nodes":[],"categories_segments":[],"categories_sizes":[],"default_left":[0,0,0,0,0,0,0,0,0,0,0,0,0,0,0],"id":13,"left_children":[1,3,5,7,9,11,13,-1,-1,-1,-1,-1,-1,-1,-1],"loss_changes":[6.6517606E5,3.5601094E3,1.8583844E4,1.0904375E3,5.227771E2,2.5137223E4,5.7034375E3,0E0,0E0,0E0,0E0,0E0,0E0,0E0,0E0],"parents":[2147483647,0,0,1,1,2,2,3,3,4,4,5,5,6,6],"right_children":[2,4,6,8,10,12,14,-1,-1,-1,-1,-1,-1,-1,-1],"split_conditions":[6.1282585E1,1.641E2,6.911765E-1,3E-1,5.4166668E1,8E-1,6.1E-1,2.462088E-2,-1.0310059E-1,-9.348946E-2,-2.7340965E-2,7.194599E-3,-7.0954755E-2,-7.1932286E-2,1.2880095E-3],"split_indices":[35,16,43,27,44,10,15,0,0,0,0,0,0,0,0],"split_type":[0,0,0,0,0,0,0,0,0,0,0,0,0,0,0],"sum_hessian":[2.299807E5,1.6854255E5,6.143815E4,1.6827797E5,2.645745E2,9.112468E3,5.2325684E4,1.682412E5,3.6767765E1,1.3655597E2,1.2801851E2,4.2160537E3,4.896414E3,5.1733707E4,5.9197595E2],"tree_param":{"num_deleted":"0","num_feature":"45","num_nodes":"15","size_leaf_vector":"1"}},{"base_weights":[1.6883539E-2,1.0272403E0,-2.7064176E0,1.0464882E0,-2.6559224E0,-2.7665677E0,8.400433E-1,2.4565054E-2,-2.0202646E-1,-7.076066E-2,2.096792E-2,-6.586337E-2,1.3814493E-2,2.2838457E-2,-8.99198E-2],"categories":[],"categories_nodes":[],"categories_segments":[],"categories_sizes":[],"default_left":[0,0,0,0,0,0,0,0,0,0,0,0,0,0,0],"id":14,"left_children":[1,3,5,7,9,11,13,-1,-1,-1,-1,-1,-1,-1,-1],"loss_changes":[6.265019E5,1.1773094E4,1.31448125E4,8.824531E2,1.1045581E3,8.2846875E3,6.3915906E2,0E0,0E0,0E0,0E0,0E0,0E0,0E0,0E0],"parents":[2147483647,0,0,1,1,2,2,3,3,4,4,5,5,6,6],"right_children":[2,4,6,8,10,12,14,-1,-1,-1,-1,-1,-1,-1,-1],"split_conditions":[1.1375574E1,7.38E1,2.1E-1,2E-1,1.0870827E2,9.851648E3,1.694615E8,2.4565054E-2,-2.0202646E-1,-7.076066E-2,2.096792E-2,-6.586337E-2,1.3814493E-2,2.2838457E-2,-8.99198E-2],"split_indices":[40,16,7,17,4,4,38,0,0,0,0,0,0,0,0],"split_type":[0,0,0,0,0,0,0,0,0,0,0,0,0,0,0],"sum_hessian":[2.2769448E5,1.6607872E5,6.1615766E4,1.6521544E5,8.6327356E2,6.0588285E4,1.0274806E3,1.65206E5,9.449466E0,7.838781E2,7.9395485E1,5.9861496E4,7.2678876E2,9.990591E2,2.8421505E1],"tree_param":{"num_deleted":"0","num_feature":"45","num_nodes":"15","size_leaf_vector":"1"}},{"base_weights":[1.6080989E-2,9.2049134E-1,-2.694945E0,1.0440487E0,-2.0006247E0,-2.7907586E0,-3.902971E-1,2.4573907E-2,-1.0570561E-1,-6.5945074E-2,-1.2464044E-3,-6.575281E-2,-3.6662694E-2,2.4118522E-2,-6.873346E-2],"categories":[],"categories_nodes":[],"categories_segments":[],"categories_sizes":[],"default_left":[0,0,0,0,0,0,0,0,0,0,0,0,0,0,0],"id":15,"left_children":[1,3,5,7,9,11,13,-1,-1,-1,-1,-1,-1,-1,-1],"loss_changes":[5.529964E5,6.103953E4,1.2456781E4,3.034875E3,1.0827172E4,7.8575E2,8.112205E3,0E0,0E0,0E0,0E0,0E0,0E0,0E0,0E0],"parents":[2147483647,0,0,1,1,2,2,3,3,4,4,5,5,6,6],"right_children":[2,4,6,8,10,12,14,-1,-1,-1,-1,-1,-1,-1,-1],"split_conditions":[6E-1,6E1,1.1E-1,7E-1,3.7111244E1,1.3731556E3,1E-1,2.4573907E-2,-1.0570561E-1,-6.5945074E-2,-1.2464044E-3,-6.575281E-2,-3.6662694E-2,2.4118522E-2,-6.873346E-2],"split_indices":[43,33,15,18,36,3,13,0,0,0,0,0,0,0,0],"split_type":[0,0,0,0,0,0,0,0,0,0,0,0,0,0,0],"sum_hessian":[2.2554005E5,1.6912078E5,5.641927E4,1.6225777E5,6.863015E3,5.416712E4,2.252151E3,1.6215931E5,9.844933E1,4.84657E3,2.0164454E3,5.364936E4,5.1776105E2,1.4449275E3,8.0722345E2],"tree_param":{"num_deleted":"0","num_feature":"45","num_nodes":"15","size_leaf_vector":"1"}},{"base_weights":[1.560112E-2,1.0381852E0,-2.4466932E0,-3.4500089E0,1.0419112E0,-2.4892519E0,1.0027841E0,-1.0737131E-1,-6.4800486E-2,2.4518784E-2,-5.1185206E-2,-5.93724E-2,1.5099179E-2,-5.6629524E-2,2.4945693E-2],"categories":[],"categories_nodes":[],"categories_segments":[],"categories_sizes":[],"default_left":[0,0,0,0,0,0,0,0,0,0,0,0,0,0,0],"id":16,"left_children":[1,3,5,7,9,11,13,-1,-1,-1,-1,-1,-1,-1,-1],"loss_changes":[5.620562E5,2.6364531E3,9.616625E3,9.784082E1,1.6048125E3,8.3919375E3,1.642987E2,0E0,0E0,0E0,0E0,0E0,0E0,0E0,0E0],"parents":[2147483647,0,0,1,1,2,2,3,3,4,4,5,5,6,6],"right_children":[2,4,6,8,10,12,14,-1,-1,-1,-1,-1,-1,-1,-1],"split_conditions":[6.1282585E1,8.6E-1,5.4E-1,3E-1,1.737E2,9.851648E3,6.4627504E-1,-1.0737131E-1,-6.4800486E-2,2.4518784E-2,-5.1185206E-2,-5.93724E-2,1.5099179E-2,-5.6629524E-2,2.4945693E-2],"split_indices":[35,30,28,30,2,3,3,0,0,0,0,0,0,0,0],"split_type":[0,0,0,0,0,0,0,0,0,0,0,0,0,0,0],"sum_hessian":[2.2322419E5,1.5772261E5,6.550158E4,1.3072386E2,1.5759188E5,6.470342E4,7.981551E2,4.930372E1,8.142014E1,1.5743769E5,1.5418794E2,6.3859766E4,8.436559E2,1.3747725E1,7.8440735E2],"tree_param":{"num_deleted":"0","num_feature":"45","num_nodes":"15","size_leaf_vector":"1"}},{"base_weights":[1.4496917E-2,1.0368158E0,-2.348783E0,1.0406691E0,-3.263434E0,-1.2993635E0,-2.547762E0,2.4485063E-2,-9.3102634E-2,-6.163191E-2,-1.0087765E-1,4.3674265E-3,-5.848684E-2,-6.040688E-2,1.3126993E-3],"categories":[],"categories_nodes":[],"categories_segments":[],"categories_sizes":[],"default_left":[0,0,0,0,0,0,0,0,0,0,0,0,0,0,0],"id":17,"left_children":[1,3,5,7,9,11,13,-1,-1,-1,-1,-1,-1,-1,-1],"loss_changes":[5.3402475E5,2.5555781E3,1.39350625E4,2.2880312E3,8.775635E1,1.8863348E4,3.9422188E3,0E0,0E0,0E0,0E0,0E0,0E0,0E0,0E0],"parents":[2147483647,0,0,1,1,2,2,3,3,4,4,5,5,6,6],"right_children":[2,4,6,8,10,12,14,-1,-1,-1,-1,-1,-1,-1,-1],"split_conditions":[6.1282585E1,2E-1,8E-1,8E-1,8E-1,8E-1,6.1E-1,2.4485063E-2,-9.3102634E-2,-6.163191E-2,-1.0087765E-1,4.3674265E-3,-5.848684E-2,-6.040688E-2,1.3126993E-3],"split_indices":[35,27,43,18,27,10,15,0,0,0,0,0,0,0,0],"split_type":[0,0,0,0,0,0,0,0,0,0,0,0,0,0,0],"sum_hessian":[2.2103462E5,1.5429092E5,6.67437E4,1.541529E5,1.380196E2,1.0638479E4,5.6105223E4,1.5406181E5,9.109889E1,8.5788704E1,5.22309E1,4.7393413E3,5.899137E3,5.553003E4,5.7519116E2],"tree_param":{"num_deleted":"0","num_feature":"45","num_nodes":"15","size_leaf_vector":"1"}},{"base_weights":[1.7447174E-2,1.0358038E0,-2.2596214E0,1.0394702E0,-3.0249093E0,-1.2011707E0,-2.4399514E0,2.4463285E-2,-4.7148675E-2,-1.0216463E-1,-6.227746E-2,7.896598E-3,-5.6769557E-2,1.6403446E-2,-5.752486E-2],"categories":[],"categories_nodes":[],"categories_segments":[],"categories_sizes":[],"default_left":[0,0,0,0,0,0,0,0,0,0,0,0,0,0,0],"id":18,"left_children":[1,3,5,7,9,11,13,-1,-1,-1,-1,-1,-1,-1,-1],"loss_changes":[5.0638212E5,2.2455781E3,1.28786875E4,1.486875E3,6.367041E1,1.8408893E4,2.1632812E3,0E0,0E0,0E0,0E0,0E0,0E0,0E0,0E0],"parents":[2147483647,0,0,1,1,2,2,3,3,4,4,5,5,6,6],"right_children":[2,4,6,8,10,12,14,-1,-1,-1,-1,-1,-1,-1,-1],"split_conditions":[6.1282585E1,2E-1,6.911765E-1,1.737E2,1.1E-1,8E-1,1.1856E2,2.4463285E-2,-4.7148675E-2,-1.0216463E-1,-6.227746E-2,7.896598E-3,-5.6769557E-2,1.6403446E-2,-5.752486E-2],"split_indices":[35,27,43,2,24,10,0,0,0,0,0,0,0,0,0],"split_type":[0,0,0,0,0,0,0,0,0,0,0,0,0,0,0],"sum_hessian":[2.1837497E5,1.508926E5,6.7482375E4,1.507566E5,1.3600023E2,9.82383E3,5.7658543E4,1.5059694E5,1.59652E2,2.935308E1,1.0664714E2,4.342878E3,5.4809517E3,2.1846759E2,5.744008E4],"tree_param":{"num_deleted":"0","num_feature":"45","num_nodes":"15","size_leaf_vector":"1"}},{"base_weights":[1.5535166E-2,1.0346206E0,-2.1809947E0,1.041014E0,-2.18996E0,-1.2236094E0,-2.3611186E0,2.4444688E-2,-1.1426744E-1,-6.360249E-2,3.5159183E-3,4.177542E-3,-5.4023612E-2,-5.5982336E-2,1.9453121E-3],"categories":[],"categories_nodes":[],"categories_segments":[],"categories_sizes":[],"default_left":[0,0,0,0,0,0,0,0,0,0,0,0,0,0,0],"id":19,"left_children":[1,3,5,7,9,11,13,-1,-1,-1,-1,-1,-1,-1,-1],"loss_changes":[4.8362616E5,3.0419844E3,1.18060625E4,7.811875E2,3.5702185E2,1.6400473E4,3.5269062E3,0E0,0E0,0E0,0E0,0E0,0E0,0E0,0E0],"parents":[2147483647,0,0,1,1,2,2,3,3,4,4,5,5,6,6],"right_children":[2,4,6,8,10,12,14,-1,-1,-1,-1,-1,-1,-1,-1],"split_conditions":[6.1282585E1,1.641E2,8E-1,4E-1,7.1841805E1,8E-1,6.1E-1,2.4444688E-2,-1.1426744E-1,-6.360249E-2,3.5159183E-3,4.177542E-3,-5.4023612E-2,-5.5982336E-2,1.9453121E-3],"split_indices":[35,16,43,18,3,10,15,0,0,0,0,0,0,0,0],"split_type":[0,0,0,0,0,0,0,0,0,0,0,0,0,0,0],"sum_hessian":[2.160541E5,1.4758288E5,6.847122E4,1.47291E5,2.918838E2,1.0842776E4,5.7628445E4,1.4726867E5,2.2322186E1,2.3889304E2,5.299076E1,4.7161533E3,6.1266226E3,5.704436E4,5.8408417E2],"tree_param":{"num_deleted":"0","num_feature":"45","num_nodes":"15","size_leaf_vector":"1"}},{"base_weights":[1.4629549E-2,1.018209E0,-2.1373713E0,1.0392525E0,-2.133337E0,-1.313443E0,-2.283008E0,2.4419269E-2,-7.7023625E-2,-5.6043383E-2,2.0463506E-2,-5.509613E-2,-6.241958E-4,-5.4095708E-2,9.408532E-4],"categories":[],"categories_nodes":[],"categories_segments":[],"categories_sizes":[],"default_left":[0,0,0,0,0,0,0,0,0,0,0,0,0,0,0],"id":20,"left_children":[1,3,5,7,9,11,13,-1,-1,-1,-1,-1,-1,-1,-1],"loss_changes":[4.6082244E5,9.649953E3,8.1410938E3,9.843125E2,7.415464E2,1.3574633E4,3.0459688E3,0E0,0E0,0E0,0E0,0E0,0E0,0E0,0E0],"parents":[2147483647,0,0,1,1,2,2,3,3,4,4,5,5,6,6],"right_children":[2,4,6,8,10,12,14,-1,-1,-1,-1,-1,-1,-1,-1],"split_conditions":[1.1375574E1,7.38E1,8E-1,2E-1,1.0870827E2,4.3293286E3,6.1E-1,2.4419269E-2,-7.7023625E-2,-5.6043383E-2,2.0463506E-2,-5.509613E-2,-6.241958E-4,-5.4095708E-2,9.408532E-4],"split_indices":[40,16,43,27,3,42,15,0,0,0,0,0,0,0,0],"split_type":[0,0,0,0,0,0,0,0,0,0,0,0,0,0,0],"sum_hessian":[2.1337322E5,1.455136E5,6.7859625E4,1.4454856E5,9.650337E2,1.0193579E4,5.766605E4,1.4449595E5,5.2615704E1,8.895921E2,7.5441635E1,5.649564E3,4.5440146E3,5.710752E4,5.5853094E2],"tree_param":{"num_deleted":"0","num_feature":"45","num_nodes":"15","size_leaf_vector":"1"}},{"base_weights":[1.6937476E-2,1.0319971E0,-2.0398152E0,1.0395046E0,-1.6620824E0,-2.096785E0,9.0738565E-1,-7.352039E-2,2.4414083E-2,-6.855901E-2,-9.86452E-3,-5.002639E-2,2.3503218E-2,2.3584638E-2,-6.79729E-2],"categories":[],"categories_nodes":[],"categories_segments":[],"categories_sizes":[],"default_left":[0,0,0,0,0,0,0,0,0,0,0,0,0,0,0],"id":21,"left_children":[1,3,5,7,9,11,13,-1,-1,-1,-1,-1,-1,-1,-1],"loss_changes":[4.3994684E5,2.8535469E3,1.1692281E4,6.4721875E2,6.116345E2,7.5160312E3,4.9075146E2,0E0,0E0,0E0,0E0,0E0,0E0,0E0,0E0],"parents":[2147483647,0,0,1,1,2,2,3,3,4,4,5,5,6,6],"right_children":[2,4,6,8,10,12,14,-1,-1,-1,-1,-1,-1,-1,-1],"split_conditions":[6.1282585E1,7.38E1,2.1E-1,8.6E-1,5.4166668E1,5.4E-1,1.694615E8,-7.352039E-2,2.4414083E-2,-6.855901E-2,-9.86452E-3,-5.002639E-2,2.3503218E-2,2.3584638E-2,-6.79729E-2],"split_indices":[35,16,7,30,44,28,38,0,0,0,0,0,0,0,0],"split_type":[0,0,0,0,0,0,0,0,0,0,0,0,0,0,0],"sum_hessian":[2.1073034E5,1.410961E5,6.9634266E4,1.4070416E5,3.9192712E2,6.831391E4,1.3203557E3,3.7096012E1,1.4066706E5,1.9432478E2,1.9760236E2,6.754016E4,7.7375183E2,1.2873645E3,3.299119E1],"tree_param":{"num_deleted":"0","num_feature":"45","num_nodes":"15","size_leaf_vector":"1"}},{"base_weights":[1.5404358E-2,1.0309882E0,-1.9778262E0,1.0384405E0,-1.615643E0,-2.031435E0,8.909954E-1,2.4373982E-2,-2.2595893E-1,-5.0042663E-2,2.3050096E-2,-4.8455216E-2,2.3241945E-2,2.3444433E-2,-6.379712E-2],"categories":[],"categories_nodes":[],"categories_segments":[],"categories_sizes":[],"default_left":[0,0,0,0,0,0,0,0,0,0,0,0,0,0,0],"id":22,"left_children":[1,3,5,7,9,11,13,-1,-1,-1,-1,-1,-1,-1,-1],"loss_changes":[4.216215E5,2.7211406E3,1.08125625E4,6.6971875E2,5.210462E2,7.0678125E3,5.0327814E2,0E0,0E0,0E0,0E0,0E0,0E0,0E0,0E0],"parents":[2147483647,0,0,1,1,2,2,3,3,4,4,5,5,6,6],"right_children":[2,4,6,8,10,12,14,-1,-1,-1,-1,-1,-1,-1,-1],"split_conditions":[6.1282585E1,7.38E1,2.1E-1,2E-1,1.0870827E2,5.4E-1,1.694615E8,2.4373982E-2,-2.2595893E-1,-5.0042663E-2,2.3050096E-2,-4.8455216E-2,2.3241945E-2,2.3444433E-2,-6.379712E-2],"split_indices":[35,16,7,17,4,28,38,0,0,0,0,0,0,0,0],"split_type":[0,0,0,0,0,0,0,0,0,0,0,0,0,0,0],"sum_hessian":[2.0828111E5,1.3797884E5,7.030226E4,1.375916E5,3.8724533E2,6.9012805E4,1.2894568E3,1.3758573E5,5.873296E0,3.230925E2,6.415283E1,6.824772E4,7.650873E2,1.2520354E3,3.742144E1],"tree_param":{"num_deleted":"0","num_feature":"45","num_nodes":"15","size_leaf_vector":"1"}},{"base_weights":[1.6568068E-2,1.0296748E0,-1.9178414E0,1.0374016E0,-1.5541449E0,-9.912554E-1,-2.0738611E0,-7.852126E-2,2.43665E-2,-6.294593E-2,-8.839063E-3,-5.0921455E-2,5.8815153E-3,-4.909633E-2,2.2010434E-2],"categories":[],"categories_nodes":[],"categories_segments":[],"categories_sizes":[],"default_left":[0,0,0,0,0,0,0,0,0,0,0,0,0,0,0],"id":23,"left_children":[1,3,5,7,9,11,13,-1,-1,-1,-1,-1,-1,-1,-1],"loss_changes":[4.0299888E5,2.6940781E3,1.02165E4,6.944219E2,5.330929E2,1.4918897E4,3.4235312E3,0E0,0E0,0E0,0E0,0E0,0E0,0E0,0E0],"parents":[2147483647,0,0,1,1,2,2,3,3,4,4,5,5,6,6],"right_children":[2,4,6,8,10,12,14,-1,-1,-1,-1,-1,-1,-1,-1],"split_conditions":[6.1282585E1,7.38E1,6.911765E-1,8E-1,5.4166668E1,5.0929834E2,3.1E-1,-7.852126E-2,2.43665E-2,-6.294593E-2,-8.839063E-3,-5.0921455E-2,5.8815153E-3,-4.909633E-2,2.2010434E-2],"split_indices":[35,16,43,30,44,42,8,0,0,0,0,0,0,0,0],"split_type":[0,0,0,0,0,0,0,0,0,0,0,0,0,0,0],"sum_hessian":[2.0563672E5,1.3495638E5,7.068034E4,1.3455417E5,4.0219003E2,1.0186527E4,6.0493816E4,3.6065384E1,1.3451811E5,2.0512549E2,1.9706454E2,5.225485E3,4.961042E3,6.0119008E4,3.7480862E2],"tree_param":{"num_deleted":"0","num_feature":"45","num_nodes":"15","size_leaf_vector":"1"}},{"base_weights":[1.6924558E-2,1.0287082E0,-1.8662742E0,1.0365598E0,-1.4967347E0,-1.8965596E0,9.935816E-1,-7.468954E-2,2.4341324E-2,-4.877637E-2,1.2835675E-2,-4.574742E-2,-5.6578373E-3,-4.6651002E-2,2.4754997E-2],"categories":[],"categories_nodes":[],"categories_segments":[],"categories_sizes":[],"default_left":[0,0,0,0,0,0,0,0,0,0,0,0,0,0,0],"id":24,"left_children":[1,3,5,7,9,11,13,-1,-1,-1,-1,-1,-1,-1,-1],"loss_changes":[3.863875E5,2.6154844E3,6.138828E3,5.2484375E2,4.8706372E2,6.192125E3,1.3585992E2,0E0,0E0,0E0,0E0,0E0,0E0,0E0,0E0],"parents":[2147483647,0,0,1,1,2,2,3,3,4,4,5,5,6,6],"right_children":[2,4,6,8,10,12,14,-1,-1,-1,-1,-1,-1,-1,-1],"split_conditions":[6.1282585E1,7.38E1,5.4E-1,5E-1,7.6577126E1,1.1E-1,5.607646E-1,-7.468954E-2,2.4341324E-2,-4.877637E-2,1.2835675E-2,-4.574742E-2,-5.6578373E-3,-4.6651002E-2,2.4754997E-2],"split_indices":[35,16,28,30,3,15,3,0,0,0,0,0,0,0,0],"split_type":[0,0,0,0,0,0,0,0,0,0,0,0,0,0,0],"sum_hessian":[2.027868E5,1.3191388E5,7.087293E4,1.315052E5,4.0866284E2,7.013043E4,7.4250165E2,2.9408445E1,1.314758E5,3.182316E2,9.043125E1,6.794072E4,2.1897068E3,1.4861903E1,7.276398E2],"tree_param":{"num_deleted":"0","num_feature":"45","num_nodes":"15","size_leaf_vector":"1"}},{"base_weights":[1.6166307E-2,1.0275253E0,-1.813461E0,-2.251949E0,1.0318967E0,-9.6777725E-1,-1.9738275E0,-5.9036672E-2,5.7140645E-4,2.4287919E-2,-7.346986E-2,-5.4677684E-2,-1.0017972E-3,-4.6950158E-2,-6.4595E-3],"categories":[],"categories_nodes":[],"categories_segments":[],"categories_sizes":[],"default_left":[0,0,0,0,0,0,0,0,0,0,0,0,0,0,0],"id":25,"left_children":[1,3,5,7,9,11,13,-1,-1,-1,-1,-1,-1,-1,-1],"loss_changes":[3.706341E5,1.8487031E3,9.668797E3,1.04434204E2,1.787375E3,1.4328154E4,2.7825625E3,0E0,0E0,0E0,0E0,0E0,0E0,0E0,0E0],"parents":[2147483647,0,0,1,1,2,2,3,3,4,4,5,5,6,6],"right_children":[2,4,6,8,10,12,14,-1,-1,-1,-1,-1,-1,-1,-1],"split_conditions":[6.1282585E1,9.2E-1,8E-1,1E-2,8.6E-1,6.5E0,3.1E-1,-5.9036672E-2,5.7140645E-4,2.4287919E-2,-7.346986E-2,-5.4677684E-2,-1.0017972E-3,-4.6950158E-2,-6.4595E-3],"split_indices":[35,31,43,15,18,39,15,0,0,0,0,0,0,0,0],"split_type":[0,0,0,0,0,0,0,0,0,0,0,0,0,0,0],"sum_hessian":[2.0029855E5,1.289947E5,7.130385E4,1.7157315E2,1.28823125E5,1.1366451E4,5.9937402E4,1.5390463E2,1.7668524E1,1.2872015E5,1.029743E2,4.595758E3,6.7706934E3,5.8987523E4,9.498782E2],"tree_param":{"num_deleted":"0","num_feature":"45","num_nodes":"15","size_leaf_vector":"1"}},{"base_weights":[1.665035E-2,1.0263982E0,-1.7664365E0,1.0308125E0,-2.2270703E0,-1.816749E0,9.085417E-1,2.4264E-2,-6.8678275E-2,-5.820146E-2,2.9840746E-3,-4.346178E-2,1.4113599E-2,2.3649817E-2,-5.7193853E-2],"categories":[],"categories_nodes":[],"categories_segments":[],"categories_sizes":[],"default_left":[0,0,0,0,0,0,0,0,0,0,0,0,0,0,0],"id":26,"left_children":[1,3,5,7,9,11,13,-1,-1,-1,-1,-1,-1,-1,-1],"loss_changes":[3.555265E5,1.8100469E3,9.6088125E3,1.6929844E3,1.0303845E2,6.0564062E3,4.3807568E2,0E0,0E0,0E0,0E0,0E0,0E0,0E0,0E0],"parents":[2147483647,0,0,1,1,2,2,3,3,4,4,5,5,6,6],"right_children":[2,4,6,8,10,12,14,-1,-1,-1,-1,-1,-1,-1,-1],"split_conditions":[6.1282585E1,1E-1,2.1E-1,7E-1,1E-2,7.516674E3,1.694615E8,2.4264E-2,-6.8678275E-2,-5.820146E-2,2.9840746E-3,-4.346178E-2,1.4113599E-2,2.3649817E-2,-5.7193853E-2],"split_indices":[35,27,7,18,15,3,38,0,0,0,0,0,0,0,0],"split_type":[0,0,0,0,0,0,0,0,0,0,0,0,0,0,0],"sum_hessian":[1.9746356E5,1.2607089E5,7.139268E4,1.2590022E5,1.706748E2,7.007484E4,1.3178309E3,1.2579231E5,1.0790672E2,1.5425453E2,1.6420267E1,6.9054625E4,1.0202177E3,1.2799187E3,3.7912186E1],"tree_param":{"num_deleted":"0","num_feature":"45","num_nodes":"15","size_leaf_vector":"1"}},{"base_weights":[1.6065499E-2,1.019876E0,-1.7304128E0,1.0270112E0,-2.0941858E0,-1.7752076E0,8.882373E-1,2.4188008E-2,-4.291175E-2,-5.095071E-2,-0E0,-4.2395633E-2,1.6363764E-2,2.3127098E-2,-5.595787E-2],"categories":[],"categories_nodes":[],"categories_segments":[],"categories_sizes":[],"default_left":[0,0,0,0,0,0,0,0,0,0,0,0,0,0,0],"id":27,"left_children":[1,3,5,7,9,11,13,-1,-1,-1,-1,-1,-1,-1,-1],"loss_changes":[3.4199103E5,2.7519297E3,8.352203E3,1.3979453E3,4.5676758E1,5.510703E3,3.8151508E2,0E0,0E0,0E0,0E0,0E0,0E0,0E0,0E0],"parents":[2147483647,0,0,1,1,2,2,3,3,4,4,5,5,6,6],"right_children":[2,4,6,8,10,12,14,-1,-1,-1,-1,-1,-1,-1,-1],"split_conditions":[6.146E1,2E-1,2.1E-1,6E1,1E-2,9.851648E3,1.694615E8,2.4188008E-2,-4.291175E-2,-5.095071E-2,-0E0,-4.2395633E-2,1.6363764E-2,2.3127098E-2,-5.595787E-2],"split_indices":[37,27,7,33,15,3,38,0,0,0,0,0,0,0,0],"split_type":[0,0,0,0,0,0,0,0,0,0,0,0,0,0,0],"sum_hessian":[1.9507438E5,1.23875586E5,7.119879E4,1.23592555E5,2.8303085E2,7.0001516E4,1.1972726E3,1.2342153E5,1.7102426E2,2.7287512E2,1.0155735E1,6.9111945E4,8.895686E2,1.1627772E3,3.4495262E1],"tree_param":{"num_deleted":"0","num_feature":"45","num_nodes":"15","size_leaf_vector":"1"}},{"base_weights":[1.6310507E-2,1.0242771E0,-1.6799784E0,1.0325842E0,-1.3784156E0,-8.6563873E-1,-1.8364413E0,2.425529E-2,-6.006935E-2,-5.4593474E-2,-8.630316E-3,-5.0519004E-2,8.992199E-5,-4.3573447E-2,4.587113E-3],"categories":[],"categories_nodes":[],"categories_segments":[],"categories_sizes":[],"default_left":[0,0,0,0,0,0,0,0,0,0,0,0,0,0,0],"id":28,"left_children":[1,3,5,7,9,11,13,-1,-1,-1,-1,-1,-1,-1,-1],"loss_changes":[3.2869334E5,2.406664E3,9.128484E3,5.416953E2,3.968022E2,1.2930874E4,2.5414531E3,0E0,0E0,0E0,0E0,0E0,0E0,0E0,0E0],"parents":[2147483647,0,0,1,1,2,2,3,3,4,4,5,5,6,6],"right_children":[2,4,6,8,10,12,14,-1,-1,-1,-1,-1,-1,-1,-1],"split_conditions":[6.1282585E1,7.38E1,8E-1,2E-1,6.5E0,6.5E0,6.1E-1,2.425529E-2,-6.006935E-2,-5.4593474E-2,-8.630316E-3,-5.0519004E-2,8.992199E-5,-4.3573447E-2,4.587113E-3],"split_indices":[35,16,43,27,39,39,15,0,0,0,0,0,0,0,0],"split_type":[0,0,0,0,0,0,0,0,0,0,0,0,0,0,0],"sum_hessian":[1.9224072E5,1.2058634E5,7.165438E4,1.20171055E5,4.1528415E2,1.154892E4,6.010546E4,1.2012919E5,4.1870056E1,2.1397449E2,2.0130966E2,4.6552495E3,6.893671E3,5.9496586E4,6.088754E2],"tree_param":{"num_deleted":"0","num_feature":"45","num_nodes":"15","size_leaf_vector":"1"}},{"base_weights":[1.6913671E-2,1.0232967E0,-1.640305E0,1.0317577E0,-1.3432617E0,-8.3726895E-1,-1.793907E0,2.4218405E-2,-2.1421872E-1,-4.1074283E-2,2.3261363E-2,-4.8926607E-2,9.031294E-5,-4.2697538E-2,-4.6225484E-3],"categories":[],"categories_nodes":[],"categories_segments":[],"categories_sizes":[],"default_left":[0,0,0,0,0,0,0,0,0,0,0,0,0,0,0],"id":29,"left_children":[1,3,5,7,9,11,13,-1,-1,-1,-1,-1,-1,-1,-1],"loss_changes":[3.1601366E5,2.3604062E3,8.829328E3,6.0565625E2,3.9970447E2,1.2069279E4,2.4943906E3,0E0,0E0,0E0,0E0,0E0,0E0,0E0,0E0],"parents":[2147483647,0,0,1,1,2,2,3,3,4,4,5,5,6,6],"right_children":[2,4,6,8,10,12,14,-1,-1,-1,-1,-1,-1,-1,-1],"split_conditions":[6.1282585E1,7.38E1,8E-1,3E-1,1.0870827E2,5.4166668E1,3.1E-1,2.4218405E-2,-2.1421872E-1,-4.1074283E-2,2.3261363E-2,-4.8926607E-2,9.031294E-5,-4.2697538E-2,-4.6225484E-3],"split_indices":[35,16,43,13,3,44,15,0,0,0,0,0,0,0,0],"split_type":[0,0,0,0,0,0,0,0,0,0,0,0,0,0,0],"sum_hessian":[1.8947989E5,1.1788928E5,7.159061E4,1.174695E5,4.1978207E2,1.1495398E4,6.009521E4,1.1746365E5,5.8536425E0,3.575795E2,6.2202583E1,4.628169E3,6.867229E3,5.9132047E4,9.631651E2],"tree_param":{"num_deleted":"0","num_feature":"45","num_nodes":"15","size_leaf_vector":"1"}},{"base_weights":[1.6786732E-2,1.0223598E0,-1.6025262E0,-1.9922098E0,1.0269523E0,-1.6477972E0,9.0897745E-1,-5.1424652E-2,-1.37584405E-2,2.4178265E-2,-6.396947E-2,-3.9381735E-2,2.2165565E-2,2.3549525E-2,-5.0915096E-2],"categories":[],"categories_nodes":[],"categories_segments":[],"categories_sizes":[],"default_left":[0,0,0,0,0,0,0,0,0,0,0,0,0,0,0],"id":30,"left_children":[1,3,5,7,9,11,13,-1,-1,-1,-1,-1,-1,-1,-1],"loss_changes":[3.0440403E5,1.5961641E3,8.1429375E3,4.788629E1,1.5573359E3,5.614422E3,3.6947107E2,0E0,0E0,0E0,0E0,0E0,0E0,0E0,0E0],"parents":[2147483647,0,0,1,1,2,2,3,3,4,4,5,5,6,6],"right_children":[2,4,6,8,10,12,14,-1,-1,-1,-1,-1,-1,-1,-1],"split_conditions":[6.1282585E1,9.2E-1,2.1E-1,3.2660205E0,8E-1,4.3E-1,1.694615E8,-5.1424652E-2,-1.37584405E-2,2.4178265E-2,-6.396947E-2,-3.9381735E-2,2.2165565E-2,2.3549525E-2,-5.0915096E-2],"split_indices":[35,30,7,3,18,28,38,0,0,0,0,0,0,0,0],"split_type":[0,0,0,0,0,0,0,0,0,0,0,0,0,0,0],"sum_hessian":[1.8694178E5,1.1532605E5,7.161574E4,1.7526779E2,1.1515078E5,7.0347875E4,1.2678655E3,1.531745E2,2.20933E1,1.1504042E5,1.1035942E2,6.95226E4,8.2527155E2,1.2301534E3,3.7712067E1],"tree_param":{"num_deleted":"0","num_feature":"45","num_nodes":"15","size_leaf_vector":"1"}},{"base_weights":[1.8176373E-2,1.0216662E0,-1.5668082E0,1.0252799E0,-2.7052612E0,-7.822515E-1,-1.7192737E0,2.4160054E-2,-4.4709146E-2,-1.0778377E-1,-5.7800766E-2,4.7959667E-3,-4.2297438E-2,-4.0572163E-2,2.093864E-2],"categories":[],"categories_nodes":[],"categories_segments":[],"categories_sizes":[],"default_left":[0,0,0,0,0,0,0,0,0,0,0,0,0,0,0],"id":31,"left_children":[1,3,5,7,9,11,13,-1,-1,-1,-1,-1,-1,-1,-1],"loss_changes":[2.928104E5,1.5174062E3,8.535969E3,1.485375E3,4.643152E1,1.1695415E4,1.5682031E3,0E0,0E0,0E0,0E0,0E0,0E0,0E0,0E0],"parents":[2147483647,0,0,1,1,2,2,3,3,4,4,5,5,6,6],"right_children":[2,4,6,8,10,12,14,-1,-1,-1,-1,-1,-1,-1,-1],"split_conditions":[6.1282585E1,8E-1,8E-1,1E-1,7.55E3,1E0,4.1E-1,2.4160054E-2,-4.4709146E-2,-1.0778377E-1,-5.7800766E-2,4.7959667E-3,-4.2297438E-2,-4.0572163E-2,2.093864E-2],"split_indices":[35,18,43,27,0,10,7,0,0,0,0,0,0,0,0],"split_type":[0,0,0,0,0,0,0,0,0,0,0,0,0,0,0],"sum_hessian":[1.840979E5,1.1272773E5,7.137019E4,1.1261866E5,1.0906807E2,1.1613351E4,5.975684E4,1.12446125E5,1.7253333E2,1.2145286E1,9.692278E1,5.9046035E3,5.7087476E3,5.952806E4,2.2878058E2],"tree_param":{"num_deleted":"0","num_feature":"45","num_nodes":"15","size_leaf_vector":"1"}},{"base_weights":[1.5407558E-2,1.0144918E0,-1.5473502E0,1.029018E0,-1.4720623E0,-7.8482085E-1,-1.695783E0,2.417971E-2,-4.677035E-2,-4.191971E-2,1.1239792E-2,-4.6000015E-2,5.810913E-4,-4.0025823E-2,2.2640549E-2],"categories":[],"categories_nodes":[],"categories_segments":[],"categories_sizes":[],"default_left":[0,0,0,0,0,0,0,0,0,0,0,0,0,0,0],"id":32,"left_children":[1,3,5,7,9,11,13,-1,-1,-1,-1,-1,-1,-1,-1],"loss_changes":[2.833943E5,3.9991562E3,8.010703E3,5.321719E2,3.9536047E2,1.0981178E4,1.6162188E3,0E0,0E0,0E0,0E0,0E0,0E0,0E0,0E0],"parents":[2147483647,0,0,1,1,2,2,3,3,4,4,5,5,6,6],"right_children":[2,4,6,8,10,12,14,-1,-1,-1,-1,-1,-1,-1,-1],"split_conditions":[6.146E1,7.38E1,8E-1,3E-1,7.1841805E1,6.5E0,3.4E-1,2.417971E-2,-4.677035E-2,-4.191971E-2,1.1239792E-2,-4.6000015E-2,5.810913E-4,-4.0025823E-2,2.2640549E-2],"split_indices":[37,16,43,27,3,39,8,0,0,0,0,0,0,0,0],"split_type":[0,0,0,0,0,0,0,0,0,0,0,0,0,0,0],"sum_hessian":[1.8150883E5,1.10722984E5,7.078584E4,1.100801E5,6.428904E2,1.153442E4,5.925142E4,1.10021984E5,5.8114094E1,5.538099E2,8.908047E1,4.703546E3,6.830874E3,5.902424E4,2.2718187E2],"tree_param":{"num_deleted":"0","num_feature":"45","num_nodes":"15","size_leaf_vector":"1"}},{"base_weights":[1.6078956E-2,1.0135462E0,-1.5155493E0,1.0280232E0,-1.4327126E0,-7.650153E-1,-1.6624141E0,2.4156416E-2,-4.7004197E-2,-3.9140515E-2,2.2255914E-2,8.047276E-3,-3.747653E-2,-3.9229587E-2,2.2477983E-2],"categories":[],"categories_nodes":[],"categories_segments":[],"categories_sizes":[],"default_left":[0,0,0,0,0,0,0,0,0,0,0,0,0,0,0],"id":33,"left_children":[1,3,5,7,9,11,13,-1,-1,-1,-1,-1,-1,-1,-1],"loss_changes":[2.7318756E5,3.8349375E3,7.7725938E3,5.226328E2,3.5765503E2,1.0645701E4,1.4965312E3,0E0,0E0,0E0,0E0,0E0,0E0,0E0,0E0],"parents":[2147483647,0,0,1,1,2,2,3,3,4,4,5,5,6,6],"right_children":[2,4,6,8,10,12,14,-1,-1,-1,-1,-1,-1,-1,-1],"split_conditions":[6.146E1,7.38E1,8E-1,3E-1,1.0870827E2,7E-1,3.1E-1,2.4156416E-2,-4.7004197E-2,-3.9140515E-2,2.2255914E-2,8.047276E-3,-3.747653E-2,-3.9229587E-2,2.2477983E-2],"split_indices":[37,16,43,27,3,10,8,0,0,0,0,0,0,0,0],"split_type":[0,0,0,0,0,0,0,0,0,0,0,0,0,0,0],"sum_hessian":[1.788172E5,1.08292445E5,7.052475E4,1.0765553E5,6.369147E2,1.1542333E4,5.8982418E4,1.07598805E5,5.673307E1,5.7975775E2,5.7156906E1,4.951044E3,6.591289E3,5.876552E4,2.1690038E2],"tree_param":{"num_deleted":"0","num_feature":"45","num_nodes":"15","size_leaf_vector":"1"}},{"base_weights":[1.7685838E-2,1.0127584E0,-1.4844563E0,1.0272069E0,-1.384118E0,-7.493482E-1,-1.6290705E0,2.4138227E-2,-4.872954E-2,-3.939086E-2,1.1161284E-2,-4.426279E-2,8.581306E-4,-3.844479E-2,2.2387495E-2],"categories":[],"categories_nodes":[],"categories_segments":[],"categories_sizes":[],"default_left":[0,0,0,0,0,0,0,0,0,0,0,0,0,0,0],"id":34,"left_children":[1,3,5,7,9,11,13,-1,-1,-1,-1,-1,-1,-1,-1],"loss_changes":[2.6311062E5,3.6667344E3,7.4553594E3,5.3658594E2,3.4837976E2,1.0307197E4,1.4497812E3,0E0,0E0,0E0,0E0,0E0,0E0,0E0,0E0],"parents":[2147483647,0,0,1,1,2,2,3,3,4,4,5,5,6,6],"right_children":[2,4,6,8,10,12,14,-1,-1,-1,-1,-1,-1,-1,-1],"split_conditions":[6.146E1,7.38E1,8E-1,1.694615E8,7.1841805E1,6.5E0,3.4E-1,2.4138227E-2,-4.872954E-2,-3.939086E-2,1.1161284E-2,-4.426279E-2,8.581306E-4,-3.844479E-2,2.2387495E-2],"split_indices":[37,16,43,38,4,39,8,0,0,0,0,0,0,0,0],"split_type":[0,0,0,0,0,0,0,0,0,0,0,0,0,0,0],"sum_hessian":[1.7602445E5,1.0588366E5,7.01408E4,1.0524941E5,6.3425476E2,1.1530717E4,5.861008E4,1.0519385E5,5.555371E1,5.4768207E2,8.657267E1,4.71232E3,6.818397E3,5.8393867E4,2.1621211E2],"tree_param":{"num_deleted":"0","num_feature":"45","num_nodes":"15","size_leaf_vector":"1"}},{"base_weights":[1.7274793E-2,1.0118849E0,-1.45673E0,1.0263357E0,-1.3375064E0,-7.382156E-1,-1.5989306E0,-4.355759E-2,2.4121216E-2,-3.6668915E-2,2.2887535E-2,-4.323469E-2,7.853241E-4,-3.8125966E-2,-1.6916778E-2],"categories":[],"categories_nodes":[],"categories_segments":[],"categories_sizes":[],"default_left":[0,0,0,0,0,0,0,0,0,0,0,0,0,0,0],"id":35,"left_children":[1,3,5,7,9,11,13,-1,-1,-1,-1,-1,-1,-1,-1],"loss_changes":[2.542403E5,3.515336E3,7.13775E3,5.306719E2,3.3026685E2,9.840897E3,1.3365156E3,0E0,0E0,0E0,0E0,0E0,0E0,0E0,0E0],"parents":[2147483647,0,0,1,1,2,2,3,3,4,4,5,5,6,6],"right_children":[2,4,6,8,10,12,14,-1,-1,-1,-1,-1,-1,-1,-1],"split_conditions":[6.146E1,7.38E1,8E-1,8.6E-1,2.1E-1,5.4166668E1,1E-1,-4.355759E-2,2.4121216E-2,-3.6668915E-2,2.2887535E-2,-4.323469E-2,7.853241E-4,-3.8125966E-2,-1.6916778E-2],"split_indices":[37,16,43,30,7,44,15,0,0,0,0,0,0,0,0],"split_type":[0,0,0,0,0,0,0,0,0,0,0,0,0,0,0],"sum_hessian":[1.734175E5,1.03547414E5,6.9870086E4,1.0291461E5,6.3281244E2,1.1543938E4,5.8326145E4,6.3692535E1,1.02850914E5,5.767985E2,5.6013885E1,4.7481226E3,6.7958164E3,5.664014E4,1.6860066E3],"tree_param":{"num_deleted":"0","num_feature":"45","num_nodes":"15","size_leaf_vector":"1"}},{"base_weights":[1.8296557E-2,9.999118E-1,-1.4425737E0,1.0244783E0,-1.4382428E0,-1.4781158E0,8.8248384E-1,2.4056653E-2,-1.2660879E-1,-3.788536E-2,2.2223054E-2,-3.5329945E-2,1.4079E-2,2.2280116E-2,-6.539827E-2],"categories":[],"categories_nodes":[],"categories_segments":[],"categories_sizes":[],"default_left":[0,0,0,0,0,0,0,0,0,0,0,0,0,0,0],"id":36,"left_children":[1,3,5,7,9,11,13,-1,-1,-1,-1,-1,-1,-1,-1],"loss_changes":[2.44719E5,6.1134688E3,5.6678906E3,5.789844E2,4.2906104E2,3.8979844E3,2.5363373E2,0E0,0E0,0E0,0E0,0E0,0E0,0E0,0E0],"parents":[2147483647,0,0,1,1,2,2,3,3,4,4,5,5,6,6],"right_children":[2,4,6,8,10,12,14,-1,-1,-1,-1,-1,-1,-1,-1],"split_conditions":[1.1375574E1,7.38E1,2.1E-1,2E-1,1.1E-1,7.516674E3,2E-1,2.4056653E-2,-1.2660879E-1,-3.788536E-2,2.2223054E-2,-3.5329945E-2,1.4079E-2,2.2280116E-2,-6.539827E-2],"split_indices":[40,16,7,17,7,3,17,0,0,0,0,0,0,0,0],"split_type":[0,0,0,0,0,0,0,0,0,0,0,0,0,0,0],"sum_hessian":[1.7065345E5,1.0206941E5,6.8584055E4,1.01051414E5,1.0179882E3,6.7551625E4,1.0324261E3,1.010374E5,1.40167675E1,9.4802026E2,6.996799E1,6.666132E4,8.903046E2,1.01399725E3,1.8428902E1],"tree_param":{"num_deleted":"0","num_feature":"45","num_nodes":"15","size_leaf_vector":"1"}},{"base_weights":[1.636395E-2,1.0101146E0,-1.4043019E0,1.0249265E0,-1.2996951E0,-1.165574E0,-1.7208956E0,2.4089424E-2,-4.251561E-2,1.5378838E-2,-3.6492724E-2,-3.7493244E-2,1.7375052E-2,-4.0008605E-2,-4.7489606E-2],"categories":[],"categories_nodes":[],"categories_segments":[],"categories_sizes":[],"default_left":[0,0,0,0,0,0,0,0,0,0,0,0,0,0,0],"id":37,"left_children":[1,3,5,7,9,11,13,-1,-1,-1,-1,-1,-1,-1,-1],"loss_changes":[2.3751995E5,3.3867578E3,5.2322344E3,5.142344E2,3.1572998E2,3.2547953E4,1.3903125E2,0E0,0E0,0E0,0E0,0E0,0E0,0E0,0E0],"parents":[2147483647,0,0,1,1,2,2,3,3,4,4,5,5,6,6],"right_children":[2,4,6,8,10,12,14,-1,-1,-1,-1,-1,-1,-1,-1],"split_conditions":[6.146E1,7.38E1,1.694615E8,2E-1,2E-1,5.4166668E1,8.04E2,2.4089424E-2,-4.251561E-2,1.5378838E-2,-3.6492724E-2,-3.7493244E-2,1.7375052E-2,-4.0008605E-2,-4.7489606E-2],"split_indices":[37,16,38,27,10,44,33,0,0,0,0,0,0,0,0],"split_type":[0,0,0,0,0,0,0,0,0,0,0,0,0,0,0],"sum_hessian":[1.682407E5,9.899464E4,6.924606E4,9.836407E4,6.3056903E2,3.9478637E4,2.9767426E4,9.830035E4,6.372562E1,7.272598E1,5.578431E2,3.2177686E4,7.30095E3,2.8312852E4,1.4545748E3],"tree_param":{"num_deleted":"0","num_feature":"45","num_nodes":"15","size_leaf_vector":"1"}},{"base_weights":[1.5935164E-2,1.0090892E0,-1.3798436E0,1.0204899E0,-1.2070268E0,-6.737968E-1,-1.5209049E0,2.4033457E-2,-3.0890917E-2,-3.551274E-2,2.3041328E-2,5.0234785E-3,-3.7546538E-2,-3.5910986E-2,2.2223616E-2],"categories":[],"categories_nodes":[],"categories_segments":[],"categories_sizes":[],"default_left":[0,0,0,0,0,0,0,0,0,0,0,0,0,0,0],"id":38,"left_children":[1,3,5,7,9,11,13,-1,-1,-1,-1,-1,-1,-1,-1],"loss_changes":[2.295679E5,2.444539E3,6.8559062E3,8.7622656E2,3.325431E2,9.433107E3,1.3796875E3,0E0,0E0,0E0,0E0,0E0,0E0,0E0,0E0],"parents":[2147483647,0,0,1,1,2,2,3,3,4,4,5,5,6,6],"right_children":[2,4,6,8,10,12,14,-1,-1,-1,-1,-1,-1,-1,-1],"split_conditions":[6.146E1,1E-1,8E-1,1.737E2,4.9795685E1,1E0,3.1E-1,2.4033457E-2,-3.0890917E-2,-3.551274E-2,2.3041328E-2,5.0234785E-3,-3.7546538E-2,-3.5910986E-2,2.2223616E-2],"split_indices":[37,9,43,2,3,10,8,0,0,0,0,0,0,0,0],"split_type":[0,0,0,0,0,0,0,0,0,0,0,0,0,0,0],"sum_hessian":[1.6560683E5,9.6759086E4,6.884774E4,9.626408E4,4.9500946E2,1.1465155E4,5.7382586E4,9.610411E4,1.5996916E2,4.3437933E2,6.0630127E1,5.8544155E3,5.6107393E3,5.7157227E4,2.2535927E2],"tree_param":{"num_deleted":"0","num_feature":"45","num_nodes":"15","size_leaf_vector":"1"}},{"base_weights":[1.8199371E-2,1.0143163E0,-1.3483145E0,1.0238825E0,-1.09749E0,-6.523639E-1,-1.4869609E0,2.4055976E-2,-5.346396E-2,-4.940579E-2,-9.722343E-3,-3.6971882E-2,5.7968386E-3,-3.523958E-2,2.2989934E-2],"categories":[],"categories_nodes":[],"categories_segments":[],"categories_sizes":[],"default_left":[0,0,0,0,0,0,0,0,0,0,0,0,0,0,0],"id":39,"left_children":[1,3,5,7,9,11,13,-1,-1,-1,-1,-1,-1,-1,-1],"loss_changes":[2.2154166E5,1.9016797E3,6.6201094E3,4.520547E2,2.9104593E2,9.469724E3,2.1268828E3,0E0,0E0,0E0,0E0,0E0,0E0,0E0,0E0],"parents":[2147483647,0,0,1,1,2,2,3,3,4,4,5,5,6,6],"right_children":[2,4,6,8,10,12,14,-1,-1,-1,-1,-1,-1,-1,-1],"split_conditions":[6.1282585E1,7.38E1,8E-1,3E-1,2.7194314E0,1.438814E3,3.1E-1,2.4055976E-2,-5.346396E-2,-4.940579E-2,-9.722343E-3,-3.6971882E-2,5.7968386E-3,-3.523958E-2,2.2989934E-2],"split_indices":[35,16,43,27,3,42,8,0,0,0,0,0,0,0,0],"split_type":[0,0,0,0,0,0,0,0,0,0,0,0,0,0,0],"sum_hessian":[1.6275388E5,9.413485E4,6.8619016E4,9.371058E4,4.242712E2,1.1399807E4,5.721921E4,9.366924E4,4.13349E1,1.7106306E2,2.5320813E2,5.624947E3,5.7748604E3,5.687206E4,3.471503E2],"tree_param":{"num_deleted":"0","num_feature":"45","num_nodes":"15","size_leaf_vector":"1"}},{"base_weights":[1.5338117E-2,1.0073175E0,-1.3374633E0,1.0186476E0,-1.1851404E0,-5.8933336E-1,-1.4616704E0,2.399242E-2,-5.138296E-2,-3.4635857E-2,2.3492925E-2,-3.6481194E-2,1.274691E-2,-3.4588996E-2,2.4007553E-2],"categories":[],"categories_nodes":[],"categories_segments":[],"categories_sizes":[],"default_left":[0,0,0,0,0,0,0,0,0,0,0,0,0,0,0],"id":40,"left_children":[1,3,5,7,9,11,13,-1,-1,-1,-1,-1,-1,-1,-1],"loss_changes":[2.1519256E5,2.298125E3,6.303008E3,1.1773984E3,3.028902E2,1.0565631E4,1.8257031E3,0E0,0E0,0E0,0E0,0E0,0E0,0E0,0E0],"parents":[2147483647,0,0,1,1,2,2,3,3,4,4,5,5,6,6],"right_children":[2,4,6,8,10,12,14,-1,-1,-1,-1,-1,-1,-1,-1],"split_conditions":[6.146E1,1E-1,6E-1,6E-1,6.848347E1,1.438814E3,3.1E-1,2.399242E-2,-5.138296E-2,-3.4635857E-2,2.3492925E-2,-3.6481194E-2,1.274691E-2,-3.4588996E-2,2.4007553E-2],"split_indices":[37,9,43,18,3,42,8,0,0,0,0,0,0,0,0],"split_type":[0,0,0,0,0,0,0,0,0,0,0,0,0,0,0],"sum_hessian":[1.603581E5,9.2517445E4,6.784065E4,9.204201E4,4.754348E2,9.659983E3,5.8180664E4,9.192789E4,1.1411631E2,4.1975595E2,5.5678856E1,5.2147104E3,4.4452734E3,5.788672E4,2.9394272E2],"tree_param":{"num_deleted":"0","num_feature":"45","num_nodes":"15","size_leaf_vector":"1"}},{"base_weights":[1.5784664E-2,1.0064495E0,-1.3142414E0,1.0231239E0,-1.0522863E0,-6.4435935E-1,-1.4501605E0,-4.3871533E-2,2.404209E-2,1.9299317E-2,-3.474866E-2,-3.9759133E-2,1.9989228E-3,-3.4659516E-2,-1.3278996E-2],"categories":[],"categories_nodes":[],"categories_segments":[],"categories_sizes":[],"default_left":[0,0,0,0,0,0,0,0,0,0,0,0,0,0,0],"id":41,"left_children":[1,3,5,7,9,11,13,-1,-1,-1,-1,-1,-1,-1,-1],"loss_changes":[2.0796608E5,3.1052578E3,6.133711E3,4.225547E2,5.8443744E2,8.709712E3,1.3432188E3,0E0,0E0,0E0,0E0,0E0,0E0,0E0,0E0],"parents":[2147483647,0,0,1,1,2,2,3,3,4,4,5,5,6,6],"right_children":[2,4,6,8,10,12,14,-1,-1,-1,-1,-1,-1,-1,-1],"split_conditions":[6.146E1,3.29E1,8E-1,8E-1,2E-1,6.5E0,1E-1,-4.3871533E-2,2.404209E-2,1.9299317E-2,-3.474866E-2,-3.9759133E-2,1.9989228E-3,-3.4659516E-2,-1.3278996E-2],"split_indices":[37,16,43,30,10,39,15,0,0,0,0,0,0,0,0],"split_type":[0,0,0,0,0,0,0,0,0,0,0,0,0,0,0],"sum_hessian":[1.5783595E5,9.045858E4,6.737737E4,8.973204E4,7.2653986E2,1.1365515E4,5.601185E4,5.034051E1,8.9681695E4,1.3503464E2,5.915052E2,4.658944E3,6.706571E3,5.4343082E4,1.6687698E3],"tree_param":{"num_deleted":"0","num_feature":"45","num_nodes":"15","size_leaf_vector":"1"}},{"base_weights":[1.646418E-2,1.011744E0,-1.2876494E0,1.0226473E0,-8.4011275E-1,-6.182216E-1,-1.4227058E0,-5.5980746E-2,2.4022697E-2,1.9742602E-3,-4.4732697E-2,5.7282606E-3,-3.5806384E-2,-3.4196097E-2,-9.859934E-3],"categories":[],"categories_nodes":[],"categories_segments":[],"categories_sizes":[],"default_left":[0,0,0,0,0,0,0,0,0,0,0,0,0,0,0],"id":42,"left_children":[1,3,5,7,9,11,13,-1,-1,-1,-1,-1,-1,-1,-1],"loss_changes":[2.0130528E5,1.7761641E3,6.068414E3,3.806797E2,5.0815002E2,8.825566E3,1.9503125E3,0E0,0E0,0E0,0E0,0E0,0E0,0E0,0E0],"parents":[2147483647,0,0,1,1,2,2,3,3,4,4,5,5,6,6],"right_children":[2,4,6,8,10,12,14,-1,-1,-1,-1,-1,-1,-1,-1],"split_conditions":[6.1282585E1,3.29E1,8E-1,4E-1,6E-1,1E0,1E-1,-5.5980746E-2,2.4022697E-2,1.9742602E-3,-4.4732697E-2,5.7282606E-3,-3.5806384E-2,-3.4196097E-2,-9.859934E-3],"split_indices":[35,16,43,30,10,10,15,0,0,0,0,0,0,0,0],"split_type":[0,0,0,0,0,0,0,0,0,0,0,0,0,0,0],"sum_hessian":[1.5509394E5,8.7962586E4,6.713136E4,8.744797E4,5.146145E2,1.1270567E4,5.5860793E4,3.266602E1,8.7415305E4,2.7546008E2,2.391544E2,5.780124E3,5.490444E3,5.398385E4,1.8769388E3],"tree_param":{"num_deleted":"0","num_feature":"45","num_nodes":"15","size_leaf_vector":"1"}},{"base_weights":[1.650181E-2,1.0111191E0,-1.2671314E0,1.022165E0,-8.107829E-1,-6.0968596E-1,-1.4002055E0,2.4011904E-2,-5.2573096E-2,-4.389623E-2,2.329146E-3,-3.877411E-2,2.3235322E-3,-3.367648E-2,-9.326277E-3],"categories":[],"categories_nodes":[],"categories_segments":[],"categories_sizes":[],"default_left":[0,0,0,0,0,0,0,0,0,0,0,0,0,0,0],"id":43,"left_children":[1,3,5,7,9,11,13,-1,-1,-1,-1,-1,-1,-1,-1],"loss_changes":[1.9485453E5,1.7306172E3,5.8283984E3,3.624375E2,5.0058292E2,8.292155E3,1.9547422E3,0E0,0E0,0E0,0E0,0E0,0E0,0E0,0E0],"parents":[2147483647,0,0,1,1,2,2,3,3,4,4,5,5,6,6],"right_children":[2,4,6,8,10,12,14,-1,-1,-1,-1,-1,-1,-1,-1],"split_conditions":[6.1282585E1,3.29E1,8E-1,7E-1,6.5E0,6.5E0,1E-1,2.4011904E-2,-5.2573096E-2,-4.389623E-2,2.329146E-3,-3.877411E-2,2.3235322E-3,-3.367648E-2,-9.326277E-3],"split_indices":[35,16,43,27,39,39,15,0,0,0,0,0,0,0,0],"split_type":[0,0,0,0,0,0,0,0,0,0,0,0,0,0,0],"sum_hessian":[1.5262081E5,8.599126E4,6.662956E4,8.547331E4,5.1794543E2,1.1216847E4,5.5412715E4,8.5439375E4,3.3935226E1,2.3947473E2,2.7847073E2,4.538464E3,6.678383E3,5.353309E4,1.8796254E3],"tree_param":{"num_deleted":"0","num_feature":"45","num_nodes":"15","size_leaf_vector":"1"}},{"base_weights":[1.6340734E-2,1.0103803E0,-1.247047E0,1.0215013E0,-7.8589153E-1,-5.926331E-1,-1.3797756E0,2.3996927E-2,-4.9331184E-2,-4.2827353E-2,2.7693505E-3,5.596675E-3,-3.480501E-2,-2.8994963E-2,-3.61624E-2],"categories":[],"categories_nodes":[],"categories_segments":[],"categories_sizes":[],"default_left":[0,0,0,0,0,0,0,0,0,0,0,0,0,0,0],"id":44,"left_children":[1,3,5,7,9,11,13,-1,-1,-1,-1,-1,-1,-1,-1],"loss_changes":[1.887404E5,1.6803281E3,5.747242E3,3.460078E2,4.868816E2,8.263988E3,1.2781172E3,0E0,0E0,0E0,0E0,0E0,0E0,0E0,0E0],"parents":[2147483647,0,0,1,1,2,2,3,3,4,4,5,5,6,6],"right_children":[2,4,6,8,10,12,14,-1,-1,-1,-1,-1,-1,-1,-1],"split_conditions":[6.1282585E1,3.29E1,8E-1,5E-1,7.878725E7,1E0,1.694615E8,2.3996927E-2,-4.9331184E-2,-4.2827353E-2,2.7693505E-3,5.596675E-3,-3.480501E-2,-2.8994963E-2,-3.61624E-2],"split_indices":[35,16,43,27,38,10,38,0,0,0,0,0,0,0,0],"split_type":[0,0,0,0,0,0,0,0,0,0,0,0,0,0,0],"sum_hessian":[1.5028817E5,8.411022E4,6.617795E4,8.359294E4,5.172757E2,1.1159581E4,5.501837E4,8.355761E4,3.5334167E1,2.4083177E2,2.764439E2,5.772922E3,5.3866597E3,2.9101879E4,2.5916492E4],"tree_param":{"num_deleted":"0","num_feature":"45","num_nodes":"15","size_leaf_vector":"1"}},{"base_weights":[1.5593109E-2,9.915549E-1,-1.2479783E0,1.0197288E0,-1.107532E0,-1.0142618E0,-1.5522541E0,2.3974303E-2,-3.663083E-2,-3.3145644E-2,1.4461203E-2,-3.3399917E-2,1.9895041E-2,-4.426185E-2,-3.570569E-2],"categories":[],"categories_nodes":[],"categories_segments":[],"categories_sizes":[],"default_left":[0,0,0,0,0,0,0,0,0,0,0,0,0,0,0],"id":45,"left_children":[1,3,5,7,9,11,13,-1,-1,-1,-1,-1,-1,-1,-1],"loss_changes":[1.8225978E5,4.9314453E3,4.579047E3,4.531953E2,5.8141345E2,2.7769941E4,2.8239062E2,0E0,0E0,0E0,0E0,0E0,0E0,0E0,0E0],"parents":[2147483647,0,0,1,1,2,2,3,3,4,4,5,5,6,6],"right_children":[2,4,6,8,10,12,14,-1,-1,-1,-1,-1,-1,-1,-1],"split_conditions":[1.1375574E1,3.29E1,1.694615E8,1E-1,7.6577126E1,6.5E0,7.1E-1,2.3974303E-2,-3.663083E-2,-3.3145644E-2,1.4461203E-2,-3.3399917E-2,1.9895041E-2,-4.426185E-2,-3.570569E-2],"split_indices":[40,16,38,27,3,39,43,0,0,0,0,0,0,0,0],"split_type":[0,0,0,0,0,0,0,0,0,0,0,0,0,0,0],"sum_hessian":[1.4779458E5,8.338769E4,6.4406902E4,8.228351E4,1.104178E3,3.6427902E4,2.7978998E4,8.221568E4,6.782618E1,9.3831036E2,1.6586765E2,2.9863656E4,6.564246E3,2.3279075E3,2.5651092E4],"tree_param":{"num_deleted":"0","num_feature":"45","num_nodes":"15","size_leaf_vector":"1"}},{"base_weights":[1.7329626E-2,1.0026875E0,-1.2211231E0,1.0200162E0,-9.5633274E-1,-5.8670074E-1,-1.3518723E0,-3.6734976E-2,2.397172E-2,1.8730076E-2,-3.1704005E-2,-3.719849E-2,2.3539274E-3,-3.2385264E-2,-1.0971966E-2],"categories":[],"categories_nodes":[],"categories_segments":[],"categories_sizes":[],"default_left":[0,0,0,0,0,0,0,0,0,0,0,0,0,0,0],"id":46,"left_children":[1,3,5,7,9,11,13,-1,-1,-1,-1,-1,-1,-1,-1],"loss_changes":[1.7703881E5,2.7427656E3,5.3313047E3,3.595703E2,4.910832E2,7.5387744E3,1.3419453E3,0E0,0E0,0E0,0E0,0E0,0E0,0E0,0E0],"parents":[2147483647,0,0,1,1,2,2,3,3,4,4,5,5,6,6],"right_children":[2,4,6,8,10,12,14,-1,-1,-1,-1,-1,-1,-1,-1],"split_conditions":[6.146E1,3.29E1,8E-1,8.6E-1,2E-1,6.5E0,1E-1,-3.6734976E-2,2.397172E-2,1.8730076E-2,-3.1704005E-2,-3.719849E-2,2.3539274E-3,-3.2385264E-2,-1.0971966E-2],"split_indices":[37,16,43,31,10,39,15,0,0,0,0,0,0,0,0],"split_type":[0,0,0,0,0,0,0,0,0,0,0,0,0,0,0],"sum_hessian":[1.4507594E5,8.079382E4,6.428211E4,8.008566E4,7.081644E2,1.0984868E4,5.3297242E4,5.3596054E1,8.003206E4,1.2990388E2,5.7826056E2,4.476921E3,6.5079473E3,5.163281E4,1.6644337E3],"tree_param":{"num_deleted":"0","num_feature":"45","num_nodes":"15","size_leaf_vector":"1"}},{"base_weights":[1.5924463E-2,1.0078773E0,-1.1960319E0,1.019806E0,-7.667978E-1,-1.2370697E0,9.195245E-1,2.3937898E-2,-1.6649377E-1,3.0745128E-3,-4.0140036E-2,-2.3949955E-2,-3.5638534E-2,2.3617791E-2,-4.0556945E-2],"categories":[],"categories_nodes":[],"categories_segments":[],"categories_sizes":[],"default_left":[0,0,0,0,0,0,0,0,0,0,0,0,0,0,0],"id":47,"left_children":[1,3,5,7,9,11,13,-1,-1,-1,-1,-1,-1,-1,-1],"loss_changes":[1.7164916E5,1.6622656E3,5.5793125E3,3.174375E2,4.448898E2,3.8425156E3,2.8181323E2,0E0,0E0,0E0,0E0,0E0,0E0,0E0,0E0],"parents":[2147483647,0,0,1,1,2,2,3,3,4,4,5,5,6,6],"right_children":[2,4,6,8,10,12,14,-1,-1,-1,-1,-1,-1,-1,-1],"split_conditions":[6.1282585E1,3.29E1,2.1E-1,2E-1,6E-1,1.694615E8,1.694615E8,2.3937898E-2,-1.6649377E-1,3.0745128E-3,-4.0140036E-2,-2.3949955E-2,-3.5638534E-2,2.3617791E-2,-4.0556945E-2],"split_indices":[35,16,7,17,10,38,38,0,0,0,0,0,0,0,0],"split_type":[0,0,0,0,0,0,0,0,0,0,0,0,0,0,0],"sum_hessian":[1.4277884E5,7.851602E4,6.4262816E4,7.799206E4,5.239658E2,6.304018E4,1.2226375E3,7.798726E4,4.8028173E0,2.683067E2,2.5565913E2,3.5678848E4,2.736133E4,1.1838593E3,3.8778183E1],"tree_param":{"num_deleted":"0","num_feature":"45","num_nodes":"15","size_leaf_vector":"1"}},{"base_weights":[1.6328927E-2,1.0009955E0,-1.1852062E0,1.0188197E0,-9.11695E-1,-5.513594E-1,-1.3183335E0,-3.2180287E-2,2.395179E-2,-2.663509E-2,2.2666378E-2,-3.2918163E-2,6.19515E-3,-2.7814085E-2,-3.3901766E-2],"categories":[],"categories_nodes":[],"categories_segments":[],"categories_sizes":[],"default_left":[0,0,0,0,0,0,0,0,0,0,0,0,0,0,0],"id":48,"left_children":[1,3,5,7,9,11,13,-1,-1,-1,-1,-1,-1,-1,-1],"loss_changes":[1.6618986E5,2.6320234E3,5.3377344E3,3.8096094E2,2.9923853E2,7.6277324E3,8.7833594E2,0E0,0E0,0E0,0E0,0E0,0E0,0E0,0E0],"parents":[2147483647,0,0,1,1,2,2,3,3,4,4,5,5,6,6],"right_children":[2,4,6,8,10,12,14,-1,-1,-1,-1,-1,-1,-1,-1],"split_conditions":[6.146E1,3.29E1,8E-1,9.2E-1,2.1E-1,1.438814E3,7.639E2,-3.2180287E-2,2.395179E-2,-2.663509E-2,2.2666378E-2,-3.2918163E-2,6.19515E-3,-2.7814085E-2,-3.3901766E-2],"split_indices":[37,16,43,30,7,42,16,0,0,0,0,0,0,0,0],"split_type":[0,0,0,0,0,0,0,0,0,0,0,0,0,0,0],"sum_hessian":[1.4046855E5,7.720165E4,6.3266906E4,7.64891E4,7.1254834E2,1.0982153E4,5.2284754E4,6.644152E1,7.642266E4,6.3696075E2,7.558757E1,5.371784E3,5.610369E3,2.5526191E4,2.6758564E4],"tree_param":{"num_deleted":"0","num_feature":"45","num_nodes":"15","size_leaf_vector":"1"}},{"base_weights":[1.5666695E-2,1.0007553E0,-1.1689628E0,1.0127486E0,-1.0547384E0,-5.390446E-1,-1.3017356E0,2.3862947E-2,-4.749723E-2,-3.0627362E-2,2.3732914E-2,-3.2460045E-2,6.1335955E-3,-3.1228915E-2,-9.78462E-3],"categories":[],"categories_nodes":[],"categories_segments":[],"categories_sizes":[],"default_left":[0,0,0,0,0,0,0,0,0,0,0,0,0,0,0],"id":49,"left_children":[1,3,5,7,9,11,13,-1,-1,-1,-1,-1,-1,-1,-1],"loss_changes":[1.6134881E5,1.8609844E3,5.249289E3,9.9539844E2,2.268724E2,7.388381E3,1.3450625E3,0E0,0E0,0E0,0E0,0E0,0E0,0E0,0E0],"parents":[2147483647,0,0,1,1,2,2,3,3,4,4,5,5,6,6],"right_children":[2,4,6,8,10,12,14,-1,-1,-1,-1,-1,-1,-1,-1],"split_conditions":[6.146E1,1E-1,8E-1,8.6E-1,9.6214676E1,1.438814E3,1E-1,2.3862947E-2,-4.749723E-2,-3.0627362E-2,2.3732914E-2,-3.2460045E-2,6.1335955E-3,-3.1228915E-2,-9.78462E-3],"split_indices":[37,9,43,18,3,42,15,0,0,0,0,0,0,0,0],"split_type":[0,0,0,0,0,0,0,0,0,0,0,0,0,0,0],"sum_hessian":[1.3826369E5,7.548986E4,6.2773824E4,7.505218E4,4.3768402E2,1.0928581E4,5.1845242E4,7.494453E4,1.0764436E2,3.905306E2,4.7153385E1,5.3183164E3,5.6102646E3,5.0180305E4,1.6649364E3],"tree_param":{"num_deleted":"0","num_feature":"45","num_nodes":"15","size_leaf_vector":"1"}},{"base_weights":[1.5673297E-2,9.991601E-1,-1.153358E0,1.0118709E0,-1.0677521E0,-5.305523E-1,-1.2856159E0,2.384784E-2,-2.7263196E-2,-3.0648997E-2,2.255501E-2,-3.56792E-2,3.1864485E-3,-3.0855004E-2,-9.5470045E-3],"categories":[],"categories_nodes":[],"categories_segments":[],"categories_sizes":[],"default_left":[0,0,0,0,0,0,0,0,0,0,0,0,0,0,0],"id":50,"left_children":[1,3,5,7,9,11,13,-1,-1,-1,-1,-1,-1,-1,-1],"loss_changes":[1.5625155E5,1.9390859E3,5.1138984E3,7.339453E2,2.184732E2,7.1778867E3,1.3279688E3,0E0,0E0,0E0,0E0,0E0,0E0,0E0,0E0],"parents":[2147483647,0,0,1,1,2,2,3,3,4,4,5,5,6,6],"right_children":[2,4,6,8,10,12,14,-1,-1,-1,-1,-1,-1,-1,-1],"split_conditions":[6.146E1,1E-1,8E-1,1.737E2,4.9795685E1,6.5E0,1E-1,2.384784E-2,-2.7263196E-2,-3.0648997E-2,2.255501E-2,-3.56792E-2,3.1864485E-3,-3.0855004E-2,-9.5470045E-3],"split_indices":[37,9,43,2,3,39,15,0,0,0,0,0,0,0,0],"split_type":[0,0,0,0,0,0,0,0,0,0,0,0,0,0,0],"sum_hessian":[1.3590327E5,7.38092E4,6.209407E4,7.3358305E4,4.5089578E2,1.087711E4,5.1216957E4,7.320354E4,1.5477061E2,4.0366122E2,4.7234547E1,4.375662E3,6.501448E3,4.9551387E4,1.6655734E3],"tree_param":{"num_deleted":"0","num_feature":"45","num_nodes":"15","size_leaf_vector":"1"}},{"base_weights":[1.6464148E-2,9.859592E-1,-1.1498308E0,1.0103011E0,-1.0821702E0,-9.12918E-1,-1.4624788E0,2.3800045E-2,-4.7100544E-2,-2.9206607E-2,2.4526123E-2,-3.1117823E-2,2.1270925E-2,-4.2141683E-2,-3.3556253E-2],"categories":[],"categories_nodes":[],"categories_segments":[],"categories_sizes":[],"default_left":[0,0,0,0,0,0,0,0,0,0,0,0,0,0,0],"id":51,"left_children":[1,3,5,7,9,11,13,-1,-1,-1,-1,-1,-1,-1,-1],"loss_changes":[1.5094356E5,3.6697812E3,4.4872656E3,8.987031E2,2.9358362E2,2.593364E4,2.791953E2,0E0,0E0,0E0,0E0,0E0,0E0,0E0,0E0],"parents":[2147483647,0,0,1,1,2,2,3,3,4,4,5,5,6,6],"right_children":[2,4,6,8,10,12,14,-1,-1,-1,-1,-1,-1,-1,-1],"split_conditions":[1.1375574E1,1E-1,1.694615E8,9E-1,1.3327943E2,6.5E0,7.1E-1,2.3800045E-2,-4.7100544E-2,-2.9206607E-2,2.4526123E-2,-3.1117823E-2,2.1270925E-2,-4.2141683E-2,-3.3556253E-2],"split_indices":[40,9,38,18,4,39,43,0,0,0,0,0,0,0,0],"split_type":[0,0,0,0,0,0,0,0,0,0,0,0,0,0,0],"sum_hessian":[1.3349372E5,7.28974E4,6.059633E4,7.20496E4,8.4779474E2,3.4474426E4,2.6121902E4,7.1951164E4,9.843479E1,7.877697E2,6.0025036E1,2.8091855E4,6.38257E3,2.2972927E3,2.382461E4],"tree_param":{"num_deleted":"0","num_feature":"45","num_nodes":"15","size_leaf_vector":"1"}},{"base_weights":[1.6212247E-2,1.0044614E0,-1.1176833E0,1.0168548E0,-7.003866E-1,-5.0275385E-1,-1.248207E0,-3.6799353E-2,2.390029E-2,-3.8396854E-2,2.4455134E-3,-3.232873E-2,5.4698987E-3,-2.5816485E-2,-3.3226844E-2],"categories":[],"categories_nodes":[],"categories_segments":[],"categories_sizes":[],"default_left":[0,0,0,0,0,0,0,0,0,0,0,0,0,0,0],"id":52,"left_children":[1,3,5,7,9,11,13,-1,-1,-1,-1,-1,-1,-1,-1],"loss_changes":[1.470233E5,1.4813828E3,4.9031797E3,3.3339844E2,3.8164777E2,6.891163E3,1.2507109E3,0E0,0E0,0E0,0E0,0E0,0E0,0E0,0E0],"parents":[2147483647,0,0,1,1,2,2,3,3,4,4,5,5,6,6],"right_children":[2,4,6,8,10,12,14,-1,-1,-1,-1,-1,-1,-1,-1],"split_conditions":[6.1282585E1,3.29E1,8E-1,9.2E-1,5.4166668E1,5.0929834E2,1.694615E8,-3.6799353E-2,2.390029E-2,-3.8396854E-2,2.4455134E-3,-3.232873E-2,5.4698987E-3,-2.5816485E-2,-3.3226844E-2],"split_indices":[35,16,43,30,44,42,38,0,0,0,0,0,0,0,0],"split_type":[0,0,0,0,0,0,0,0,0,0,0,0,0,0,0],"sum_hessian":[1.3120394E5,7.010456E4,6.1099367E4,6.959889E4,5.0567435E2,1.0698711E4,5.0400656E4,4.9698505E1,6.954919E4,2.3399557E2,2.7167877E2,4.8871157E3,5.811595E3,2.6814049E4,2.3586605E4],"tree_param":{"num_deleted":"0","num_feature":"45","num_nodes":"15","size_leaf_vector":"1"}},{"base_weights":[1.6054794E-2,1.0043412E0,-1.1049241E0,1.0164851E0,-6.631764E-1,-8.64381E-1,-1.4336426E0,-4.8741236E-2,2.3880923E-2,-3.74735E-2,2.9990845E-3,-3.0512238E-2,2.0371748E-2,-3.318433E-2,-3.9627083E-2],"categories":[],"categories_nodes":[],"categories_segments":[],"categories_sizes":[],"default_left":[0,0,0,0,0,0,0,0,0,0,0,0,0,0,0],"id":53,"left_children":[1,3,5,7,9,11,13,-1,-1,-1,-1,-1,-1,-1,-1],"loss_changes":[1.4285467E5,1.3879141E3,4.776203E3,2.9389844E2,3.6656625E2,2.636627E4,1.23828125E2,0E0,0E0,0E0,0E0,0E0,0E0,0E0,0E0],"parents":[2147483647,0,0,1,1,2,2,3,3,4,4,5,5,6,6],"right_children":[2,4,6,8,10,12,14,-1,-1,-1,-1,-1,-1,-1,-1],"split_conditions":[6.1282585E1,3.29E1,1.694615E8,4E-1,6.5E0,6.5E0,2.1624E2,-4.8741236E-2,2.3880923E-2,-3.74735E-2,2.9990845E-3,-3.0512238E-2,2.0371748E-2,-3.318433E-2,-3.9627083E-2],"split_indices":[35,16,38,31,39,39,33,0,0,0,0,0,0,0,0],"split_type":[0,0,0,0,0,0,0,0,0,0,0,0,0,0,0],"sum_hessian":[1.2894792E5,6.8530195E4,6.0417727E4,6.803501E4,4.951882E2,3.4888883E4,2.5528844E4,3.058629E1,6.800442E4,2.2733423E2,2.6785397E2,2.7872998E4,7.015884E3,2.3744072E4,1.7847706E3],"tree_param":{"num_deleted":"0","num_feature":"45","num_nodes":"15","size_leaf_vector":"1"}},{"base_weights":[1.5088043E-2,9.9660695E-1,-1.0996668E0,1.0157596E0,-8.5091776E-1,-4.9922606E-1,-1.2296811E0,2.3879478E-2,-2.9123101E-2,1.8370107E-2,-2.837083E-2,-3.4091998E-2,3.3017977E-3,-2.957233E-2,-8.158586E-3],"categories":[],"categories_nodes":[],"categories_segments":[],"categories_sizes":[],"default_left":[0,0,0,0,0,0,0,0,0,0,0,0,0,0,0],"id":54,"left_children":[1,3,5,7,9,11,13,-1,-1,-1,-1,-1,-1,-1,-1],"loss_changes":[1.3869742E5,2.385375E3,4.6326016E3,3.1048438E2,4.05009E2,6.4499307E3,1.3240234E3,0E0,0E0,0E0,0E0,0E0,0E0,0E0,0E0],"parents":[2147483647,0,0,1,1,2,2,3,3,4,4,5,5,6,6],"right_children":[2,4,6,8,10,12,14,-1,-1,-1,-1,-1,-1,-1,-1],"split_conditions":[6.146E1,3.29E1,8E-1,1E-1,2E-1,6.5E0,1E-1,2.3879478E-2,-2.9123101E-2,1.8370107E-2,-2.837083E-2,-3.4091998E-2,3.3017977E-3,-2.957233E-2,-8.158586E-3],"split_indices":[37,16,43,27,10,39,15,0,0,0,0,0,0,0,0],"split_type":[0,0,0,0,0,0,0,0,0,0,0,0,0,0,0],"sum_hessian":[1.26762414E5,6.740984E4,5.9352566E4,6.671845E4,6.913893E2,1.0564856E4,4.878771E4,6.665776E4,6.0699257E1,1.2412101E2,5.672683E2,4.2422847E3,6.322572E3,4.714143E4,1.6462795E3],"tree_param":{"num_deleted":"0","num_feature":"45","num_nodes":"15","size_leaf_vector":"1"}},{"base_weights":[1.5480703E-2,1.0023977E0,-1.0782088E0,1.0152248E0,-6.423054E-1,-1.1183853E0,9.397609E-1,2.3831667E-2,-1.7869441E-1,-3.591603E-2,2.739942E-3,-2.9619286E-2,-1.7126089E-2,2.3279645E-2,-3.455538E-2],"categories":[],"categories_nodes":[],"categories_segments":[],"categories_sizes":[],"default_left":[0,0,0,0,0,0,0,0,0,0,0,0,0,0,0],"id":55,"left_children":[1,3,5,7,9,11,13,-1,-1,-1,-1,-1,-1,-1,-1],"loss_changes":[1.3447361E5,1.3817891E3,4.7912266E3,3.1064844E2,3.4230896E2,3.241789E3,1.4584521E2,0E0,0E0,0E0,0E0,0E0,0E0,0E0,0E0],"parents":[2147483647,0,0,1,1,2,2,3,3,4,4,5,5,6,6],"right_children":[2,4,6,8,10,12,14,-1,-1,-1,-1,-1,-1,-1,-1],"split_conditions":[6.1282585E1,3.29E1,2.1E-1,4E-1,5.4166668E1,5.363444E1,1E-1,2.3831667E-2,-1.7869441E-1,-3.591603E-2,2.739942E-3,-2.9619286E-2,-1.7126089E-2,2.3279645E-2,-3.455538E-2],"split_indices":[35,16,7,9,44,3,17,0,0,0,0,0,0,0,0],"split_type":[0,0,0,0,0,0,0,0,0,0,0,0,0,0,0],"sum_hessian":[1.2458408E5,6.548897E4,5.9095113E4,6.4982457E4,5.0651495E2,5.794176E4,1.1533499E3,6.49783E4,4.155195E0,2.3364377E2,2.728712E2,4.226276E4,1.5679E4,1.1289814E3,2.4368347E1],"tree_param":{"num_deleted":"0","num_feature":"45","num_nodes":"15","size_leaf_vector":"1"}},{"base_weights":[1.5290018E-2,1.0024005E0,-1.0634815E0,1.0148798E0,-6.067073E-1,-1.1029024E0,9.1901755E-1,-4.716234E-2,2.384687E-2,-2.4476629E-2,1.9925535E-2,-2.9307265E-2,-1.6735604E-2,2.3907723E-2,-1.87016E-2],"categories":[],"categories_nodes":[],"categories_segments":[],"categories_sizes":[],"default_left":[0,0,0,0,0,0,0,0,0,0,0,0,0,0,0],"id":56,"left_children":[1,3,5,7,9,11,13,-1,-1,-1,-1,-1,-1,-1,-1],"loss_changes":[1.3047632E5,1.2850039E3,4.5755547E3,2.9770703E2,3.1289368E2,3.2701719E3,1.9597162E2,0E0,0E0,0E0,0E0,0E0,0E0,0E0,0E0],"parents":[2147483647,0,0,1,1,2,2,3,3,4,4,5,5,6,6],"right_children":[2,4,6,8,10,12,14,-1,-1,-1,-1,-1,-1,-1,-1],"split_conditions":[6.1282585E1,3.29E1,2.1E-1,4E-1,9.238665E1,5.363444E1,1.202E2,-4.716234E-2,2.384687E-2,-2.4476629E-2,1.9925535E-2,-2.9307265E-2,-1.6735604E-2,2.3907723E-2,-1.87016E-2],"split_indices":[35,16,7,30,4,4,2,0,0,0,0,0,0,0,0],"split_type":[0,0,0,0,0,0,0,0,0,0,0,0,0,0,0],"sum_hessian":[1.2252834E5,6.398263E4,5.854572E4,6.3490527E4,4.9210217E2,5.74045E4,1.1412201E3,3.2408897E1,6.3458117E4,3.7883618E2,1.1326597E2,4.1733906E4,1.5670593E4,1.0786377E3,6.258238E1],"tree_param":{"num_deleted":"0","num_feature":"45","num_nodes":"15","size_leaf_vector":"1"}},{"base_weights":[1.6504336E-2,9.9513096E-1,-1.0552781E0,1.0081697E0,-9.862663E-1,-4.5766488E-1,-1.1881214E0,2.3755856E-2,-4.2487584E-2,-2.829419E-2,2.321561E-2,6.137952E-3,-2.9973388E-2,-2.813446E-2,2.5017777E-2],"categories":[],"categories_nodes":[],"categories_segments":[],"categories_sizes":[],"default_left":[0,0,0,0,0,0,0,0,0,0,0,0,0,0,0],"id":57,"left_children":[1,3,5,7,9,11,13,-1,-1,-1,-1,-1,-1,-1,-1],"loss_changes":[1.26278266E5,1.6258555E3,4.5610547E3,7.721836E2,1.7861258E2,6.1637856E3,1.1724531E3,0E0,0E0,0E0,0E0,0E0,0E0,0E0,0E0],"parents":[2147483647,0,0,1,1,2,2,3,3,4,4,5,5,6,6],"right_children":[2,4,6,8,10,12,14,-1,-1,-1,-1,-1,-1,-1,-1],"split_conditions":[6.146E1,1E-1,8E-1,8.6E-1,6.848347E1,1E0,3.1E-1,2.3755856E-2,-4.2487584E-2,-2.829419E-2,2.321561E-2,6.137952E-3,-2.9973388E-2,-2.813446E-2,2.5017777E-2],"split_indices":[37,9,43,18,4,10,8,0,0,0,0,0,0,0,0],"split_type":[0,0,0,0,0,0,0,0,0,0,0,0,0,0,0],"sum_hessian":[1.2039406E5,6.293218E4,5.7461883E4,6.2520992E4,4.11186E2,1.0450864E4,4.7011016E4,6.2424105E4,9.688985E1,3.7025018E2,4.0935806E1,5.566707E3,4.884157E3,4.6781684E4,2.2933278E2],"tree_param":{"num_deleted":"0","num_feature":"45","num_nodes":"15","size_leaf_vector":"1"}},{"base_weights":[1.5703546E-2,9.9392307E-1,-1.0443676E0,1.0138065E0,-8.117144E-1,-8.00708E-1,-1.3804357E0,2.3829732E-2,-3.7406404E-2,1.761349E-2,-2.7014207E-2,-2.8999452E-2,2.15671E-2,-3.954067E-2,-3.1642493E-2],"categories":[],"categories_nodes":[],"categories_segments":[],"categories_sizes":[],"default_left":[0,0,0,0,0,0,0,0,0,0,0,0,0,0,0],"id":58,"left_children":[1,3,5,7,9,11,13,-1,-1,-1,-1,-1,-1,-1,-1],"loss_changes":[1.2273209E5,2.2100195E3,4.6501836E3,3.006914E2,3.559219E2,2.4656156E4,2.2952344E2,0E0,0E0,0E0,0E0,0E0,0E0,0E0,0E0],"parents":[2147483647,0,0,1,1,2,2,3,3,4,4,5,5,6,6],"right_children":[2,4,6,8,10,12,14,-1,-1,-1,-1,-1,-1,-1,-1],"split_conditions":[6.146E1,3.29E1,1.694615E8,5E-1,2E-1,5.4166668E1,7.1E-1,2.3829732E-2,-3.7406404E-2,1.761349E-2,-2.7014207E-2,-2.8999452E-2,2.15671E-2,-3.954067E-2,-3.1642493E-2],"split_indices":[37,16,38,27,10,44,43,0,0,0,0,0,0,0,0],"split_type":[0,0,0,0,0,0,0,0,0,0,0,0,0,0,0],"sum_hessian":[1.18355086E5,6.1554164E4,5.680092E4,6.088398E4,6.7018097E2,3.292831E4,2.387261E4,6.0839953E4,4.4027565E1,1.1944282E2,5.5073816E2,2.6277455E4,6.6508545E3,2.2485432E3,2.1624066E4],"tree_param":{"num_deleted":"0","num_feature":"45","num_nodes":"15","size_leaf_vector":"1"}},{"base_weights":[1.588135E-2,9.932474E-1,-1.0329514E0,1.0133092E0,-7.991362E-1,-7.915298E-1,-1.3687054E0,2.382669E-2,-2.7945632E-2,1.8265221E-2,-2.6651045E-2,-2.8665163E-2,2.1138985E-2,-3.9030142E-2,-3.13934E-2],"categories":[],"categories_nodes":[],"categories_segments":[],"categories_sizes":[],"default_left":[0,0,0,0,0,0,0,0,0,0,0,0,0,0,0],"id":59,"left_children":[1,3,5,7,9,11,13,-1,-1,-1,-1,-1,-1,-1,-1],"loss_changes":[1.19146266E5,2.163539E3,4.5435E3,2.9671875E2,3.5391373E2,2.3752107E4,2.1029297E2,0E0,0E0,0E0,0E0,0E0,0E0,0E0,0E0],"parents":[2147483647,0,0,1,1,2,2,3,3,4,4,5,5,6,6],"right_children":[2,4,6,8,10,12,14,-1,-1,-1,-1,-1,-1,-1,-1],"split_conditions":[6.146E1,3.29E1,1.694615E8,1E-1,2E-1,5.4166668E1,7.1E-1,2.382669E-2,-2.7945632E-2,1.8265221E-2,-2.6651045E-2,-2.8665163E-2,2.1138985E-2,-3.9030142E-2,-3.13934E-2],"split_indices":[37,16,38,27,10,44,43,0,0,0,0,0,0,0,0],"split_type":[0,0,0,0,0,0,0,0,0,0,0,0,0,0,0],"sum_hessian":[1.1622968E5,6.016486E4,5.606482E4,5.949916E4,6.657E2,3.2614793E4,2.3450027E4,5.943836E4,6.0799255E1,1.1687152E2,5.488285E2,2.600432E4,6.6104717E3,2.2041401E3,2.1245887E4],"tree_param":{"num_deleted":"0","num_feature":"45","num_nodes":"15","size_leaf_vector":"1"}},{"base_weights":[1.4775824E-2,9.9948096E-1,-1.0162812E0,1.0127802E0,-5.7826185E-1,-7.7279973E-1,-1.3567909E0,2.3810718E-2,-3.4256402E-2,-2.453401E-2,1.611235E-2,-2.8362097E-2,2.0596948E-2,-3.8498227E-2,-3.115407E-2],"categories":[],"categories_nodes":[],"categories_segments":[],"categories_sizes":[],"default_left":[0,0,0,0,0,0,0,0,0,0,0,0,0,0,0],"id":60,"left_children":[1,3,5,7,9,11,13,-1,-1,-1,-1,-1,-1,-1,-1],"loss_changes":[1.1591582E5,1.2255664E3,4.622957E3,3.0210156E2,2.8865488E2,2.3409867E4,1.8954297E2,0E0,0E0,0E0,0E0,0E0,0E0,0E0,0E0],"parents":[2147483647,0,0,1,1,2,2,3,3,4,4,5,5,6,6],"right_children":[2,4,6,8,10,12,14,-1,-1,-1,-1,-1,-1,-1,-1],"split_conditions":[6.1282585E1,3.29E1,1.694615E8,1E-1,7.6577126E1,6.5E0,7.1E-1,2.3810718E-2,-3.4256402E-2,-2.453401E-2,1.611235E-2,-2.8362097E-2,2.0596948E-2,-3.8498227E-2,-3.115407E-2],"split_indices":[35,16,38,27,4,39,43,0,0,0,0,0,0,0,0],"split_type":[0,0,0,0,0,0,0,0,0,0,0,0,0,0,0],"sum_hessian":[1.1417048E5,5.8398133E4,5.5772344E4,5.791029E4,4.8784348E2,3.2520176E4,2.3252168E4,5.7861086E4,4.9202522E1,3.56486E2,1.3135747E2,2.5724527E4,6.795648E3,2.1453293E3,2.110684E4],"tree_param":{"num_deleted":"0","num_feature":"45","num_nodes":"15","size_leaf_vector":"1"}},{"base_weights":[1.5898528E-2,9.9871624E-1,-1.0045061E0,1.0125619E0,-5.996848E-1,-7.612925E-1,-1.3462335E0,2.3771608E-2,-1.475258E-1,-3.3673335E-2,3.4419398E-3,-2.8027229E-2,2.0186417E-2,-3.8027573E-2,-3.0918026E-2],"categories":[],"categories_nodes":[],"categories_segments":[],"categories_sizes":[],"default_left":[0,0,0,0,0,0,0,0,0,0,0,0,0,0,0],"id":61,"left_children":[1,3,5,7,9,11,13,-1,-1,-1,-1,-1,-1,-1,-1],"loss_changes":[1.1244872E5,1.2642227E3,4.571133E3,2.7132812E2,3.0633722E2,2.2584646E4,1.7703516E2,0E0,0E0,0E0,0E0,0E0,0E0,0E0,0E0],"parents":[2147483647,0,0,1,1,2,2,3,3,4,4,5,5,6,6],"right_children":[2,4,6,8,10,12,14,-1,-1,-1,-1,-1,-1,-1,-1],"split_conditions":[6.1282585E1,3.29E1,1.694615E8,2E-1,6.5E0,6.5E0,7.1E-1,2.3771608E-2,-1.475258E-1,-3.3673335E-2,3.4419398E-3,-2.8027229E-2,2.0186417E-2,-3.8027573E-2,-3.0918026E-2],"split_indices":[35,16,38,13,39,39,43,0,0,0,0,0,0,0,0],"split_type":[0,0,0,0,0,0,0,0,0,0,0,0,0,0,0],"sum_hessian":[1.1212671E5,5.711552E4,5.5011188E4,5.6625316E4,4.9020627E2,3.2138793E4,2.2872395E4,5.6620242E4,5.07134E0,2.3158202E2,2.5862427E2,2.536227E4,6.7765225E3,2.1424219E3,2.0729973E4],"tree_param":{"num_deleted":"0","num_feature":"45","num_nodes":"15","size_leaf_vector":"1"}},{"base_weights":[1.6323533E-2,9.9188995E-1,-1.0016134E0,1.0018228E0,-1.2439913E0,-7.633448E-1,-1.3358551E0,2.3803301E-2,2.2966047E-3,-3.28727E-2,6.486678E-3,-2.7745549E-2,2.006424E-2,-3.753655E-2,-3.0690243E-2],"categories":[],"categories_nodes":[],"categories_segments":[],"categories_sizes":[],"default_left":[0,0,0,0,0,0,0,0,0,0,0,0,0,0,0],"id":62,"left_children":[1,3,5,7,9,11,13,-1,-1,-1,-1,-1,-1,-1,-1],"loss_changes":[1.09228664E5,1.2472461E3,4.285715E3,6.4403125E2,5.983719E1,2.1325547E4,1.6269922E2,0E0,0E0,0E0,0E0,0E0,0E0,0E0,0E0],"parents":[2147483647,0,0,1,1,2,2,3,3,4,4,5,5,6,6],"right_children":[2,4,6,8,10,12,14,-1,-1,-1,-1,-1,-1,-1,-1],"split_conditions":[6.146E1,1E-1,1.694615E8,1E0,1E-2,6.5E0,7.1E-1,2.3803301E-2,2.2966047E-3,-3.28727E-2,6.486678E-3,-2.7745549E-2,2.006424E-2,-3.753655E-2,-3.0690243E-2],"split_indices":[37,27,38,10,15,39,43,0,0,0,0,0,0,0,0],"split_type":[0,0,0,0,0,0,0,0,0,0,0,0,0,0,0],"sum_hessian":[1.0999145E5,5.6164855E4,5.3826598E4,5.591666E4,2.4819882E2,3.142576E4,2.2400836E4,5.5138277E4,7.783826E2,2.252302E2,2.2968632E1,2.4960414E4,6.465345E3,2.127509E3,2.0273326E4],"tree_param":{"num_deleted":"0","num_feature":"45","num_nodes":"15","size_leaf_vector":"1"}},{"base_weights":[1.4851853E-2,9.97154E-1,-9.8662156E-1,1.0116243E0,-5.9043694E-1,-1.0254526E0,9.367269E-1,2.3777176E-2,-3.803919E-2,4.6941643E-3,-3.1942237E-2,-1.1039141E-2,-2.6289755E-2,2.363166E-2,-2.7441466E-2],"categories":[],"categories_nodes":[],"categories_segments":[],"categories_sizes":[],"default_left":[0,0,0,0,0,0,0,0,0,0,0,0,0,0,0],"id":63,"left_children":[1,3,5,7,9,11,13,-1,-1,-1,-1,-1,-1,-1,-1],"loss_changes":[1.0631971E5,1.2536211E3,3.9968867E3,2.6126562E2,3.0074786E2,2.7676836E3,1.5723035E2,0E0,0E0,0E0,0E0,0E0,0E0,0E0,0E0],"parents":[2147483647,0,0,1,1,2,2,3,3,4,4,5,5,6,6],"right_children":[2,4,6,8,10,12,14,-1,-1,-1,-1,-1,-1,-1,-1],"split_conditions":[6.1282585E1,3.29E1,2.1E-1,2E-1,6E-1,6E-1,2.09E0,2.3777176E-2,-3.803919E-2,4.6941643E-3,-3.1942237E-2,-1.1039141E-2,-2.6289755E-2,2.363166E-2,-2.7441466E-2],"split_indices":[35,16,7,27,10,43,14,0,0,0,0,0,0,0,0],"split_type":[0,0,0,0,0,0,0,0,0,0,0,0,0,0,0],"sum_hessian":[1.08075984E5,5.4560453E4,5.351553E4,5.406794E4,4.9251215E2,5.245671E4,1.058818E3,5.4030418E4,3.7522404E1,2.4288367E2,2.4962846E2,7.675455E3,4.4781258E4,1.0247292E3,3.4088703E1],"tree_param":{"num_deleted":"0","num_feature":"45","num_nodes":"15","size_leaf_vector":"1"}},{"base_weights":[1.7341373E-2,9.972664E-1,-9.708126E-1,1.0111983E0,-5.414525E-1,-7.268217E-1,-1.3182139E0,2.3767333E-2,-3.978384E-2,-3.171803E-2,4.1748355E-3,-2.7202822E-2,2.018668E-2,-3.686665E-2,-3.029406E-2],"categories":[],"categories_nodes":[],"categories_segments":[],"categories_sizes":[],"default_left":[0,0,0,0,0,0,0,0,0,0,0,0,0,0,0],"id":64,"left_children":[1,3,5,7,9,11,13,-1,-1,-1,-1,-1,-1,-1,-1],"loss_changes":[1.0281387E5,1.1430625E3,4.480164E3,2.633672E2,2.7928625E2,2.1327271E4,1.47625E2,0E0,0E0,0E0,0E0,0E0,0E0,0E0,0E0],"parents":[2147483647,0,0,1,1,2,2,3,3,4,4,5,5,6,6],"right_children":[2,4,6,8,10,12,14,-1,-1,-1,-1,-1,-1,-1,-1],"split_conditions":[6.1282585E1,3.29E1,1.694615E8,5E-1,6.5E0,6.5E0,7.1E-1,2.3767333E-2,-3.978384E-2,-3.171803E-2,4.1748355E-3,-2.7202822E-2,2.018668E-2,-3.686665E-2,-3.029406E-2],"split_indices":[35,16,38,27,39,39,43,0,0,0,0,0,0,0,0],"split_type":[0,0,0,0,0,0,0,0,0,0,0,0,0,0,0],"sum_hessian":[1.0617791E5,5.3311168E4,5.2866734E4,5.2833113E4,4.780546E2,3.1056287E4,2.181045E4,5.279733E4,3.578737E1,2.2510553E2,2.5294908E2,2.4404414E4,6.651874E3,2.0989133E3,1.9711535E4],"tree_param":{"num_deleted":"0","num_feature":"45","num_nodes":"15","size_leaf_vector":"1"}},{"base_weights":[1.5573257E-2,9.8960567E-1,-9.709831E-1,1.0107405E0,-7.3184156E-1,-1.0078738E0,9.226383E-1,2.3762535E-2,-3.021901E-2,-3.295093E-2,-3.1144978E-4,-2.7079685E-2,-1.4687665E-2,2.3939297E-2,-1.59163E-2],"categories":[],"categories_nodes":[],"categories_segments":[],"categories_sizes":[],"default_left":[0,0,0,0,0,0,0,0,0,0,0,0,0,0,0],"id":65,"left_children":[1,3,5,7,9,11,13,-1,-1,-1,-1,-1,-1,-1,-1],"loss_changes":[1.0020291E5,1.9091836E3,3.6189648E3,2.4973828E2,3.0679303E2,2.838836E3,1.5502692E2,0E0,0E0,0E0,0E0,0E0,0E0,0E0,0E0],"parents":[2147483647,0,0,1,1,2,2,3,3,4,4,5,5,6,6],"right_children":[2,4,6,8,10,12,14,-1,-1,-1,-1,-1,-1,-1,-1],"split_conditions":[6.146E1,3.29E1,2.1E-1,2E-1,3.635484E0,5.363444E1,1.202E2,2.3762535E-2,-3.021901E-2,-3.295093E-2,-3.1144978E-4,-2.7079685E-2,-1.4687665E-2,2.3939297E-2,-1.59163E-2],"split_indices":[37,16,7,27,3,3,2,0,0,0,0,0,0,0,0],"split_type":[0,0,0,0,0,0,0,0,0,0,0,0,0,0,0],"sum_hessian":[1.0427615E5,5.2471367E4,5.1804785E4,5.183524E4,6.361272E2,5.081508E4,9.897062E2,5.1788203E4,4.7036E1,3.2822482E2,3.0790234E2,3.6734234E4,1.4080844E4,9.330449E2,5.666127E1],"tree_param":{"num_deleted":"0","num_feature":"45","num_nodes":"15","size_leaf_vector":"1"}},{"base_weights":[1.57999E-2,9.9595714E-1,-9.5231575E-1,1.010258E0,-5.1886415E-1,-3.7930626E-1,-1.0839466E0,2.3745388E-2,-4.2084362E-2,-3.7947997E-2,1.3744264E-4,-3.0316327E-2,5.1011015E-3,-2.6468001E-2,-7.341898E-4],"categories":[],"categories_nodes":[],"categories_segments":[],"categories_sizes":[],"default_left":[0,0,0,0,0,0,0,0,0,0,0,0,0,0,0],"id":66,"left_children":[1,3,5,7,9,11,13,-1,-1,-1,-1,-1,-1,-1,-1],"loss_changes":[9.728883E4,1.1039141E3,3.889793E3,2.6126172E2,2.7525192E2,5.249735E3,1.9513047E3,0E0,0E0,0E0,0E0,0E0,0E0,0E0,0E0],"parents":[2147483647,0,0,1,1,2,2,3,3,4,4,5,5,6,6],"right_children":[2,4,6,8,10,12,14,-1,-1,-1,-1,-1,-1,-1,-1],"split_conditions":[6.1282585E1,3.29E1,8E-1,7E-1,2.499775E0,6.5E0,1E-1,2.3745388E-2,-4.2084362E-2,-3.7947997E-2,1.3744264E-4,-3.0316327E-2,5.1011015E-3,-2.6468001E-2,-7.341898E-4],"split_indices":[35,16,43,27,3,39,15,0,0,0,0,0,0,0,0],"split_type":[0,0,0,0,0,0,0,0,0,0,0,0,0,0,0],"sum_hessian":[1.0252738E5,5.094709E4,5.1580293E4,5.0470926E4,4.761643E2,9.636169E3,4.1944125E4,5.0437844E4,3.3084824E1,1.5420485E2,3.2195947E2,3.8093884E3,5.8267803E3,4.025322E4,1.6909076E3],"tree_param":{"num_deleted":"0","num_feature":"45","num_nodes":"15","size_leaf_vector":"1"}},{"base_weights":[1.5052773E-2,9.881074E-1,-9.491818E-1,1.0109237E0,-6.2459075E-1,-7.0448345E-1,-1.2969229E0,2.37638E-2,-3.5440493E-2,1.9693028E-2,-2.5043922E-2,-2.6521865E-2,2.0325387E-2,-3.0009557E-2,-3.5496313E-2],"categories":[],"categories_nodes":[],"categories_segments":[],"categories_sizes":[],"default_left":[0,0,0,0,0,0,0,0,0,0,0,0,0,0,0],"id":67,"left_children":[1,3,5,7,9,11,13,-1,-1,-1,-1,-1,-1,-1,-1],"loss_changes":[9.451236E4,1.8450273E3,4.304289E3,2.4505469E2,4.5339825E2,1.9871768E4,7.911719E1,0E0,0E0,0E0,0E0,0E0,0E0,0E0,0E0],"parents":[2147483647,0,0,1,1,2,2,3,3,4,4,5,5,6,6],"right_children":[2,4,6,8,10,12,14,-1,-1,-1,-1,-1,-1,-1,-1],"split_conditions":[6.146E1,1.55E1,1.694615E8,5E-1,2E-1,6.5E0,2.1624E2,2.37638E-2,-3.5440493E-2,1.9693028E-2,-2.5043922E-2,-2.6521865E-2,2.0325387E-2,-3.0009557E-2,-3.5496313E-2],"split_indices":[37,16,38,27,10,39,33,0,0,0,0,0,0,0,0],"split_type":[0,0,0,0,0,0,0,0,0,0,0,0,0,0,0],"sum_hessian":[1.0073227E5,5.0137074E4,5.0595195E4,4.943792E4,6.9915295E2,2.9698398E4,2.0896799E4,4.939956E4,3.8360855E1,1.6213097E2,5.37022E2,2.3363197E4,6.335202E3,1.930681E4,1.5899873E3],"tree_param":{"num_deleted":"0","num_feature":"45","num_nodes":"15","size_leaf_vector":"1"}},{"base_weights":[1.5368187E-2,9.9484134E-1,-9.332421E-1,1.0104113E0,-3.8911566E-1,-6.864923E-1,-1.288239E0,-4.192752E-2,2.3747228E-2,-3.267837E-2,7.6826112E-3,-2.6228474E-2,1.989454E-2,-2.982644E-2,-3.506744E-2],"categories":[],"categories_nodes":[],"categories_segments":[],"categories_sizes":[],"default_left":[0,0,0,0,0,0,0,0,0,0,0,0,0,0,0],"id":68,"left_children":[1,3,5,7,9,11,13,-1,-1,-1,-1,-1,-1,-1,-1],"loss_changes":[9.189716E4,1.0488516E3,4.4002305E3,2.3842578E2,3.8964078E2,1.9624564E4,7.073828E1,0E0,0E0,0E0,0E0,0E0,0E0,0E0,0E0],"parents":[2147483647,0,0,1,1,2,2,3,3,4,4,5,5,6,6],"right_children":[2,4,6,8,10,12,14,-1,-1,-1,-1,-1,-1,-1,-1],"split_conditions":[6.1282585E1,1.55E1,1.694615E8,4E-1,6.5E0,6.5E0,2.1624E2,-4.192752E-2,2.3747228E-2,-3.267837E-2,7.6826112E-3,-2.6228474E-2,1.989454E-2,-2.982644E-2,-3.506744E-2],"split_indices":[35,16,38,31,39,39,33,0,0,0,0,0,0,0,0],"split_type":[0,0,0,0,0,0,0,0,0,0,0,0,0,0,0],"sum_hessian":[9.890575E4,4.8661527E4,5.0244227E4,4.81205E4,5.4102637E2,2.9642072E4,2.0602154E4,3.0323656E1,4.8090176E4,2.2563072E2,3.1539566E2,2.3136883E4,6.50519E3,1.9042166E4,1.5599879E3],"tree_param":{"num_deleted":"0","num_feature":"45","num_nodes":"15","size_leaf_vector":"1"}},{"base_weights":[1.6373042E-2,9.8692286E-1,-9.286976E-1,1.0102526E0,-6.0813224E-1,-6.8455875E-1,-1.2802391E0,-3.443777E-2,2.3744958E-2,1.8991852E-2,-2.4313822E-2,-2.5927013E-2,1.9919373E-2,-3.5702314E-2,-2.9408433E-2],"categories":[],"categories_nodes":[],"categories_segments":[],"categories_sizes":[],"default_left":[0,0,0,0,0,0,0,0,0,0,0,0,0,0,0],"id":69,"left_children":[1,3,5,7,9,11,13,-1,-1,-1,-1,-1,-1,-1,-1],"loss_changes":[8.906544E4,1.7828633E3,4.2213516E3,2.145625E2,4.191349E2,1.8725053E4,1.2896875E2,0E0,0E0,0E0,0E0,0E0,0E0,0E0,0E0],"parents":[2147483647,0,0,1,1,2,2,3,3,4,4,5,5,6,6],"right_children":[2,4,6,8,10,12,14,-1,-1,-1,-1,-1,-1,-1,-1],"split_conditions":[6.146E1,1.55E1,1.694615E8,5E-1,2E-1,6.5E0,7.1E-1,-3.443777E-2,2.3744958E-2,1.8991852E-2,-2.4313822E-2,-2.5927013E-2,1.9919373E-2,-3.5702314E-2,-2.9408433E-2],"split_indices":[37,16,38,30,10,39,43,0,0,0,0,0,0,0,0],"split_type":[0,0,0,0,0,0,0,0,0,0,0,0,0,0,0],"sum_hessian":[9.7101734E4,4.790535E4,4.9196383E4,4.7215066E4,6.902867E2,2.9034102E4,2.0162283E4,3.475709E1,4.718031E4,1.5987958E2,5.304071E2,2.2786078E4,6.2480234E3,2.009075E3,1.8153207E4],"tree_param":{"num_deleted":"0","num_feature":"45","num_nodes":"15","size_leaf_vector":"1"}},{"base_weights":[1.5377364E-2,9.9357486E-1,-9.1705936E-1,1.0098121E0,-3.8047272E-1,-6.7314106E-1,-1.2714798E0,2.3735322E-2,-3.8043182E-2,6.470656E-3,-3.418813E-2,-2.5710953E-2,1.9173171E-2,-2.9555839E-2,-3.3600472E-2],"categories":[],"categories_nodes":[],"categories_segments":[],"categories_sizes":[],"default_left":[0,0,0,0,0,0,0,0,0,0,0,0,0,0,0],"id":70,"left_children":[1,3,5,7,9,11,13,-1,-1,-1,-1,-1,-1,-1,-1],"loss_changes":[8.688061E4,1.0374375E3,4.214949E3,2.2523047E2,3.8396112E2,1.8200398E4,3.6140625E1,0E0,0E0,0E0,0E0,0E0,0E0,0E0,0E0],"parents":[2147483647,0,0,1,1,2,2,3,3,4,4,5,5,6,6],"right_children":[2,4,6,8,10,12,14,-1,-1,-1,-1,-1,-1,-1,-1],"split_conditions":[6.1282585E1,1.55E1,1.694615E8,6E-1,8E-1,5.4166668E1,2.1392485E2,2.3735322E-2,-3.8043182E-2,6.470656E-3,-3.418813E-2,-2.5710953E-2,1.9173171E-2,-2.9555839E-2,-3.3600472E-2],"split_indices":[35,16,38,27,10,44,3,0,0,0,0,0,0,0,0],"split_type":[0,0,0,0,0,0,0,0,0,0,0,0,0,0,0],"sum_hessian":[9.5252586E4,4.6485863E4,4.8766723E4,4.594329E4,5.4257544E2,2.888731E4,1.987941E4,4.5910918E4,3.236758E1,3.3683594E2,2.057395E2,2.2504258E4,6.383053E3,1.8531543E4,1.3478663E3],"tree_param":{"num_deleted":"0","num_feature":"45","num_nodes":"15","size_leaf_vector":"1"}},{"base_weights":[1.4547124E-2,9.857316E-1,-9.123655E-1,1.0083977E0,-6.8702316E-1,-6.703349E-1,-1.264145E0,2.3709446E-2,-3.1657156E-2,-3.2338105E-2,1.3222695E-4,-2.543973E-2,1.9117706E-2,-3.4918316E-2,-2.9066967E-2],"categories":[],"categories_nodes":[],"categories_segments":[],"categories_sizes":[],"default_left":[0,0,0,0,0,0,0,0,0,0,0,0,0,0,0],"id":71,"left_children":[1,3,5,7,9,11,13,-1,-1,-1,-1,-1,-1,-1,-1],"loss_changes":[8.4305445E4,1.7341445E3,4.0788672E3,2.3144922E2,2.9329675E2,1.7454512E4,1.0911328E2,0E0,0E0,0E0,0E0,0E0,0E0,0E0,0E0],"parents":[2147483647,0,0,1,1,2,2,3,3,4,4,5,5,6,6],"right_children":[2,4,6,8,10,12,14,-1,-1,-1,-1,-1,-1,-1,-1],"split_conditions":[6.146E1,3.29E1,1.694615E8,5E-1,2.499775E0,6.5E0,7.1E-1,2.3709446E-2,-3.1657156E-2,-3.2338105E-2,1.3222695E-4,-2.543973E-2,1.9117706E-2,-3.4918316E-2,-2.9066967E-2],"split_indices":[37,16,38,27,3,39,43,0,0,0,0,0,0,0,0],"split_type":[0,0,0,0,0,0,0,0,0,0,0,0,0,0,0],"sum_hessian":[9.365154E4,4.5733836E4,4.79177E4,4.51227E4,6.111379E2,2.8387762E4,1.952994E4,4.5081273E4,4.142511E1,3.0620212E2,3.049358E2,2.2199957E4,6.1878037E3,1.97262E3,1.7557318E4],"tree_param":{"num_deleted":"0","num_feature":"45","num_nodes":"15","size_leaf_vector":"1"}},{"base_weights":[1.5399339E-2,9.695767E-1,-9.1622293E-1,1.006862E0,-7.941636E-1,-9.6962416E-1,2.779143E-1,2.3651574E-2,-9.5784284E-2,-3.238909E-2,-7.735045E-5,-2.6131205E-2,-1.4240211E-2,3.0231506E-2,-2.7166978E-2],"categories":[],"categories_nodes":[],"categories_segments":[],"categories_sizes":[],"default_left":[0,0,0,0,0,0,0,0,0,0,0,0,0,0,0],"id":72,"left_children":[1,3,5,7,9,11,13,-1,-1,-1,-1,-1,-1,-1,-1],"loss_changes":[8.1664945E4,2.9846953E3,2.964496E3,2.8039844E2,4.3494147E2,2.3256016E3,2.8869265E3,0E0,0E0,0E0,0E0,0E0,0E0,0E0,0E0],"parents":[2147483647,0,0,1,1,2,2,3,3,4,4,5,5,6,6],"right_children":[2,4,6,8,10,12,14,-1,-1,-1,-1,-1,-1,-1,-1],"split_conditions":[1.1375574E1,3.29E1,1E-1,2E-1,2.499775E0,5.363444E1,1E-1,2.3651574E-2,-9.5784284E-2,-3.238909E-2,-7.735045E-5,-2.6131205E-2,-1.4240211E-2,3.0231506E-2,-2.7166978E-2],"split_indices":[40,16,15,17,3,3,13,0,0,0,0,0,0,0,0],"split_type":[0,0,0,0,0,0,0,0,0,0,0,0,0,0,0],"sum_hessian":[9.186849E4,4.5385098E4,4.648339E4,4.4445785E4,9.393121E2,4.4494035E4,1.9893544E3,4.4435004E4,1.0784594E1,5.390506E2,4.0026144E2,3.183632E4,1.2657714E4,1.167747E3,8.216075E2],"tree_param":{"num_deleted":"0","num_feature":"45","num_nodes":"15","size_leaf_vector":"1"}},{"base_weights":[1.5390925E-2,9.922023E-1,-8.8951117E-1,9.993151E-1,-1.2460316E0,-3.2962915E-1,-1.023227E0,2.348182E-2,-1.1741224E-1,-3.3663426E-2,6.6957707E-3,-2.68271E-2,6.640726E-3,-2.5091706E-2,6.6748005E-4],"categories":[],"categories_nodes":[],"categories_segments":[],"categories_sizes":[],"default_left":[0,0,0,0,0,0,0,0,0,0,0,0,0,0,0],"id":73,"left_children":[1,3,5,7,9,11,13,-1,-1,-1,-1,-1,-1,-1,-1],"loss_changes":[7.977068E4,6.908008E2,3.5065977E3,4.026289E2,4.0235138E1,4.5040093E3,1.8403867E3,0E0,0E0,0E0,0E0,0E0,0E0,0E0,0E0],"parents":[2147483647,0,0,1,1,2,2,3,3,4,4,5,5,6,6],"right_children":[2,4,6,8,10,12,14,-1,-1,-1,-1,-1,-1,-1,-1],"split_conditions":[6.1282585E1,1E-1,8E-1,2E-1,1E-2,5.0929834E2,1E-1,2.348182E-2,-1.1741224E-1,-3.3663426E-2,6.6957707E-3,-2.68271E-2,6.640726E-3,-2.5091706E-2,6.6748005E-4],"split_indices":[35,27,43,17,15,42,15,0,0,0,0,0,0,0,0],"split_type":[0,0,0,0,0,0,0,0,0,0,0,0,0,0,0],"sum_hessian":[9.024657E4,4.339916E4,4.684741E4,4.326189E4,1.3726875E2,9.032196E3,3.7815215E4,4.325075E4,1.1139889E1,1.2247647E2,1.4792287E1,3.8796152E3,5.1525806E3,3.6222215E4,1.5929982E3],"tree_param":{"num_deleted":"0","num_feature":"45","num_nodes":"15","size_leaf_vector":"1"}},{"base_weights":[1.4014563E-2,9.666903E-1,-8.976266E-1,1.0054153E0,-7.9563737E-1,-6.5436864E-1,-1.2459215E0,2.3664601E-2,-2.80431E-2,-3.1806745E-2,-1.0165202E-3,-2.4929348E-2,1.9791799E-2,-3.4261484E-2,-2.8657144E-2],"categories":[],"categories_nodes":[],"categories_segments":[],"categories_sizes":[],"default_left":[0,0,0,0,0,0,0,0,0,0,0,0,0,0,0],"id":74,"left_children":[1,3,5,7,9,11,13,-1,-1,-1,-1,-1,-1,-1,-1],"loss_changes":[7.700107E4,2.958879E3,3.837629E3,3.0314453E2,3.920005E2,1.6311569E4,9.64375E1,0E0,0E0,0E0,0E0,0E0,0E0,0E0,0E0],"parents":[2147483647,0,0,1,1,2,2,3,3,4,4,5,5,6,6],"right_children":[2,4,6,8,10,12,14,-1,-1,-1,-1,-1,-1,-1,-1],"split_conditions":[1.1375574E1,3.29E1,1.694615E8,1E-1,2.499775E0,7.878725E7,7.1E-1,2.3664601E-2,-2.80431E-2,-3.1806745E-2,-1.0165202E-3,