{"learner":{"attributes":{},"feature_names":[],"feature_types":[],"gradient_booster":{"model":{"cats":{"enc":[],"feature_segments":[],"sorted_idx":[]},"gbtree_model_param":{"num_parallel_tree":"1","num_trees":"1442"},"iteration_indptr":[0,1,2,3,4,5,6,7,8,9,10,11,12,13,14,15,16,17,18,19,20,21,22,23,24,25,26,27,28,29,30,31,32,33,34,35,36,37,38,39,40,41,42,43,44,45,46,47,48,49,50,51,52,53,54,55,56,57,58,59,60,61,62,63,64,65,66,67,68,69,70,71,72,73,74,75,76,77,78,79,80,81,82,83,84,85,86,87,88,89,90,91,92,93,94,95,96,97,98,99,100,101,102,103,104,105,106,107,108,109,110,111,112,113,114,115,116,117,118,119,120,121,122,123,124,125,126,127,128,129,130,131,132,133,134,135,136,137,138,139,140,141,142,143,144,145,146,147,148,149,150,151,152,153,154,155,156,157,158,159,160,161,162,163,164,165,166,167,168,169,170,171,172,173,174,175,176,177,178,179,180,181,182,183,184,185,186,187,188,189,190,191,192,193,194,195,196,197,198,199,200,201,202,203,204,205,206,207,208,209,210,211,212,213,214,215,216,217,218,219,220,221,222,223,224,225,226,227,228,229,230,231,232,233,234,235,236,237,238,239,240,241,242,243,244,245,246,247,248,249,250,251,252,253,254,255,256,257,258,259,260,261,262,263,264,265,266,267,268,269,270,271,272,273,274,275,276,277,278,279,280,281,282,283,284,285,286,287,288,289,290,291,292,293,294,295,296,297,298,299,300,301,302,303,304,305,306,307,308,309,310,311,312,313,314,315,316,317,318,319,320,321,322,323,324,325,326,327,328,329,330,331,332,333,334,335,336,337,338,339,340,341,342,343,344,345,346,347,348,349,350,351,352,353,354,355,356,357,358,359,360,361,362,363,364,365,366,367,368,369,370,371,372,373,374,375,376,377,378,379,380,381,382,383,384,385,386,387,388,389,390,391,392,393,394,395,396,397,398,399,400,401,402,403,404,405,406,407,408,409,410,411,412,413,414,415,416,417,418,419,420,421,422,423,424,425,426,427,428,429,430,431,432,433,434,435,436,437,438,439,440,441,442,443,444,445,446,447,448,449,450,451,452,453,454,455,456,457,458,459,460,461,462,463,464,465,466,467,468,469,470,471,472,473,474,475,476,477,478,479,480,481,482,483,484,485,486,487,488,489,490,491,492,493,494,495,496,497,498,499,500,501,502,503,504,505,506,507,508,509,510,511,512,513,514,515,516,517,518,519,520,521,522,523,524,525,526,527,528,529,530,531,532,533,534,535,536,537,538,539,540,541,542,543,544,545,546,547,548,549,550,551,552,553,554,555,556,557,558,559,560,561,562,563,564,565,566,567,568,569,570,571,572,573,574,575,576,577,578,579,580,581,582,583,584,585,586,587,588,589,590,591,592,593,594,595,596,597,598,599,600,601,602,603,604,605,606,607,608,609,610,611,612,613,614,615,616,617,618,619,620,621,622,623,624,625,626,627,628,629,630,631,632,633,634,635,636,637,638,639,640,641,642,643,644,645,646,647,648,649,650,651,652,653,654,655,656,657,658,659,660,661,662,663,664,665,666,667,668,669,670,671,672,673,674,675,676,677,678,679,680,681,682,683,684,685,686,687,688,689,690,691,692,693,694,695,696,697,698,699,700,701,702,703,704,705,706,707,708,709,710,711,712,713,714,715,716,717,718,719,720,721,722,723,724,725,726,727,728,729,730,731,732,733,734,735,736,737,738,739,740,741,742,743,744,745,746,747,748,749,750,751,752,753,754,755,756,757,758,759,760,761,762,763,764,765,766,767,768,769,770,771,772,773,774,775,776,777,778,779,780,781,782,783,784,785,786,787,788,789,790,791,792,793,794,795,796,797,798,799,800,801,802,803,804,805,806,807,808,809,810,811,812,813,814,815,816,817,818,819,820,821,822,823,824,825,826,827,828,829,830,831,832,833,834,835,836,837,838,839,840,841,842,843,844,845,846,847,848,849,850,851,852,853,854,855,856,857,858,859,860,861,862,863,864,865,866,867,868,869,870,871,872,873,874,875,876,877,878,879,880,881,882,883,884,885,886,887,888,889,890,891,892,893,894,895,896,897,898,899,900,901,902,903,904,905,906,907,908,909,910,911,912,913,914,915,916,917,918,919,920,921,922,923,924,925,926,927,928,929,930,931,932,933,934,935,936,937,938,939,940,941,942,943,944,945,946,947,948,949,950,951,952,953,954,955,956,957,958,959,960,961,962,963,964,965,966,967,968,969,970,971,972,973,974,975,976,977,978,979,980,981,982,983,984,985,986,987,988,989,990,991,992,993,994,995,996,997,998,999,1000,1001,1002,1003,1004,1005,1006,1007,1008,1009,1010,1011,1012,1013,1014,1015,1016,1017,1018,1019,1020,1021,1022,1023,1024,1025,1026,1027,1028,1029,1030,1031,1032,1033,1034,1035,1036,1037,1038,1039,1040,1041,1042,1043,1044,1045,1046,1047,1048,1049,1050,1051,1052,1053,1054,1055,1056,1057,1058,1059,1060,1061,1062,1063,1064,1065,1066,1067,1068,1069,1070,1071,1072,1073,1074,1075,1076,1077,1078,1079,1080,1081,1082,1083,1084,1085,1086,1087,1088,1089,1090,1091,1092,1093,1094,1095,1096,1097,1098,1099,1100,1101,1102,1103,1104,1105,1106,1107,1108,1109,1110,1111,1112,1113,1114,1115,1116,1117,1118,1119,1120,1121,1122,1123,1124,1125,1126,1127,1128,1129,1130,1131,1132,1133,1134,1135,1136,1137,1138,1139,1140,1141,1142,1143,1144,1145,1146,1147,1148,1149,1150,1151,1152,1153,1154,1155,1156,1157,1158,1159,1160,1161,1162,1163,1164,1165,1166,1167,1168,1169,1170,1171,1172,1173,1174,1175,1176,1177,1178,1179,1180,1181,1182,1183,1184,1185,1186,1187,1188,1189,1190,1191,1192,1193,1194,1195,1196,1197,1198,1199,1200,1201,1202,1203,1204,1205,1206,1207,1208,1209,1210,1211,1212,1213,1214,1215,1216,1217,1218,1219,1220,1221,1222,1223,1224,1225,1226,1227,1228,1229,1230,1231,1232,1233,1234,1235,1236,1237,1238,1239,1240,1241,1242,1243,1244,1245,1246,1247,1248,1249,1250,1251,1252,1253,1254,1255,1256,1257,1258,1259,1260,1261,1262,1263,1264,1265,1266,1267,1268,1269,1270,1271,1272,1273,1274,1275,1276,1277,1278,1279,1280,1281,1282,1283,1284,1285,1286,1287,1288,1289,1290,1291,1292,1293,1294,1295,1296,1297,1298,1299,1300,1301,1302,1303,1304,1305,1306,1307,1308,1309,1310,1311,1312,1313,1314,1315,1316,1317,1318,1319,1320,1321,1322,1323,1324,1325,1326,1327,1328,1329,1330,1331,1332,1333,1334,1335,1336,1337,1338,1339,1340,1341,1342,1343,1344,1345,1346,1347,1348,1349,1350,1351,1352,1353,1354,1355,1356,1357,1358,1359,1360,1361,1362,1363,1364,1365,1366,1367,1368,1369,1370,1371,1372,1373,1374,1375,1376,1377,1378,1379,1380,1381,1382,1383,1384,1385,1386,1387,1388,1389,1390,1391,1392,1393,1394,1395,1396,1397,1398,1399,1400,1401,1402,1403,1404,1405,1406,1407,1408,1409,1410,1411,1412,1413,1414,1415,1416,1417,1418,1419,1420,1421,1422,1423,1424,1425,1426,1427,1428,1429,1430,1431,1432,1433,1434,1435,1436,1437,1438,1439,1440,1441,1442],"tree_info":[0,0,0,0,0,0,0,0,0,0,0,0,0,0,0,0,0,0,0,0,0,0,0,0,0,0,0,0,0,0,0,0,0,0,0,0,0,0,0,0,0,0,0,0,0,0,0,0,0,0,0,0,0,0,0,0,0,0,0,0,0,0,0,0,0,0,0,0,0,0,0,0,0,0,0,0,0,0,0,0,0,0,0,0,0,0,0,0,0,0,0,0,0,0,0,0,0,0,0,0,0,0,0,0,0,0,0,0,0,0,0,0,0,0,0,0,0,0,0,0,0,0,0,0,0,0,0,0,0,0,0,0,0,0,0,0,0,0,0,0,0,0,0,0,0,0,0,0,0,0,0,0,0,0,0,0,0,0,0,0,0,0,0,0,0,0,0,0,0,0,0,0,0,0,0,0,0,0,0,0,0,0,0,0,0,0,0,0,0,0,0,0,0,0,0,0,0,0,0,0,0,0,0,0,0,0,0,0,0,0,0,0,0,0,0,0,0,0,0,0,0,0,0,0,0,0,0,0,0,0,0,0,0,0,0,0,0,0,0,0,0,0,0,0,0,0,0,0,0,0,0,0,0,0,0,0,0,0,0,0,0,0,0,0,0,0,0,0,0,0,0,0,0,0,0,0,0,0,0,0,0,0,0,0,0,0,0,0,0,0,0,0,0,0,0,0,0,0,0,0,0,0,0,0,0,0,0,0,0,0,0,0,0,0,0,0,0,0,0,0,0,0,0,0,0,0,0,0,0,0,0,0,0,0,0,0,0,0,0,0,0,0,0,0,0,0,0,0,0,0,0,0,0,0,0,0,0,0,0,0,0,0,0,0,0,0,0,0,0,0,0,0,0,0,0,0,0,0,0,0,0,0,0,0,0,0,0,0,0,0,0,0,0,0,0,0,0,0,0,0,0,0,0,0,0,0,0,0,0,0,0,0,0,0,0,0,0,0,0,0,0,0,0,0,0,0,0,0,0,0,0,0,0,0,0,0,0,0,0,0,0,0,0,0,0,0,0,0,0,0,0,0,0,0,0,0,0,0,0,0,0,0,0,0,0,0,0,0,0,0,0,0,0,0,0,0,0,0,0,0,0,0,0,0,0,0,0,0,0,0,0,0,0,0,0,0,0,0,0,0,0,0,0,0,0,0,0,0,0,0,0,0,0,0,0,0,0,0,0,0,0,0,0,0,0,0,0,0,0,0,0,0,0,0,0,0,0,0,0,0,0,0,0,0,0,0,0,0,0,0,0,0,0,0,0,0,0,0,0,0,0,0,0,0,0,0,0,0,0,0,0,0,0,0,0,0,0,0,0,0,0,0,0,0,0,0,0,0,0,0,0,0,0,0,0,0,0,0,0,0,0,0,0,0,0,0,0,0,0,0,0,0,0,0,0,0,0,0,0,0,0,0,0,0,0,0,0,0,0,0,0,0,0,0,0,0,0,0,0,0,0,0,0,0,0,0,0,0,0,0,0,0,0,0,0,0,0,0,0,0,0,0,0,0,0,0,0,0,0,0,0,0,0,0,0,0,0,0,0,0,0,0,0,0,0,0,0,0,0,0,0,0,0,0,0,0,0,0,0,0,0,0,0,0,0,0,0,0,0,0,0,0,0,0,0,0,0,0,0,0,0,0,0,0,0,0,0,0,0,0,0,0,0,0,0,0,0,0,0,0,0,0,0,0,0,0,0,0,0,0,0,0,0,0,0,0,0,0,0,0,0,0,0,0,0,0,0,0,0,0,0,0,0,0,0,0,0,0,0,0,0,0,0,0,0,0,0,0,0,0,0,0,0,0,0,0,0,0,0,0,0,0,0,0,0,0,0,0,0,0,0,0,0,0,0,0,0,0,0,0,0,0,0,0,0,0,0,0,0,0,0,0,0,0,0,0,0,0,0,0,0,0,0,0,0,0,0,0,0,0,0,0,0,0,0,0,0,0,0,0,0,0,0,0,0,0,0,0,0,0,0,0,0,0,0,0,0,0,0,0,0,0,0,0,0,0,0,0,0,0,0,0,0,0,0,0,0,0,0,0,0,0,0,0,0,0,0,0,0,0,0,0,0,0,0,0,0,0,0,0,0,0,0,0,0,0,0,0,0,0,0,0,0,0,0,0,0,0,0,0,0,0,0,0,0,0,0,0,0,0,0,0,0,0,0,0,0,0,0,0,0,0,0,0,0,0,0,0,0,0,0,0,0,0,0,0,0,0,0,0,0,0,0,0,0,0,0,0,0,0,0,0,0,0,0,0,0,0,0,0,0,0,0,0,0,0,0,0,0,0,0,0,0,0,0,0,0,0,0,0,0,0,0,0,0,0,0,0,0,0,0,0,0,0,0,0,0,0,0,0,0,0,0,0,0,0,0,0,0,0,0,0,0,0,0,0,0,0,0,0,0,0,0,0,0,0,0,0,0,0,0,0,0,0,0,0,0,0,0,0,0,0,0,0,0,0,0,0,0,0,0,0,0,0,0,0,0,0,0,0,0,0,0,0,0,0,0,0,0,0,0,0,0,0,0,0,0,0,0,0,0,0,0,0,0,0,0,0,0,0,0,0,0,0,0,0,0,0,0,0,0,0,0,0,0,0,0,0,0,0,0,0,0,0,0,0,0,0,0,0,0,0,0,0,0,0,0,0,0,0,0,0,0,0,0,0,0,0,0,0,0,0,0,0,0,0,0,0,0,0,0,0,0,0,0,0,0,0,0,0,0,0,0,0,0,0,0,0,0,0,0,0,0,0,0,0,0,0,0,0,0,0,0,0,0,0,0,0,0,0,0,0,0,0,0,0,0,0,0,0,0,0,0,0,0,0,0,0,0,0,0,0,0,0,0,0,0,0,0,0,0,0,0,0,0,0,0,0,0,0,0,0,0,0,0,0,0,0,0,0,0,0,0,0,0,0,0,0,0,0,0,0,0,0,0,0,0,0,0,0,0,0,0,0,0,0,0,0,0,0,0,0,0,0,0,0,0,0,0,0,0,0,0,0,0,0,0,0,0,0,0,0,0,0,0,0,0,0,0,0,0,0,0,0,0,0,0,0,0,0,0,0,0,0,0,0,0,0,0,0,0,0,0,0,0,0,0,0,0,0,0,0,0,0,0,0,0,0,0,0,0,0,0,0,0,0,0,0,0,0,0,0,0,0,0,0,0,0,0,0,0,0,0,0,0,0,0,0,0,0,0,0,0,0,0,0,0,0,0,0,0,0,0,0,0,0,0,0,0,0,0,0,0,0,0,0,0,0,0,0,0,0],"trees":[{"base_weights":[-4.635285E-3,9.5644915E-1,-1.3244987E1,1.0614765E0,-7.7443895E0,3.0237752E-1,-1.3786846E1,2.505764E-2,-2.2051491E-1,-3.029482E-1,-4.0059723E-2,2.0406961E-2,-1.3378255E-1,-3.2647362E-1,-1.1867699E-2],"categories":[],"categories_nodes":[],"categories_segments":[],"categories_sizes":[],"default_left":[0,0,0,0,0,0,0,0,0,0,0,0,0,0,0],"id":0,"left_children":[1,3,5,7,9,11,13,-1,-1,-1,-1,-1,-1,-1,-1],"loss_changes":[2.2172923E5,1.4841859E4,8.6626875E3,1.0979863E3,6.036551E3,1.52137E2,1.9288594E3,0E0,0E0,0E0,0E0,0E0,0E0,0E0,0E0],"parents":[2147483647,0,0,1,1,2,2,3,3,4,4,5,5,6,6],"right_children":[2,4,6,8,10,12,14,-1,-1,-1,-1,-1,-1,-1,-1],"split_conditions":[8E-1,6.6E1,3.6332E2,2E-1,1.8729861E4,1.1686E2,2.1E-1,2.505764E-2,-2.2051491E-1,-3.029482E-1,-4.0059723E-2,2.0406961E-2,-1.3378255E-1,-3.2647362E-1,-1.1867699E-2],"split_indices":[43,33,0,9,42,0,7,0,0,0,0,0,0,0,0],"split_type":[0,0,0,0,0,0,0,0,0,0,0,0,0,0,0],"sum_hessian":[1.7424107E4,1.62448955E4,1.1792115E3,1.6051197E4,1.9369794E2,4.5317986E1,1.1338936E3,1.604118E4,1.0017862E1,1.0431421E2,8.9383736E1,4.1477802E1,3.8401806E0,1.1229895E3,1.0904058E1],"tree_param":{"num_deleted":"0","num_feature":"45","num_nodes":"15","size_leaf_vector":"1"}},{"base_weights":[-2.0392619E-3,1.042577E0,-8.699489E0,1.0657641E0,-9.43306E0,-5.771563E0,-1.035262E1,2.5067823E-2,-1.6709429E-1,-2.4632715E-1,-1.4835803E-2,2.8265037E-3,-1.8963896E-1,-2.4385422E-1,-8.937864E-3],"categories":[],"categories_nodes":[],"categories_segments":[],"categories_sizes":[],"default_left":[0,0,0,0,0,0,0,0,0,0,0,0,0,0,0],"id":1,"left_children":[1,3,5,7,9,11,13,-1,-1,-1,-1,-1,-1,-1,-1],"loss_changes":[1.5888911E5,3.7883477E3,9.068875E3,3.4270508E2,3.1787012E2,9.22133E3,4.8785938E2,0E0,0E0,0E0,0E0,0E0,0E0,0E0,0E0],"parents":[2147483647,0,0,1,1,2,2,3,3,4,4,5,5,6,6],"right_children":[2,4,6,8,10,12,14,-1,-1,-1,-1,-1,-1,-1,-1],"split_conditions":[6.6E1,1.912E2,1E-1,1E-1,6.677131E1,5.8024837E1,3.1E-1,2.5067823E-2,-1.6709429E-1,-2.4632715E-1,-1.4835803E-2,2.8265037E-3,-1.8963896E-1,-2.4385422E-1,-8.937864E-3],"split_indices":[37,16,9,27,3,33,8,0,0,0,0,0,0,0,0],"split_type":[0,0,0,0,0,0,0,0,0,0,0,0,0,0,0],"sum_hessian":[1.7487812E4,1.5612592E4,1.8752203E3,1.5578157E4,3.4435158E1,6.7680133E2,1.198419E3,1.55730625E4,5.094168E0,3.0666113E1,3.7690432E0,1.9064264E2,4.8615866E2,1.1934346E3,4.9843493E0],"tree_param":{"num_deleted":"0","num_feature":"45","num_nodes":"15","size_leaf_vector":"1"}},{"base_weights":[9.048496E-3,1.0595946E0,-7.311239E0,1.0646651E0,-2.1244474E-1,-7.6113787E0,8.2487935E-1,2.504888E-2,-1.8533647E-1,-1.840314E-1,1.9969843E-2,2.2466948E-2,-4.559488E-2],"categories":[],"categories_nodes":[],"categories_segments":[],"categories_sizes":[],"default_left":[0,0,0,0,0,0,0,0,0,0,0,0,0],"id":2,"left_children":[1,3,5,7,-1,9,11,-1,-1,-1,-1,-1,-1],"loss_changes":[1.3451486E5,7.8074805E2,5.3638125E3,4.0805664E2,0E0,4.171492E3,2.8214046E1,0E0,0E0,0E0,0E0,0E0,0E0],"parents":[2147483647,0,0,1,1,2,2,3,3,5,5,6,6],"right_children":[2,4,6,8,-1,10,12,-1,-1,-1,-1,-1,-1],"split_conditions":[6.470284E1,2E-1,2.1E-1,3E-1,-2.1244474E-1,4.8E-1,9.57E1,2.504888E-2,-1.8533647E-1,-1.840314E-1,1.9969843E-2,2.2466948E-2,-4.559488E-2],"split_indices":[35,27,7,18,0,28,2,0,0,0,0,0,0],"split_type":[0,0,0,0,0,0,0,0,0,0,0,0,0],"sum_hessian":[1.749188E4,1.5296694E4,2.1951877E3,1.5289077E4,7.6168447E0,2.1171445E3,7.8043045E1,1.5284015E4,5.0626907E0,2.0605532E3,5.659128E1,7.463548E1,3.407562E0],"tree_param":{"num_deleted":"0","num_feature":"45","num_nodes":"13","size_leaf_vector":"1"}},{"base_weights":[6.180881E-3,1.0396682E0,-6.1724424E0,1.0626508E0,-6.444334E0,-6.4728327E0,8.72927E-1,2.499566E-2,-1.2545432E-1,-1.6255715E-1,-5.9901737E-3,-1.5684363E-1,7.693134E-3,2.3947606E-2,-2.0986734E-2],"categories":[],"categories_nodes":[],"categories_segments":[],"categories_sizes":[],"default_left":[0,0,0,0,0,0,0,0,0,0,0,0,0,0,0],"id":3,"left_children":[1,3,5,7,9,11,13,-1,-1,-1,-1,-1,-1,-1,-1],"loss_changes":[1.11479664E5,2.5700625E3,5.297203E3,2.605E2,1.3369373E2,3.4683516E3,2.676828E1,0E0,0E0,0E0,0E0,0E0,0E0,0E0,0E0],"parents":[2147483647,0,0,1,1,2,2,3,3,4,4,5,5,6,6],"right_children":[2,4,6,8,10,12,14,-1,-1,-1,-1,-1,-1,-1,-1],"split_conditions":[6.6E1,1.912E2,2.1E-1,1E-1,9.453728E1,7.9497803E3,9E-2,2.499566E-2,-1.2545432E-1,-1.6255715E-1,-5.9901737E-3,-1.5684363E-1,7.693134E-3,2.3947606E-2,-2.0986734E-2],"split_indices":[37,16,7,27,3,3,9,0,0,0,0,0,0,0,0],"split_type":[0,0,0,0,0,0,0,0,0,0,0,0,0,0,0],"sum_hessian":[1.7458547E4,1.4956823E4,2.501724E3,1.4911097E4,4.572644E1,2.3994854E3,1.02238686E2,1.4904785E4,6.3120365E0,4.233657E1,3.3898704E0,2.3268953E3,7.259018E1,9.459576E1,7.642928E0],"tree_param":{"num_deleted":"0","num_feature":"45","num_nodes":"15","size_leaf_vector":"1"}},{"base_weights":[9.950288E-3,1.0552217E0,-5.4818926E0,1.0630968E0,-4.948863E0,-2.2960017E0,-6.145138E0,2.4998326E-2,1.2222066E-4,-1.6406035E-1,-5.6621753E-2,-1.4493069E-1,-5.3186617E-3,-1.4615591E-1,-3.863459E-2],"categories":[],"categories_nodes":[],"categories_segments":[],"categories_sizes":[],"default_left":[0,0,0,0,0,0,0,0,0,0,0,0,0,0,0],"id":4,"left_children":[1,3,5,7,9,11,13,-1,-1,-1,-1,-1,-1,-1,-1],"loss_changes":[1.0009522E5,6.9081055E2,5.8873047E3,3.6859375E1,9.457959E1,3.8565984E3,8.735E2,0E0,0E0,0E0,0E0,0E0,0E0,0E0,0E0],"parents":[2147483647,0,0,1,1,2,2,3,3,4,4,5,5,6,6],"right_children":[2,4,6,8,10,12,14,-1,-1,-1,-1,-1,-1,-1,-1],"split_conditions":[6.470284E1,1.912E2,6.3517946E-1,1.94E1,2.4808152E0,3.634759E1,3.3E-1,2.4998326E-2,1.2222066E-4,-1.6406035E-1,-5.6621753E-2,-1.4493069E-1,-5.3186617E-3,-1.4615591E-1,-3.863459E-2],"split_indices":[35,16,43,16,3,42,15,0,0,0,0,0,0,0,0],"split_type":[0,0,0,0,0,0,0,0,0,0,0,0,0,0,0],"sum_hessian":[1.7437135E4,1.4649044E4,2.7880896E3,1.4629935E4,1.9109318E1,4.805394E2,2.3075503E3,1.4596178E4,3.375752E1,1.0476178E1,8.633139E0,1.670226E2,3.1351678E2,2.264896E3,4.2654297E1],"tree_param":{"num_deleted":"0","num_feature":"45","num_nodes":"15","size_leaf_vector":"1"}},{"base_weights":[5.0506364E-3,1.0527604E0,-4.9188256E0,1.0585451E0,-1.3275826E-1,-2.1766899E0,-5.445892E0,2.4912613E-2,-6.240661E-2,2.532431E-3,-1.3257727E-1,-1.2883939E-1,1.2806738E-2],"categories":[],"categories_nodes":[],"categories_segments":[],"categories_sizes":[],"default_left":[0,0,0,0,0,0,0,0,0,0,0,0,0],"id":5,"left_children":[1,3,5,7,-1,9,11,-1,-1,-1,-1,-1,-1],"loss_changes":[8.972813E4,5.546455E2,4.4068438E3,1.7575586E2,0E0,3.9087876E3,7.026719E2,0E0,0E0,0E0,0E0,0E0,0E0],"parents":[2147483647,0,0,1,1,2,2,3,3,5,5,6,6],"right_children":[2,4,6,8,-1,10,12,-1,-1,-1,-1,-1,-1],"split_conditions":[6.470284E1,1E-1,6.3517946E-1,1.595E2,-1.3275826E-1,9E-1,3.1E-1,2.4912613E-2,-6.240661E-2,2.532431E-3,-1.3257727E-1,-1.2883939E-1,1.2806738E-2],"split_indices":[35,27,43,2,0,10,7,0,0,0,0,0,0],"split_type":[0,0,0,0,0,0,0,0,0,0,0,0,0],"sum_hessian":[1.7393596E4,1.4341983E4,3.0516118E3,1.4329703E4,1.2280169E1,4.921312E2,2.5594805E3,1.4317077E4,1.2626166E1,2.9681232E2,1.953189E2,2.540199E3,1.9281637E1],"tree_param":{"num_deleted":"0","num_feature":"45","num_nodes":"13","size_leaf_vector":"1"}},{"base_weights":[1.0998823E-2,1.0513313E0,-4.4462094E0,1.059417E0,-4.1068077E0,-1.9523011E0,-4.9040165E0,2.4925306E-2,-2.3606343E-3,-1.284111E-1,-4.6745505E-2,4.8687896E-3,-1.15423046E-1,-1.1591523E-1,1.2321597E-2],"categories":[],"categories_nodes":[],"categories_segments":[],"categories_sizes":[],"default_left":[0,0,0,0,0,0,0,0,0,0,0,0,0,0,0],"id":6,"left_children":[1,3,5,7,9,11,13,-1,-1,-1,-1,-1,-1,-1,-1],"loss_changes":[8.023963E4,5.8371875E2,3.7354336E3,4.8907227E1,5.9646393E1,3.25832E3,5.5290625E2,0E0,0E0,0E0,0E0,0E0,0E0,0E0,0E0],"parents":[2147483647,0,0,1,1,2,2,3,3,4,4,5,5,6,6],"right_children":[2,4,6,8,10,12,14,-1,-1,-1,-1,-1,-1,-1,-1],"split_conditions":[6.470284E1,1.912E2,6.3517946E-1,1.94E1,1.9428699E-1,8E-1,3.1E-1,2.4925306E-2,-2.3606343E-3,-1.284111E-1,-4.6745505E-2,4.8687896E-3,-1.15423046E-1,-1.1591523E-1,1.2321597E-2],"split_indices":[35,16,43,16,38,10,8,0,0,0,0,0,0,0,0],"split_type":[0,0,0,0,0,0,0,0,0,0,0,0,0,0,0],"sum_hessian":[1.7304637E4,1.4030063E4,3.2745735E3,1.4008197E4,2.18663E1,5.080427E2,2.7665308E3,1.3972689E4,3.5507565E1,1.3145603E1,8.720697E0,2.9394046E2,2.1410225E2,2.7480557E3,1.8475065E1],"tree_param":{"num_deleted":"0","num_feature":"45","num_nodes":"15","size_leaf_vector":"1"}},{"base_weights":[1.0990199E-2,1.0488926E0,-4.075169E0,-4.372286E0,1.0551463E0,-4.198789E0,8.8060534E-1,-1.1911445E-1,-4.2125568E-2,2.4839504E-2,-6.765991E-2,-1.007461E-1,2.3032852E-2,2.3547117E-2,-2.981845E-2],"categories":[],"categories_nodes":[],"categories_segments":[],"categories_sizes":[],"default_left":[0,0,0,0,0,0,0,0,0,0,0,0,0,0,0],"id":7,"left_children":[1,3,5,7,9,11,13,-1,-1,-1,-1,-1,-1,-1,-1],"loss_changes":[7.298134E4,4.6368652E2,2.1369766E3,2.5305328E1,1.9325586E2,1.6813164E3,2.2310005E1,0E0,0E0,0E0,0E0,0E0,0E0,0E0,0E0],"parents":[2147483647,0,0,1,1,2,2,3,3,4,4,5,5,6,6],"right_children":[2,4,6,8,10,12,14,-1,-1,-1,-1,-1,-1,-1,-1],"split_conditions":[6.470284E1,9.4E-1,2.1E-1,6.2E-1,1.595E2,5.6E-1,9.57E1,-1.1911445E-1,-4.2125568E-2,2.4839504E-2,-6.765991E-2,-1.007461E-1,2.3032852E-2,2.3547117E-2,-2.981845E-2],"split_indices":[35,30,7,24,2,28,2,0,0,0,0,0,0,0,0],"split_type":[0,0,0,0,0,0,0,0,0,0,0,0,0,0,0],"sum_hessian":[1.7208717E4,1.37231045E4,3.4856128E3,1.5724544E1,1.370738E4,3.4008743E3,8.47385E1,1.2202848E1,3.5216954E0,1.3695001E4,1.2378724E1,3.3395059E3,6.13683E1,8.036236E1,4.3761435E0],"tree_param":{"num_deleted":"0","num_feature":"45","num_nodes":"15","size_leaf_vector":"1"}},{"base_weights":[8.498287E-3,1.046866E0,-3.7732913E0,1.0535607E0,-4.24129E0,-1.7433438E0,-4.125586E0,2.4792217E-2,-1.6863006E-1,-1.1016194E-1,-6.423839E-2,5.0405604E-3,-9.7756796E-2,-9.7445734E-2,1.9683223E-2],"categories":[],"categories_nodes":[],"categories_segments":[],"categories_sizes":[],"default_left":[0,0,0,0,0,0,0,0,0,0,0,0,0,0,0],"id":8,"left_children":[1,3,5,7,9,11,13,-1,-1,-1,-1,-1,-1,-1,-1],"loss_changes":[6.7227555E4,4.7403125E2,2.634625E3,3.470498E2,8.013489E0,2.5909087E3,4.363828E2,0E0,0E0,0E0,0E0,0E0,0E0,0E0,0E0],"parents":[2147483647,0,0,1,1,2,2,3,3,4,4,5,5,6,6],"right_children":[2,4,6,8,10,12,14,-1,-1,-1,-1,-1,-1,-1,-1],"split_conditions":[6.470284E1,1E-1,6.3517946E-1,8.8E-1,6.1E-1,8E-1,4.1E-1,2.4792217E-2,-1.6863006E-1,-1.1016194E-1,-6.423839E-2,5.0405604E-3,-9.7756796E-2,-9.7445734E-2,1.9683223E-2],"split_indices":[35,27,43,18,10,10,7,0,0,0,0,0,0,0,0],"split_type":[0,0,0,0,0,0,0,0,0,0,0,0,0,0,0],"sum_hessian":[1.7120127E4,1.3432175E4,3.687953E3,1.3415281E4,1.689334E1,5.4558655E2,3.1423665E3,1.3410188E4,5.09235E0,1.2730886E1,4.162453E0,3.016481E2,2.4393843E2,3.1249177E3,1.7448853E1],"tree_param":{"num_deleted":"0","num_feature":"45","num_nodes":"15","size_leaf_vector":"1"}},{"base_weights":[1.2343836E-2,1.0262237E0,-3.492685E0,1.0525427E0,-3.6692474E0,-5.4626673E-1,-3.6125183E0,2.4765715E-2,-8.30776E-2,-9.0071365E-2,-0E0,2.0036254E-2,-7.232273E-2,-8.6746015E-2,1.9867163E-2],"categories":[],"categories_nodes":[],"categories_segments":[],"categories_sizes":[],"default_left":[0,0,0,0,0,0,0,0,0,0,0,0,0,0,0],"id":9,"left_children":[1,3,5,7,9,11,13,-1,-1,-1,-1,-1,-1,-1,-1],"loss_changes":[6.0321836E4,1.625877E3,1.3427148E3,1.8248828E2,4.43703E1,5.302231E2,1.3865156E3,0E0,0E0,0E0,0E0,0E0,0E0,0E0,0E0],"parents":[2147483647,0,0,1,1,2,2,3,3,4,4,5,5,6,6],"right_children":[2,4,6,8,10,12,14,-1,-1,-1,-1,-1,-1,-1,-1],"split_conditions":[6.6E1,1.912E2,2.7515E3,1E-1,1.0731496E2,9E-2,7.9497803E3,2.4765715E-2,-8.30776E-2,-9.0071365E-2,-0E0,2.0036254E-2,-7.232273E-2,-8.6746015E-2,1.9867163E-2],"split_indices":[37,16,0,27,4,9,4,0,0,0,0,0,0,0,0],"split_type":[0,0,0,0,0,0,0,0,0,0,0,0,0,0,0],"sum_hessian":[1.6974807E4,1.3166378E4,3.808428E3,1.309309E4,7.328826E1,1.4899269E2,3.6594353E3,1.3084495E4,8.594507E0,6.995574E1,3.3325174E0,9.587604E1,5.311665E1,3.5911836E3,6.825177E1],"tree_param":{"num_deleted":"0","num_feature":"45","num_nodes":"15","size_leaf_vector":"1"}},{"base_weights":[1.8604547E-2,1.0450974E0,-3.288605E0,1.0537905E0,-3.1721635E0,-1.6473838E0,-3.603153E0,2.476845E-2,-6.6047154E-2,-8.9468E-2,1.0642788E-2,-9.790683E-2,-6.66866E-3,-8.529207E-2,-9.739749E-3],"categories":[],"categories_nodes":[],"categories_segments":[],"categories_sizes":[],"default_left":[0,0,0,0,0,0,0,0,0,0,0,0,0,0,0],"id":10,"left_children":[1,3,5,7,9,11,13,-1,-1,-1,-1,-1,-1,-1,-1],"loss_changes":[5.714928E4,4.6999707E2,2.0559688E3,9.453613E1,6.2774536E1,2.2066533E3,3.4235938E2,0E0,0E0,0E0,0E0,0E0,0E0,0E0,0E0],"parents":[2147483647,0,0,1,1,2,2,3,3,4,4,5,5,6,6],"right_children":[2,4,6,8,10,12,14,-1,-1,-1,-1,-1,-1,-1,-1],"split_conditions":[6.470284E1,1.912E2,8E-1,1E-1,8.8164444E1,8.2666664E1,6.2E-1,2.476845E-2,-6.6047154E-2,-8.9468E-2,1.0642788E-2,-9.790683E-2,-6.66866E-3,-8.529207E-2,-9.739749E-3],"split_indices":[35,16,43,27,4,44,15,0,0,0,0,0,0,0,0],"split_type":[0,0,0,0,0,0,0,0,0,0,0,0,0,0,0],"sum_hessian":[1.6834537E4,1.2847171E4,3.9873655E3,1.2820855E4,2.6315357E1,6.415334E2,3.3458323E3,1.281461E4,6.244957E0,2.24712E1,3.8441553E0,2.2475089E2,4.1678247E2,3.3121514E3,3.3680897E1],"tree_param":{"num_deleted":"0","num_feature":"45","num_nodes":"15","size_leaf_vector":"1"}},{"base_weights":[1.4885385E-2,1.0412596E0,-3.0950615E0,1.050913E0,-3.1613684E0,-3.177034E0,8.3095056E-1,-9.838372E-2,2.4702076E-2,-5.031421E-2,-9.815178E-2,-7.61228E-2,2.1974022E-2,2.3799816E-2,-1.5409679E-2],"categories":[],"categories_nodes":[],"categories_segments":[],"categories_sizes":[],"default_left":[0,0,0,0,0,0,0,0,0,0,0,0,0,0,0],"id":11,"left_children":[1,3,5,7,9,11,13,-1,-1,-1,-1,-1,-1,-1,-1],"loss_changes":[5.3407594E4,5.0938672E2,1.33725E3,1.2825684E2,2.6854156E1,1.1315508E3,2.3316055E1,0E0,0E0,0E0,0E0,0E0,0E0,0E0,0E0],"parents":[2147483647,0,0,1,1,2,2,3,3,4,4,5,5,6,6],"right_children":[2,4,6,8,10,12,14,-1,-1,-1,-1,-1,-1,-1,-1],"split_conditions":[6.470284E1,1.912E2,2.1E-1,9E-1,7.436E2,4.8E-1,9E-2,-9.838372E-2,2.4702076E-2,-5.031421E-2,-9.815178E-2,-7.61228E-2,2.1974022E-2,2.3799816E-2,-1.5409679E-2],"split_indices":[35,16,7,30,16,28,9,0,0,0,0,0,0,0,0],"split_type":[0,0,0,0,0,0,0,0,0,0,0,0,0,0,0],"sum_hessian":[1.6732164E4,1.258041E4,4.151754E3,1.2551692E4,2.8717815E1,4.0669592E3,8.479489E1,4.624486E0,1.2547067E4,1.4629746E1,1.408807E1,4.0013481E3,6.561117E1,7.576837E1,9.026516E0],"tree_param":{"num_deleted":"0","num_feature":"45","num_nodes":"15","size_leaf_vector":"1"}},{"base_weights":[1.7152533E-2,1.0397375E0,-2.927003E0,1.0504996E0,-2.6327019E0,-1.3738441E0,-3.1867876E0,2.4700833E-2,-2.0127924E-2,-7.571804E-2,1.8773654E-2,3.1114316E-3,-8.0451906E-2,-7.543271E-2,-7.0132674E-3],"categories":[],"categories_nodes":[],"categories_segments":[],"categories_sizes":[],"default_left":[0,0,0,0,0,0,0,0,0,0,0,0,0,0,0],"id":12,"left_children":[1,3,5,7,9,11,13,-1,-1,-1,-1,-1,-1,-1,-1],"loss_changes":[4.9855996E4,4.8504102E2,1.7202969E3,5.4623047E1,7.420079E1,1.8963583E3,2.9830078E2,0E0,0E0,0E0,0E0,0E0,0E0,0E0,0E0],"parents":[2147483647,0,0,1,1,2,2,3,3,4,4,5,5,6,6],"right_children":[2,4,6,8,10,12,14,-1,-1,-1,-1,-1,-1,-1,-1],"split_conditions":[6.470284E1,9.35E1,6.3517946E-1,1E-1,1.0731496E2,1E0,6.2E-1,2.4700833E-2,-2.0127924E-2,-7.571804E-2,1.8773654E-2,3.1114316E-3,-8.0451906E-2,-7.543271E-2,-7.0132674E-3],"split_indices":[35,16,43,9,3,10,15,0,0,0,0,0,0,0,0],"split_type":[0,0,0,0,0,0,0,0,0,0,0,0,0,0,0],"sum_hessian":[1.6560176E4,1.2291251E4,4.268924E3,1.2255466E4,3.5785114E1,6.119743E2,3.6569495E3,1.224076E4,1.47062235E1,3.0618814E1,5.1663017E0,3.5300378E2,2.5897055E2,3.6211704E3,3.5779068E1],"tree_param":{"num_deleted":"0","num_feature":"45","num_nodes":"15","size_leaf_vector":"1"}},{"base_weights":[1.9520331E-2,1.0406E0,-2.7700195E0,1.0473307E0,-3.0456398E0,-1.3951935E0,-3.0251596E0,2.4637803E-2,-1.1645386E-1,-7.856702E-2,-4.1471723E-2,-8.259078E-2,-4.330813E-3,-2.2899233E-2,-7.124585E-2],"categories":[],"categories_nodes":[],"categories_segments":[],"categories_sizes":[],"default_left":[0,0,0,0,0,0,0,0,0,0,0,0,0,0,0],"id":13,"left_children":[1,3,5,7,9,11,13,-1,-1,-1,-1,-1,-1,-1,-1],"loss_changes":[4.6882043E4,3.3045996E2,1.5449453E3,2.0161328E2,5.2115936E0,1.7750432E3,8.631641E1,0E0,0E0,0E0,0E0,0E0,0E0,0E0,0E0],"parents":[2147483647,0,0,1,1,2,2,3,3,4,4,5,5,6,6],"right_children":[2,4,6,8,10,12,14,-1,-1,-1,-1,-1,-1,-1,-1],"split_conditions":[6.470284E1,1E-1,8E-1,7E-1,1.9428699E-1,1.9428699E-1,5.8065205E1,2.4637803E-2,-1.1645386E-1,-7.856702E-2,-4.1471723E-2,-8.259078E-2,-4.330813E-3,-2.2899233E-2,-7.124585E-2],"split_indices":[35,27,43,18,38,38,37,0,0,0,0,0,0,0,0],"split_type":[0,0,0,0,0,0,0,0,0,0,0,0,0,0,0],"sum_hessian":[1.64597E4,1.2049343E4,4.410356E3,1.2029645E4,1.9698847E1,6.906475E2,3.7197085E3,1.2024096E4,5.5489564E0,1.5622251E1,4.076596E0,2.505094E2,4.4013815E2,2.1119932E1,3.6985886E3],"tree_param":{"num_deleted":"0","num_feature":"45","num_nodes":"15","size_leaf_vector":"1"}},{"base_weights":[1.6405566E-2,1.0187259E0,-2.6428583E0,1.0458267E0,-2.55256E0,-1.2086406E0,-2.8856785E0,2.4620853E-2,-1.17815934E-1,6.081129E-3,-6.914511E-2,3.5070966E-3,-7.3030025E-2,-6.804888E-2,1.8888677E-2],"categories":[],"categories_nodes":[],"categories_segments":[],"categories_sizes":[],"default_left":[0,0,0,0,0,0,0,0,0,0,0,0,0,0,0],"id":14,"left_children":[1,3,5,7,9,11,13,-1,-1,-1,-1,-1,-1,-1,-1],"loss_changes":[4.349546E4,1.1463555E3,1.5537012E3,2.547207E2,1.0016736E2,1.674719E3,2.0949023E2,0E0,0E0,0E0,0E0,0E0,0E0,0E0,0E0],"parents":[2147483647,0,0,1,1,2,2,3,3,4,4,5,5,6,6],"right_children":[2,4,6,8,10,12,14,-1,-1,-1,-1,-1,-1,-1,-1],"split_conditions":[6.6E1,1E-1,6.3517946E-1,8.8E-1,8E-1,1E0,3.1E-1,2.4620853E-2,-1.17815934E-1,6.081129E-3,-6.914511E-2,3.5070966E-3,-7.3030025E-2,-6.804888E-2,1.8888677E-2],"split_indices":[37,9,43,18,43,10,8,0,0,0,0,0,0,0,0],"split_type":[0,0,0,0,0,0,0,0,0,0,0,0,0,0,0],"sum_hessian":[1.6318626E4,1.1851702E4,4.466924E3,1.1762574E4,8.912768E1,6.470533E2,3.8198706E3,1.17556875E4,6.887028E0,1.082242E1,7.830526E1,3.7753217E2,2.6952112E2,3.804753E3,1.5117582E1],"tree_param":{"num_deleted":"0","num_feature":"45","num_nodes":"15","size_leaf_vector":"1"}},{"base_weights":[2.133437E-2,1.0361083E0,-2.5240784E0,1.0463282E0,-2.2173643E0,-1.6819793E0,-2.7176673E0,2.4599679E-2,-5.9568413E-2,-5.9788994E-2,1.7216926E-2,9.845474E-3,-5.312852E-2,-6.428782E-2,-7.1108607E-3],"categories":[],"categories_nodes":[],"categories_segments":[],"categories_sizes":[],"default_left":[0,0,0,0,0,0,0,0,0,0,0,0,0,0,0],"id":15,"left_children":[1,3,5,7,9,11,13,-1,-1,-1,-1,-1,-1,-1,-1],"loss_changes":[4.1644445E4,3.8273535E2,7.470625E2,8.9581055E1,3.598239E1,1.0530288E3,2.0145117E2,0E0,0E0,0E0,0E0,0E0,0E0,0E0,0E0],"parents":[2147483647,0,0,1,1,2,2,3,3,4,4,5,5,6,6],"right_children":[2,4,6,8,10,12,14,-1,-1,-1,-1,-1,-1,-1,-1],"split_conditions":[6.470284E1,9.35E1,3.3035E4,1E-1,4.3E-1,2.3804164E0,3.3E-1,2.4599679E-2,-5.9568413E-2,-5.9788994E-2,1.7216926E-2,9.845474E-3,-5.312852E-2,-6.428782E-2,-7.1108607E-3],"split_indices":[35,16,0,27,15,16,15,0,0,0,0,0,0,0,0],"split_type":[0,0,0,0,0,0,0,0,0,0,0,0,0,0,0],"sum_hessian":[1.6122667E4,1.1527293E4,4.5953735E3,1.1491342E4,3.5951332E1,8.594173E2,3.7359563E3,1.1484455E4,6.8866625E0,3.246926E1,3.4820707E0,1.8634042E2,6.730769E2,3.7012842E3,3.4672276E1],"tree_param":{"num_deleted":"0","num_feature":"45","num_nodes":"15","size_leaf_vector":"1"}},{"base_weights":[1.3083524E-2,1.0341473E0,-2.4295897E0,1.0454053E0,-2.1704805E0,-1.2222388E0,-2.647142E0,2.4585545E-2,-1.8585471E-2,-6.1442606E-2,1.8631361E-2,4.3614055E-3,-6.2040232E-2,-6.265538E-2,-5.960785E-3],"categories":[],"categories_nodes":[],"categories_segments":[],"categories_sizes":[],"default_left":[0,0,0,0,0,0,0,0,0,0,0,0,0,0,0],"id":16,"left_children":[1,3,5,7,9,11,13,-1,-1,-1,-1,-1,-1,-1,-1],"loss_changes":[3.985867E4,4.0608008E2,1.2355547E3,5.19541E1,5.3117508E1,1.4421708E3,2.2247852E2,0E0,0E0,0E0,0E0,0E0,0E0,0E0,0E0],"parents":[2147483647,0,0,1,1,2,2,3,3,4,4,5,5,6,6],"right_children":[2,4,6,8,10,12,14,-1,-1,-1,-1,-1,-1,-1,-1],"split_conditions":[6.470284E1,9.35E1,8E-1,1E-1,1.03035164E2,8E-1,6.2E-1,2.4585545E-2,-1.8585471E-2,-6.1442606E-2,1.8631361E-2,4.3614055E-3,-6.2040232E-2,-6.265538E-2,-5.960785E-3],"split_indices":[35,16,43,9,3,10,15,0,0,0,0,0,0,0,0],"split_type":[0,0,0,0,0,0,0,0,0,0,0,0,0,0,0],"sum_hessian":[1.5981284E4,1.1270351E4,4.710934E3,1.1231043E4,3.93072E1,7.1959045E2,3.9913435E3,1.1215971E4,1.5072349E1,3.4281345E1,5.0258555E0,3.6140665E2,3.5818378E2,3.9524375E3,3.8906E1],"tree_param":{"num_deleted":"0","num_feature":"45","num_nodes":"15","size_leaf_vector":"1"}},{"base_weights":[1.2419787E-2,9.224367E-1,-2.4917903E0,1.0167841E0,-2.2425213E0,-2.5361447E0,6.5134263E-1,2.4393205E-2,-9.864185E-2,1.5166777E-2,-6.1235994E-2,-6.0107853E-2,2.2259425E-2,-7.958291E-3,2.492008E-2],"categories":[],"categories_nodes":[],"categories_segments":[],"categories_sizes":[],"default_left":[0,0,0,0,0,0,0,0,0,0,0,0,0,0,0],"id":17,"left_children":[1,3,5,7,9,11,13,-1,-1,-1,-1,-1,-1,-1,-1],"loss_changes":[3.6065684E4,3.465708E3,5.889531E2,1.3483389E3,3.5758923E2,3.7548633E2,2.4168282E1,0E0,0E0,0E0,0E0,0E0,0E0,0E0,0E0],"parents":[2147483647,0,0,1,1,2,2,3,3,4,4,5,5,6,6],"right_children":[2,4,6,8,10,12,14,-1,-1,-1,-1,-1,-1,-1,-1],"split_conditions":[6.3517946E-1,9.35E1,2.1E-1,1.03E3,8E-1,4.1E-1,5.1E-1,2.4393205E-2,-9.864185E-2,1.5166777E-2,-6.1235994E-2,-6.0107853E-2,2.2259425E-2,-7.958291E-3,2.492008E-2],"split_indices":[43,16,7,34,10,8,7,0,0,0,0,0,0,0,0],"split_type":[0,0,0,0,0,0,0,0,0,0,0,0,0,0,0],"sum_hessian":[1.5826423E4,1.1608239E4,4.2181846E3,1.1272359E4,3.3587924E2,4.159636E3,5.8548386E1,1.1223152E4,4.92073E1,3.776498E1,2.9811426E2,4.129143E3,3.0493174E1,1.6827497E1,4.1720886E1],"tree_param":{"num_deleted":"0","num_feature":"45","num_nodes":"15","size_leaf_vector":"1"}},{"base_weights":[1.8733399E-2,1.0107841E0,-2.2350435E0,1.0392492E0,-2.2181656E0,-1.1167593E0,-2.4477344E0,2.4480417E-2,-8.720301E-2,-5.7496216E-2,2.3158472E-2,-6.6641934E-2,-1.2786293E-3,-5.763248E-2,1.0708984E-2],"categories":[],"categories_nodes":[],"categories_segments":[],"categories_sizes":[],"default_left":[0,0,0,0,0,0,0,0,0,0,0,0,0,0,0],"id":18,"left_children":[1,3,5,7,9,11,13,-1,-1,-1,-1,-1,-1,-1,-1],"loss_changes":[3.494065E4,9.9681934E2,1.1343438E3,2.1294238E2,7.1255066E1,1.3968457E3,1.0293555E2,0E0,0E0,0E0,0E0,0E0,0E0,0E0,0E0],"parents":[2147483647,0,0,1,1,2,2,3,3,4,4,5,5,6,6],"right_children":[2,4,6,8,10,12,14,-1,-1,-1,-1,-1,-1,-1,-1],"split_conditions":[6.6E1,1E-1,8E-1,5.6E-1,1.0731496E2,8.2666664E1,3.1E-1,2.4480417E-2,-8.720301E-2,-5.7496216E-2,2.3158472E-2,-6.6641934E-2,-1.2786293E-3,-5.763248E-2,1.0708984E-2],"split_indices":[37,9,43,18,4,44,8,0,0,0,0,0,0,0,0],"split_type":[0,0,0,0,0,0,0,0,0,0,0,0,0,0,0],"sum_hessian":[1.5627637E4,1.0851371E4,4.7762656E3,1.0756691E4,9.467967E1,7.6360706E2,4.0126587E3,1.074733E4,9.360918E0,8.841353E1,6.2661448E0,2.9098193E2,4.7262515E2,4.000765E3,1.1893813E1],"tree_param":{"num_deleted":"0","num_feature":"45","num_nodes":"15","size_leaf_vector":"1"}},{"base_weights":[2.2467194E-2,1.0117936E0,-2.1566124E0,1.0414838E0,-1.9788492E0,-2.2219226E0,9.0052694E-1,2.4508229E-2,-5.9890006E-2,-5.3469434E-2,1.5267308E-2,-5.334982E-2,1.272206E-2,2.3723427E-2,-4.5710072E-2],"categories":[],"categories_nodes":[],"categories_segments":[],"categories_sizes":[],"default_left":[0,0,0,0,0,0,0,0,0,0,0,0,0,0,0],"id":19,"left_children":[1,3,5,7,9,11,13,-1,-1,-1,-1,-1,-1,-1,-1],"loss_changes":[3.3178047E4,9.3941113E2,9.600879E2,1.1749219E2,8.278238E1,6.7740234E2,3.1194237E1,0E0,0E0,0E0,0E0,0E0,0E0,0E0,0E0],"parents":[2147483647,0,0,1,1,2,2,3,3,4,4,5,5,6,6],"right_children":[2,4,6,8,10,12,14,-1,-1,-1,-1,-1,-1,-1,-1],"split_conditions":[6.6E1,4.235E1,2.1E-1,1E-1,1.0731496E2,7.9497803E3,1.134E2,2.4508229E-2,-5.9890006E-2,-5.3469434E-2,1.5267308E-2,-5.334982E-2,1.272206E-2,2.3723427E-2,-4.5710072E-2],"split_indices":[37,16,7,27,3,3,2,0,0,0,0,0,0,0,0],"split_type":[0,0,0,0,0,0,0,0,0,0,0,0,0,0,0],"sum_hessian":[1.5390231E4,1.0584821E4,4.80541E3,1.0480929E4,1.0389264E2,4.70505E3,1.00360245E2,1.0471918E4,9.010016E0,9.340869E1,1.0483945E1,4.618303E3,8.674666E1,9.676824E1,3.592003E0],"tree_param":{"num_deleted":"0","num_feature":"45","num_nodes":"15","size_leaf_vector":"1"}},{"base_weights":[2.2165054E-2,1.0291257E0,-2.0909212E0,1.0366366E0,-2.436472E0,-2.1414683E0,8.469641E-1,2.441308E-2,-7.984443E-2,-2.3134362E-2,-6.249044E-2,-5.127712E-2,2.3951305E-2,-1.1548884E-3,2.530407E-2],"categories":[],"categories_nodes":[],"categories_segments":[],"categories_sizes":[],"default_left":[0,0,0,0,0,0,0,0,0,0,0,0,0,0,0],"id":20,"left_children":[1,3,5,7,9,11,13,-1,-1,-1,-1,-1,-1,-1,-1],"loss_changes":[3.2431686E4,2.6805078E2,7.3110547E2,1.7859277E2,5.583191E0,6.7546484E2,1.7720947E1,0E0,0E0,0E0,0E0,0E0,0E0,0E0,0E0],"parents":[2147483647,0,0,1,1,2,2,3,3,4,4,5,5,6,6],"right_children":[2,4,6,8,10,12,14,-1,-1,-1,-1,-1,-1,-1,-1],"split_conditions":[6.470284E1,1E-1,2.1E-1,7E-1,2E-1,5.6E-1,5.1E-1,2.441308E-2,-7.984443E-2,-2.3134362E-2,-6.249044E-2,-5.127712E-2,2.3951305E-2,-1.1548884E-3,2.530407E-2],"split_indices":[35,27,7,18,27,28,7,0,0,0,0,0,0,0,0],"split_type":[0,0,0,0,0,0,0,0,0,0,0,0,0,0,0],"sum_hessian":[1.5242158E4,1.0323072E4,4.9190864E3,1.0300884E4,2.2188097E1,4.8360415E3,8.304468E1,1.0291883E4,9.001291E0,3.285583E0,1.8902514E1,4.76963E3,6.641177E1,1.6634333E1,6.641035E1],"tree_param":{"num_deleted":"0","num_feature":"45","num_nodes":"15","size_leaf_vector":"1"}},{"base_weights":[1.777014E-2,9.093342E-1,-2.1654887E0,1.0092053E0,-1.9963466E0,-2.2035873E0,6.0826665E-1,2.4275213E-2,-8.195291E-2,1.593326E-2,-5.39183E-2,1.5003965E-2,-5.1966853E-2,2.5252152E-2,-6.601021E-2],"categories":[],"categories_nodes":[],"categories_segments":[],"categories_sizes":[],"default_left":[0,0,0,0,0,0,0,0,0,0,0,0,0,0,0],"id":21,"left_children":[1,3,5,7,9,11,13,-1,-1,-1,-1,-1,-1,-1,-1],"loss_changes":[2.9329027E4,3.104296E3,4.624375E2,1.1856406E3,2.8772876E2,1.4056836E2,9.3723816E1,0E0,0E0,0E0,0E0,0E0,0E0,0E0,0E0],"parents":[2147483647,0,0,1,1,2,2,3,3,4,4,5,5,6,6],"right_children":[2,4,6,8,10,12,14,-1,-1,-1,-1,-1,-1,-1,-1],"split_conditions":[6.3517946E-1,9.35E1,2.1E-1,3.4707085E1,6.9E-1,1.1686E2,2E-1,2.4275213E-2,-8.195291E-2,1.593326E-2,-5.39183E-2,1.5003965E-2,-5.1966853E-2,2.5252152E-2,-6.601021E-2],"split_indices":[43,16,8,40,10,0,13,0,0,0,0,0,0,0,0],"split_type":[0,0,0,0,0,0,0,0,0,0,0,0,0,0,0],"sum_hessian":[1.5067756E4,1.069892E4,4.3688354E3,1.0343564E4,3.5535565E2,4.309809E3,5.9026447E1,1.0285452E4,5.8112663E1,3.5866123E1,3.1948953E2,1.7063427E1,4.2927456E3,5.2045845E1,6.9806004E0],"tree_param":{"num_deleted":"0","num_feature":"45","num_nodes":"15","size_leaf_vector":"1"}},{"base_weights":[1.5143608E-2,1.0058619E0,-1.9634717E0,1.03714E0,-1.980905E0,-9.689425E-1,-2.1502998E0,2.4378326E-2,-7.886035E-2,-4.9267087E-2,2.2642009E-2,4.846911E-3,-5.0308675E-2,-5.063715E-2,1.507319E-2],"categories":[],"categories_nodes":[],"categories_segments":[],"categories_sizes":[],"default_left":[0,0,0,0,0,0,0,0,0,0,0,0,0,0,0],"id":22,"left_children":[1,3,5,7,9,11,13,-1,-1,-1,-1,-1,-1,-1,-1],"loss_changes":[2.918777E4,9.264883E2,9.2159375E2,8.2893555E1,3.653839E1,1.0870137E3,9.441211E1,0E0,0E0,0E0,0E0,0E0,0E0,0E0,0E0],"parents":[2147483647,0,0,1,1,2,2,3,3,4,4,5,5,6,6],"right_children":[2,4,6,8,10,12,14,-1,-1,-1,-1,-1,-1,-1,-1],"split_conditions":[6.6E1,9.35E1,8E-1,2E-1,2.1E-1,8E-1,3.1E-1,2.4378326E-2,-7.886035E-2,-4.9267087E-2,2.2642009E-2,4.846911E-3,-5.0308675E-2,-5.063715E-2,1.507319E-2],"split_indices":[37,16,43,27,7,10,8,0,0,0,0,0,0,0,0],"split_type":[0,0,0,0,0,0,0,0,0,0,0,0,0,0,0],"sum_hessian":[1.4890046E4,9.922141E3,4.9679053E3,9.819468E3,1.0267312E2,7.8606006E2,4.181845E3,9.815236E3,4.2312994E0,9.8840355E1,3.832767E0,3.928038E2,3.9325623E2,4.1700356E3,1.1809444E1],"tree_param":{"num_deleted":"0","num_feature":"45","num_nodes":"15","size_leaf_vector":"1"}},{"base_weights":[1.1416656E-2,1.0267638E0,-1.9055204E0,1.0357014E0,-1.4042273E0,-9.841272E-1,-2.070392E0,2.4372248E-2,-8.082598E-2,-4.3723978E-2,2.2896614E-2,-5.666489E-2,-6.874754E-4,-4.883552E-2,2.114279E-2],"categories":[],"categories_nodes":[],"categories_segments":[],"categories_sizes":[],"default_left":[0,0,0,0,0,0,0,0,0,0,0,0,0,0,0],"id":23,"left_children":[1,3,5,7,9,11,13,-1,-1,-1,-1,-1,-1,-1,-1],"loss_changes":[2.8787066E4,2.0991113E2,7.765332E2,1.3372656E2,3.8940895E1,1.0615907E3,1.4433008E2,0E0,0E0,0E0,0E0,0E0,0E0,0E0,0E0],"parents":[2147483647,0,0,1,1,2,2,3,3,4,4,5,5,6,6],"right_children":[2,4,6,8,10,12,14,-1,-1,-1,-1,-1,-1,-1,-1],"split_conditions":[6.470284E1,1E-1,8E-1,7E-1,1.0731496E2,8.2666664E1,4.1E-1,2.4372248E-2,-8.082598E-2,-4.3723978E-2,2.2896614E-2,-5.666489E-2,-6.874754E-4,-4.883552E-2,2.114279E-2],"split_indices":[35,9,43,18,3,44,7,0,0,0,0,0,0,0,0],"split_type":[0,0,0,0,0,0,0,0,0,0,0,0,0,0,0],"sum_hessian":[1.4790443E4,9.669193E3,5.1212505E3,9.633968E3,3.522476E1,7.7773096E2,4.3435195E3,9.627362E3,6.6062746E0,2.969192E1,5.5328393E0,3.1104E2,4.6669092E2,4.3274575E3,1.606231E1],"tree_param":{"num_deleted":"0","num_feature":"45","num_nodes":"15","size_leaf_vector":"1"}},{"base_weights":[8.536221E-3,1.0032307E0,-1.8538557E0,1.0360898E0,-1.7347633E0,-1.9056553E0,8.7218684E-1,2.4382722E-2,-4.4575628E-2,2.1721518E-2,-4.6853486E-2,-4.566424E-2,2.3288732E-2,2.3509195E-2,-1.9952305E-2],"categories":[],"categories_nodes":[],"categories_segments":[],"categories_sizes":[],"default_left":[0,0,0,0,0,0,0,0,0,0,0,0,0,0,0],"id":24,"left_children":[1,3,5,7,9,11,13,-1,-1,-1,-1,-1,-1,-1,-1],"loss_changes":[2.6979697E4,8.538037E2,7.1645703E2,8.724805E1,7.8954956E1,5.8749023E2,2.1183716E1,0E0,0E0,0E0,0E0,0E0,0E0,0E0,0E0],"parents":[2147483647,0,0,1,1,2,2,3,3,4,4,5,5,6,6],"right_children":[2,4,6,8,10,12,14,-1,-1,-1,-1,-1,-1,-1,-1],"split_conditions":[6.6E1,4.235E1,2.1E-1,1E-1,2E-1,4.8E-1,9.57E1,2.4382722E-2,-4.4575628E-2,2.1721518E-2,-4.6853486E-2,-4.566424E-2,2.3288732E-2,2.3509195E-2,-1.9952305E-2],"split_indices":[37,16,7,27,10,28,2,0,0,0,0,0,0,0,0],"split_type":[0,0,0,0,0,0,0,0,0,0,0,0,0,0,0],"sum_hessian":[1.4564067E4,9.493753E3,5.070314E3,9.38134E3,1.1241366E2,4.9759355E3,9.437803E1,9.371344E3,9.995918E0,9.925797E0,1.02487854E2,4.90718E3,6.875576E1,8.8017555E1,6.360469E0],"tree_param":{"num_deleted":"0","num_feature":"45","num_nodes":"15","size_leaf_vector":"1"}},{"base_weights":[1.5108873E-2,1.0015768E0,-1.8044523E0,1.0359706E0,-1.7343017E0,-1.8420583E0,1.0032954E0,2.4370052E-2,-4.1507848E-2,1.7950201E-2,-4.657533E-2,-4.4271164E-2,1.3576377E-2,-1.12751746E-4,2.5738811E-2],"categories":[],"categories_nodes":[],"categories_segments":[],"categories_sizes":[],"default_left":[0,0,0,0,0,0,0,0,0,0,0,0,0,0,0],"id":25,"left_children":[1,3,5,7,9,11,13,-1,-1,-1,-1,-1,-1,-1,-1],"loss_changes":[2.5765453E4,8.7557324E2,5.3322266E2,7.0868164E1,7.294064E1,5.42166E2,6.80497E0,0E0,0E0,0E0,0E0,0E0,0E0,0E0,0E0],"parents":[2147483647,0,0,1,1,2,2,3,3,4,4,5,5,6,6],"right_children":[2,4,6,8,10,12,14,-1,-1,-1,-1,-1,-1,-1,-1],"split_conditions":[6.6E1,4.235E1,4.8E-1,1E-1,1.9E-1,7.9497803E3,5.782567E1,2.4370052E-2,-4.1507848E-2,1.7950201E-2,-4.657533E-2,-4.4271164E-2,1.3576377E-2,-1.12751746E-4,2.5738811E-2],"split_indices":[37,16,28,27,10,4,4,0,0,0,0,0,0,0,0],"split_type":[0,0,0,0,0,0,0,0,0,0,0,0,0,0,0],"sum_hessian":[1.4354712E4,9.308438E3,5.0462734E3,9.193042E3,1.1539641E2,4.9797446E3,6.652858E1,9.18417E3,8.871919E0,1.0355141E1,1.0504127E2,4.8892046E3,9.054034E1,5.233854E0,6.1294724E1],"tree_param":{"num_deleted":"0","num_feature":"45","num_nodes":"15","size_leaf_vector":"1"}},{"base_weights":[1.5802352E-2,1.0234064E0,-1.7509155E0,1.0344326E0,-1.421293E0,-1.7985129E0,6.139032E-1,2.4301184E-2,-1.5878884E-2,-5.7441466E-2,-1.2430892E-2,-4.322621E-2,1.669885E-2,1.8736487E-2,-5.4903235E-2],"categories":[],"categories_nodes":[],"categories_segments":[],"categories_sizes":[],"default_left":[0,0,0,0,0,0,0,0,0,0,0,0,0,0,0],"id":26,"left_children":[1,3,5,7,9,11,13,-1,-1,-1,-1,-1,-1,-1,-1],"loss_changes":[2.5234418E4,2.431582E2,5.800449E2,2.1143555E1,3.55281E1,5.5708887E2,5.4591972E1,0E0,0E0,0E0,0E0,0E0,0E0,0E0,0E0],"parents":[2147483647,0,0,1,1,2,2,3,3,4,4,5,5,6,6],"right_children":[2,4,6,8,10,12,14,-1,-1,-1,-1,-1,-1,-1,-1],"split_conditions":[6.470284E1,9.35E1,1.1E-1,1.595E2,2.4808152E0,1.0235002E4,2E-1,2.4301184E-2,-1.5878884E-2,-5.7441466E-2,-1.2430892E-2,-4.322621E-2,1.669885E-2,1.8736487E-2,-5.4903235E-2],"split_indices":[35,16,7,2,3,3,13,0,0,0,0,0,0,0,0],"split_type":[0,0,0,0,0,0,0,0,0,0,0,0,0,0,0],"sum_hessian":[1.417562E4,9.027356E3,5.148263E3,8.987017E3,4.0340103E1,5.046883E3,1.013805E2,8.980136E3,6.8808923E0,1.8497597E1,2.1842506E1,4.9602656E3,8.661749E1,9.5565575E1,5.8149195E0],"tree_param":{"num_deleted":"0","num_feature":"45","num_nodes":"15","size_leaf_vector":"1"}},{"base_weights":[1.2503603E-2,1.0206445E0,-1.7160215E0,1.0334127E0,-1.1956257E0,-8.090417E-1,-1.8793815E0,2.4304582E-2,-4.7386974E-2,-5.0837126E-2,-7.44762E-3,-5.1164582E-2,2.0386928E-3,-4.479103E-2,-1.7491585E-2],"categories":[],"categories_nodes":[],"categories_segments":[],"categories_sizes":[],"default_left":[0,0,0,0,0,0,0,0,0,0,0,0,0,0,0],"id":27,"left_children":[1,3,5,7,9,11,13,-1,-1,-1,-1,-1,-1,-1,-1],"loss_changes":[2.4382457E4,2.500166E2,7.6241504E2,6.7381836E1,4.182482E1,9.683656E2,1.4610645E2,0E0,0E0,0E0,0E0,0E0,0E0,0E0,0E0],"parents":[2147483647,0,0,1,1,2,2,3,3,4,4,5,5,6,6],"right_children":[2,4,6,8,10,12,14,-1,-1,-1,-1,-1,-1,-1,-1],"split_conditions":[6.470284E1,4.235E1,8E-1,1E-1,3.8754437E2,8.2666664E1,1.0392766E-1,2.4304582E-2,-4.7386974E-2,-5.0837126E-2,-7.44762E-3,-5.1164582E-2,2.0386928E-3,-4.479103E-2,-1.7491585E-2],"split_indices":[35,16,43,27,32,44,15,0,0,0,0,0,0,0,0],"split_type":[0,0,0,0,0,0,0,0,0,0,0,0,0,0,0],"sum_hessian":[1.399221E4,8.837892E3,5.154318E3,8.7874795E3,5.041211E1,7.871165E2,4.367201E3,8.780363E3,7.1167274E0,2.3682169E1,2.672994E1,3.1118674E2,4.759298E2,4.2551006E3,1.12100845E2],"tree_param":{"num_deleted":"0","num_feature":"45","num_nodes":"15","size_leaf_vector":"1"}},{"base_weights":[1.8376542E-2,1.0206159E0,-1.6712786E0,1.0274823E0,-1.910922E0,-8.041333E-1,-1.8288698E0,2.4211524E-2,-7.0051394E-2,-1.3661228E-2,-5.1577907E-2,5.8628083E-3,-4.3977086E-2,-4.3188438E-2,1.8737746E-2],"categories":[],"categories_nodes":[],"categories_segments":[],"categories_sizes":[],"default_left":[0,0,0,0,0,0,0,0,0,0,0,0,0,0,0],"id":28,"left_children":[1,3,5,7,9,11,13,-1,-1,-1,-1,-1,-1,-1,-1],"loss_changes":[2.3318936E4,1.7357031E2,6.9935156E2,1.5456543E2,6.3405E0,8.9074805E2,1.3685449E2,0E0,0E0,0E0,0E0,0E0,0E0,0E0,0E0],"parents":[2147483647,0,0,1,1,2,2,3,3,4,4,5,5,6,6],"right_children":[2,4,6,8,10,12,14,-1,-1,-1,-1,-1,-1,-1,-1],"split_conditions":[6.470284E1,1E-1,8E-1,7E-1,2E-1,9E-1,4.1E-1,2.4211524E-2,-7.0051394E-2,-1.3661228E-2,-5.1577907E-2,5.8628083E-3,-4.3977086E-2,-4.3188438E-2,1.8737746E-2],"split_indices":[35,27,43,18,27,10,8,0,0,0,0,0,0,0,0],"split_type":[0,0,0,0,0,0,0,0,0,0,0,0,0,0,0],"sum_hessian":[1.3770345E4,8.64358E3,5.1267646E3,8.623544E3,2.0036682E1,7.888917E2,4.337873E3,8.61402E3,9.5245285E0,3.8569105E0,1.6179771E1,3.9724875E2,3.9164297E2,4.31839E3,1.9482538E1],"tree_param":{"num_deleted":"0","num_feature":"45","num_nodes":"15","size_leaf_vector":"1"}},{"base_weights":[1.5608128E-2,8.915837E-1,-1.7560109E0,1.0293584E0,-1.228225E0,-1.8092253E0,-2.0009854E-1,2.4282927E-2,-6.3996874E-2,-4.4106413E-2,5.6267628E-3,-4.2537354E-2,2.3883047E-2,2.5590768E-2,-4.7475062E-2],"categories":[],"categories_nodes":[],"categories_segments":[],"categories_sizes":[],"default_left":[0,0,0,0,0,0,0,0,0,0,0,0,0,0,0],"id":29,"left_children":[1,3,5,7,9,11,13,-1,-1,-1,-1,-1,-1,-1,-1],"loss_changes":[2.1099016E4,2.6569697E3,3.7148145E2,1.8086621E2,5.317966E2,4.779785E1,3.5127615E2,0E0,0E0,0E0,0E0,0E0,0E0,0E0,0E0],"parents":[2147483647,0,0,1,1,2,2,3,3,4,4,5,5,6,6],"right_children":[2,4,6,8,10,12,14,-1,-1,-1,-1,-1,-1,-1,-1],"split_conditions":[6.3517946E-1,5.8024837E1,1.0392766E-1,6.2E-1,1.8729861E4,5.1E-1,2E-1,2.4282927E-2,-6.3996874E-2,-4.4106413E-2,5.6267628E-3,-4.2537354E-2,2.3883047E-2,2.5590768E-2,-4.7475062E-2],"split_indices":[43,33,15,18,42,7,13,0,0,0,0,0,0,0,0],"split_type":[0,0,0,0,0,0,0,0,0,0,0,0,0,0,0],"sum_hessian":[1.3595907E4,9.097783E3,4.498124E3,8.542777E3,5.550058E2,4.349076E3,1.4904799E2,8.530053E3,1.2723801E1,3.845902E2,1.704156E2,4.3433184E3,5.7577443E0,8.71172E1,6.193079E1],"tree_param":{"num_deleted":"0","num_feature":"45","num_nodes":"15","size_leaf_vector":"1"}},{"base_weights":[1.1118355E-2,1.0028621E0,-1.5797743E0,1.0299655E0,-1.414072E0,-6.689573E-1,-1.7579669E0,-4.0324964E-2,2.4248086E-2,-3.853898E-2,1.6026033E-2,-4.726413E-2,3.7312147E-3,-3.8557615E-2,-4.3640688E-2],"categories":[],"categories_nodes":[],"categories_segments":[],"categories_sizes":[],"default_left":[0,0,0,0,0,0,0,0,0,0,0,0,0,0,0],"id":30,"left_children":[1,3,5,7,9,11,13,-1,-1,-1,-1,-1,-1,-1,-1],"loss_changes":[2.1143582E4,5.4059766E2,8.3404297E2,7.974219E1,4.4247635E1,9.394929E2,4.868164E1,0E0,0E0,0E0,0E0,0E0,0E0,0E0,0E0],"parents":[2147483647,0,0,1,1,2,2,3,3,4,4,5,5,6,6],"right_children":[2,4,6,8,10,12,14,-1,-1,-1,-1,-1,-1,-1,-1],"split_conditions":[6.48E1,4.235E1,8E-1,9.4E-1,1.0731496E2,8.2666664E1,7.436E2,-4.0324964E-2,2.4248086E-2,-3.853898E-2,1.6026033E-2,-4.726413E-2,3.7312147E-3,-3.8557615E-2,-4.3640688E-2],"split_indices":[37,16,43,31,3,44,16,0,0,0,0,0,0,0,0],"split_type":[0,0,0,0,0,0,0,0,0,0,0,0,0,0,0],"sum_hessian":[1.3401201E4,8.255264E3,5.1459375E3,8.16391E3,9.135368E1,8.4245416E2,4.3034834E3,1.04107275E1,8.153499E3,8.257805E1,8.77563E0,3.2113593E2,5.2131824E2,2.0310613E3,2.2724219E3],"tree_param":{"num_deleted":"0","num_feature":"45","num_nodes":"15","size_leaf_vector":"1"}},{"base_weights":[1.3661456E-2,9.9611026E-1,-1.5649995E0,1.0318805E0,-1.3199229E0,-1.6114002E0,9.2443174E-1,2.423595E-2,5.002981E-3,2.2802804E-2,-3.9583024E-2,-3.87006E-2,1.7161857E-2,2.3674889E-2,-2.5211783E-2],"categories":[],"categories_nodes":[],"categories_segments":[],"categories_sizes":[],"default_left":[0,0,0,0,0,0,0,0,0,0,0,0,0,0,0],"id":31,"left_children":[1,3,5,7,9,11,13,-1,-1,-1,-1,-1,-1,-1,-1],"loss_changes":[2.0459969E4,6.735386E2,5.848506E2,6.8554688E0,1.0426701E2,4.444375E2,1.561113E1,0E0,0E0,0E0,0E0,0E0,0E0,0E0,0E0],"parents":[2147483647,0,0,1,1,2,2,3,3,4,4,5,5,6,6],"right_children":[2,4,6,8,10,12,14,-1,-1,-1,-1,-1,-1,-1,-1],"split_conditions":[6.6E1,1.94E1,2.1E-1,9.7E0,2E-1,1.0235002E4,1.134E2,2.423595E-2,5.002981E-3,2.2802804E-2,-3.9583024E-2,-3.87006E-2,1.7161857E-2,2.3674889E-2,-2.5211783E-2],"split_indices":[37,16,7,16,10,3,2,0,0,0,0,0,0,0,0],"split_type":[0,0,0,0,0,0,0,0,0,0,0,0,0,0,0],"sum_hessian":[1.3192036E4,8.1317188E3,5.060317E3,8.008239E3,1.2347993E2,4.9679097E3,9.2407524E1,7.9965703E3,1.1668725E1,1.687561E1,1.0660432E2,4.8885166E3,7.939279E1,8.887956E1,3.5279603E0],"tree_param":{"num_deleted":"0","num_feature":"45","num_nodes":"15","size_leaf_vector":"1"}},{"base_weights":[2.0538846E-2,9.920176E-1,-1.5257818E0,1.0305761E0,-1.3256134E0,-6.9350463E-1,-1.685802E0,2.4213793E-2,1.2692418E-3,2.0693256E-2,-3.927466E-2,-4.4821393E-2,2.755273E-3,-3.9710563E-2,1.6585292E-2],"categories":[],"categories_nodes":[],"categories_segments":[],"categories_sizes":[],"default_left":[0,0,0,0,0,0,0,0,0,0,0,0,0,0,0],"id":32,"left_children":[1,3,5,7,9,11,13,-1,-1,-1,-1,-1,-1,-1,-1],"loss_changes":[1.956347E4,7.146377E2,6.680781E2,1.0978516E1,1.00896774E2,8.00975E2,6.895996E1,0E0,0E0,0E0,0E0,0E0,0E0,0E0,0E0],"parents":[2147483647,0,0,1,1,2,2,3,3,4,4,5,5,6,6],"right_children":[2,4,6,8,10,12,14,-1,-1,-1,-1,-1,-1,-1,-1],"split_conditions":[6.6E1,1.94E1,8E-1,9.7E0,2E-1,8.2666664E1,3.1E-1,2.4213793E-2,1.2692418E-3,2.0693256E-2,-3.927466E-2,-4.4821393E-2,2.755273E-3,-3.9710563E-2,1.6585292E-2],"split_indices":[37,16,43,16,10,44,8,0,0,0,0,0,0,0,0],"split_type":[0,0,0,0,0,0,0,0,0,0,0,0,0,0,0],"sum_hessian":[1.3023226E4,7.9984746E3,5.024751E3,7.8677827E3,1.3069211E2,8.1077966E2,4.213971E3,7.855268E3,1.2514324E1,1.7629267E1,1.13062836E2,3.2446158E2,4.863181E2,4.2022383E3,1.1732763E1],"tree_param":{"num_deleted":"0","num_feature":"45","num_nodes":"15","size_leaf_vector":"1"}},{"base_weights":[1.5166065E-2,1.0151784E0,-1.5034676E0,1.0300606E0,-8.3511335E-1,-6.842589E-1,-1.6541967E0,2.4206193E-2,-2.6951866E-2,-5.208409E-2,2.3256836E-3,-4.3897375E-2,2.839351E-3,-3.9096378E-2,2.0587722E-2],"categories":[],"categories_nodes":[],"categories_segments":[],"categories_sizes":[],"default_left":[0,0,0,0,0,0,0,0,0,0,0,0,0,0,0],"id":33,"left_children":[1,3,5,7,9,11,13,-1,-1,-1,-1,-1,-1,-1,-1],"loss_changes":[1.9471213E4,2.1297656E2,6.274668E2,2.8138672E1,8.048417E1,7.573203E2,1.3336914E2,0E0,0E0,0E0,0E0,0E0,0E0,0E0,0E0],"parents":[2147483647,0,0,1,1,2,2,3,3,4,4,5,5,6,6],"right_children":[2,4,6,8,10,12,14,-1,-1,-1,-1,-1,-1,-1,-1],"split_conditions":[6.470284E1,1.94E1,8E-1,1E-1,1.9428699E-1,5.2122425E1,3.1E-1,2.4206193E-2,-2.6951866E-2,-5.208409E-2,2.3256836E-3,-4.3897375E-2,2.839351E-3,-3.9096378E-2,2.0587722E-2],"split_indices":[35,16,43,27,38,42,8,0,0,0,0,0,0,0,0],"split_type":[0,0,0,0,0,0,0,0,0,0,0,0,0,0,0],"sum_hessian":[1.2821524E4,7.731007E3,5.090517E3,7.6695747E3,6.143214E1,7.915582E2,4.298959E3,7.663858E3,5.717043E0,2.49504E1,3.648174E1,3.202181E2,4.7134012E2,4.2784946E3,2.0464064E1],"tree_param":{"num_deleted":"0","num_feature":"45","num_nodes":"15","size_leaf_vector":"1"}},{"base_weights":[1.6491024E-2,9.908536E-1,-1.4708382E0,1.0279995E0,-1.2407424E0,-1.5154988E0,8.8811654E-1,-7.075145E-2,2.4165284E-2,2.1753812E-2,-3.7704848E-2,1.7130941E-2,-3.634953E-2,2.3584543E-2,-1.4179178E-2],"categories":[],"categories_nodes":[],"categories_segments":[],"categories_sizes":[],"default_left":[0,0,0,0,0,0,0,0,0,0,0,0,0,0,0],"id":34,"left_children":[1,3,5,7,9,11,13,-1,-1,-1,-1,-1,-1,-1,-1],"loss_changes":[1.8239338E4,6.302744E2,5.2510645E2,5.969873E1,9.9049164E1,3.7190527E2,1.6336731E1,0E0,0E0,0E0,0E0,0E0,0E0,0E0,0E0],"parents":[2147483647,0,0,1,1,2,2,3,3,4,4,5,5,6,6],"right_children":[2,4,6,8,10,12,14,-1,-1,-1,-1,-1,-1,-1,-1],"split_conditions":[6.6E1,1.94E1,2.1E-1,5E-1,2E-1,3.5E0,9.57E1,-7.075145E-2,2.4165284E-2,2.1753812E-2,-3.7704848E-2,1.7130941E-2,-3.634953E-2,2.3584543E-2,-1.4179178E-2],"split_indices":[37,16,7,30,10,1,2,0,0,0,0,0,0,0,0],"split_type":[0,0,0,0,0,0,0,0,0,0,0,0,0,0,0],"sum_hessian":[1.2585971E4,7.604508E3,4.981463E3,7.4802085E3,1.2429943E2,4.889101E3,9.2361885E1,3.588958E0,7.4766196E3,1.7782326E1,1.06517105E2,7.236844E1,4.8167324E3,8.593403E1,6.427852E0],"tree_param":{"num_deleted":"0","num_feature":"45","num_nodes":"15","size_leaf_vector":"1"}},{"base_weights":[1.9799612E-2,1.0111514E0,-1.4411509E0,1.0278418E0,-8.8120866E-1,-6.420908E-1,-1.5907443E0,-3.0193612E-2,2.4161981E-2,1.8790541E-2,-3.665491E-2,7.995397E-3,-3.8145274E-2,-3.7515696E-2,2.524539E-2],"categories":[],"categories_nodes":[],"categories_segments":[],"categories_sizes":[],"default_left":[0,0,0,0,0,0,0,0,0,0,0,0,0,0,0],"id":35,"left_children":[1,3,5,7,9,11,13,-1,-1,-1,-1,-1,-1,-1,-1],"loss_changes":[1.7968549E4,2.3352197E2,5.984375E2,3.416455E1,7.411901E1,7.658025E2,9.372168E1,0E0,0E0,0E0,0E0,0E0,0E0,0E0,0E0],"parents":[2147483647,0,0,1,1,2,2,3,3,4,4,5,5,6,6],"right_children":[2,4,6,8,10,12,14,-1,-1,-1,-1,-1,-1,-1,-1],"split_conditions":[6.470284E1,1.94E1,8E-1,9.4E-1,2E-1,9E-1,5.1E-1,-3.0193612E-2,2.4161981E-2,1.8790541E-2,-3.665491E-2,7.995397E-3,-3.8145274E-2,-3.7515696E-2,2.524539E-2],"split_indices":[35,16,43,30,10,10,7,0,0,0,0,0,0,0,0],"split_type":[0,0,0,0,0,0,0,0,0,0,0,0,0,0,0],"sum_hessian":[1.2406649E4,7.39141E3,5.015239E3,7.3270366E3,6.437361E1,7.9135266E2,4.223886E3,6.18864E0,7.320848E3,1.835412E1,4.6019493E1,3.956189E2,3.957338E2,4.21096E3,1.2925961E1],"tree_param":{"num_deleted":"0","num_feature":"45","num_nodes":"15","size_leaf_vector":"1"}},{"base_weights":[1.5128169E-2,1.0127059E0,-1.414887E0,1.027195E0,-7.037476E-1,-6.3087386E-1,-1.5613497E0,2.4153082E-2,-2.7928634E-2,-4.6010513E-2,3.7417053E-3,-4.144488E-2,3.8007046E-3,-3.6911804E-2,1.6619349E-2],"categories":[],"categories_nodes":[],"categories_segments":[],"categories_sizes":[],"default_left":[0,0,0,0,0,0,0,0,0,0,0,0,0,0,0],"id":36,"left_children":[1,3,5,7,9,11,13,-1,-1,-1,-1,-1,-1,-1,-1],"loss_changes":[1.7506477E4,1.7994287E2,5.780205E2,3.6315918E1,6.623639E1,7.1593884E2,1.15671875E2,0E0,0E0,0E0,0E0,0E0,0E0,0E0,0E0],"parents":[2147483647,0,0,1,1,2,2,3,3,4,4,5,5,6,6],"right_children":[2,4,6,8,10,12,14,-1,-1,-1,-1,-1,-1,-1,-1],"split_conditions":[6.470284E1,1.94E1,8E-1,1E-1,3.8754437E2,5.2122425E1,3.1E-1,2.4153082E-2,-2.7928634E-2,-4.6010513E-2,3.7417053E-3,-4.144488E-2,3.8007046E-3,-3.6911804E-2,1.6619349E-2],"split_indices":[35,16,43,27,32,42,8,0,0,0,0,0,0,0,0],"split_type":[0,0,0,0,0,0,0,0,0,0,0,0,0,0,0],"sum_hessian":[1.2272019E4,7.2292373E3,5.0427817E3,7.168997E3,6.0240093E1,7.94274E2,4.248508E3,7.1618184E3,7.179106E0,2.4743868E1,3.5496227E1,3.2679477E2,4.6747922E2,4.226458E3,2.20495E1],"tree_param":{"num_deleted":"0","num_feature":"45","num_nodes":"15","size_leaf_vector":"1"}},{"base_weights":[1.0853374E-2,1.0086374E0,-1.3914075E0,1.0211927E0,-1.2808789E0,-6.263526E-1,-1.5349292E0,2.4024429E-2,-5.730591E-2,-3.791077E-2,2.2377882E-2,-4.2749614E-2,3.632738E-3,-3.6277454E-2,2.0998105E-2],"categories":[],"categories_nodes":[],"categories_segments":[],"categories_sizes":[],"default_left":[0,0,0,0,0,0,0,0,0,0,0,0,0,0,0],"id":37,"left_children":[1,3,5,7,9,11,13,-1,-1,-1,-1,-1,-1,-1,-1],"loss_changes":[1.6924027E4,2.0303711E2,5.51125E2,6.768945E1,2.9017128E1,7.432795E2,1.16924805E2,0E0,0E0,0E0,0E0,0E0,0E0,0E0,0E0],"parents":[2147483647,0,0,1,1,2,2,3,3,4,4,5,5,6,6],"right_children":[2,4,6,8,10,12,14,-1,-1,-1,-1,-1,-1,-1,-1],"split_conditions":[6.470284E1,1E-1,8E-1,2E-1,1.0731496E2,8.2666664E1,4.1E-1,2.4024429E-2,-5.730591E-2,-3.791077E-2,2.2377882E-2,-4.2749614E-2,3.632738E-3,-3.6277454E-2,2.0998105E-2],"split_indices":[35,9,43,27,3,44,8,0,0,0,0,0,0,0,0],"split_type":[0,0,0,0,0,0,0,0,0,0,0,0,0,0,0],"sum_hessian":[1.2096033E4,7.0674785E3,5.0285547E3,7.0291387E3,3.833986E1,7.948472E2,4.233707E3,7.0235825E3,5.5559874E0,3.352551E1,4.8143516E0,3.1431912E2,4.8052814E2,4.2142427E3,1.946455E1],"tree_param":{"num_deleted":"0","num_feature":"45","num_nodes":"15","size_leaf_vector":"1"}},{"base_weights":[1.5007097E-2,1.0103325E0,-1.3653804E0,1.0260111E0,-7.3499864E-1,-6.064836E-1,-1.5076624E0,2.4115268E-2,1.2183938E-2,1.2123983E-2,-3.657922E-2,-4.1584536E-2,3.4278517E-3,-3.6030848E-2,-1.0427818E-2],"categories":[],"categories_nodes":[],"categories_segments":[],"categories_sizes":[],"default_left":[0,0,0,0,0,0,0,0,0,0,0,0,0,0,0],"id":38,"left_children":[1,3,5,7,9,11,13,-1,-1,-1,-1,-1,-1,-1,-1],"loss_changes":[1.6350365E4,1.8935986E2,5.3733594E2,5.7319336E0,6.3727707E1,6.9196234E2,1.2444238E2,0E0,0E0,0E0,0E0,0E0,0E0,0E0,0E0],"parents":[2147483647,0,0,1,1,2,2,3,3,4,4,5,5,6,6],"right_children":[2,4,6,8,10,12,14,-1,-1,-1,-1,-1,-1,-1,-1],"split_conditions":[6.470284E1,1.94E1,8E-1,5.1E0,3E-1,8.2666664E1,1.0392766E-1,2.4115268E-2,1.2183938E-2,1.2123983E-2,-3.657922E-2,-4.1584536E-2,3.4278517E-3,-3.6030848E-2,-1.0427818E-2],"split_indices":[35,16,43,16,10,44,15,0,0,0,0,0,0,0,0],"split_type":[0,0,0,0,0,0,0,0,0,0,0,0,0,0,0],"sum_hessian":[1.1900514E4,6.9148896E3,4.985624E3,6.8535933E3,6.129621E1,7.876765E2,4.1979478E3,6.8275835E3,2.600977E1,2.4107409E1,3.7188805E1,3.0922318E2,4.784533E2,4.0894539E3,1.08493614E2],"tree_param":{"num_deleted":"0","num_feature":"45","num_nodes":"15","size_leaf_vector":"1"}},{"base_weights":[1.4652404E-2,1.0089369E0,-1.3459089E0,1.023979E0,-8.558203E-1,-6.072928E-1,-1.4870046E0,2.408387E-2,4.530689E-3,1.9702207E-2,-2.9109962E-2,-4.1059677E-2,3.15746E-3,-3.5558637E-2,-9.9782515E-3],"categories":[],"categories_nodes":[],"categories_segments":[],"categories_sizes":[],"default_left":[0,0,0,0,0,0,0,0,0,0,0,0,0,0,0],"id":39,"left_children":[1,3,5,7,9,11,13,-1,-1,-1,-1,-1,-1,-1,-1],"loss_changes":[1.5806074E4,1.8944434E2,5.131289E2,1.3640625E1,3.5286617E1,6.7203955E2,1.2493262E2,0E0,0E0,0E0,0E0,0E0,0E0,0E0,0E0],"parents":[2147483647,0,0,1,1,2,2,3,3,4,4,5,5,6,6],"right_children":[2,4,6,8,10,12,14,-1,-1,-1,-1,-1,-1,-1,-1],"split_conditions":[6.470284E1,4.235E1,8E-1,9.7E0,2E-1,8.700946E0,1.0392766E-1,2.408387E-2,4.530689E-3,1.9702207E-2,-2.9109962E-2,-4.1059677E-2,3.15746E-3,-3.5558637E-2,-9.9782515E-3],"split_indices":[35,16,43,16,10,39,15,0,0,0,0,0,0,0,0],"split_type":[0,0,0,0,0,0,0,0,0,0,0,0,0,0,0],"sum_hessian":[1.1684215E4,6.7509995E3,4.933216E3,6.69723E3,5.3769566E1,7.917689E2,4.141447E3,6.6761323E3,2.1097563E1,9.721447E0,4.404812E1,3.11917E2,4.7985193E2,4.0322976E3,1.0914912E2],"tree_param":{"num_deleted":"0","num_feature":"45","num_nodes":"15","size_leaf_vector":"1"}},{"base_weights":[1.3415145E-2,9.9264973E-1,-1.3085843E0,1.0241603E0,-1.0898918E0,-7.135809E-1,-1.4463804E0,2.4089118E-2,-3.0276679E-2,2.1298818E-2,-3.4156837E-2,1.3673236E-2,-2.7661284E-2,-3.4564942E-2,2.4469292E-2],"categories":[],"categories_nodes":[],"categories_segments":[],"categories_sizes":[],"default_left":[0,0,0,0,0,0,0,0,0,0,0,0,0,0,0],"id":40,"left_children":[1,3,5,7,9,11,13,-1,-1,-1,-1,-1,-1,-1,-1],"loss_changes":[1.4921667E4,4.3451758E2,4.0111133E2,3.9094727E1,7.226191E1,5.5715686E2,2.6675E2,0E0,0E0,0E0,0E0,0E0,0E0,0E0,0E0],"parents":[2147483647,0,0,1,1,2,2,3,3,4,4,5,5,6,6],"right_children":[2,4,6,8,10,12,14,-1,-1,-1,-1,-1,-1,-1,-1],"split_conditions":[6.48E1,1.94E1,3.3035E4,1E-1,2E-1,3E-1,1.0235002E4,2.4089118E-2,-3.0276679E-2,2.1298818E-2,-3.4156837E-2,1.3673236E-2,-2.7661284E-2,-3.4564942E-2,2.4469292E-2],"split_indices":[37,16,0,27,10,10,3,0,0,0,0,0,0,0,0],"split_type":[0,0,0,0,0,0,0,0,0,0,0,0,0,0,0],"sum_hessian":[1.1526662E4,6.6219746E3,4.904688E3,6.523496E3,9.84787E1,9.229258E2,3.981762E3,6.516388E3,7.1076026E0,1.5048125E1,8.343057E1,2.435497E2,6.793761E2,3.9393962E3,4.2365707E1],"tree_param":{"num_deleted":"0","num_feature":"45","num_nodes":"15","size_leaf_vector":"1"}},{"base_weights":[1.7456472E-2,1.0066504E0,-1.2967136E0,1.0221286E0,-9.3700916E-1,-8.6690104E-1,-1.4672251E0,-3.4698136E-2,2.4060097E-2,1.9212363E-2,-3.0855276E-2,2.0542884E-2,-2.9518986E-2,-3.495923E-2,2.3033192E-2],"categories":[],"categories_nodes":[],"categories_segments":[],"categories_sizes":[],"default_left":[0,0,0,0,0,0,0,0,0,0,0,0,0,0,0],"id":41,"left_children":[1,3,5,7,9,11,13,-1,-1,-1,-1,-1,-1,-1,-1],"loss_changes":[1.4772966E4,1.9510645E2,3.5655762E2,5.436328E1,3.408934E1,9.45838E2,1.9574512E2,0E0,0E0,0E0,0E0,0E0,0E0,0E0,0E0],"parents":[2147483647,0,0,1,1,2,2,3,3,4,4,5,5,6,6],"right_children":[2,4,6,8,10,12,14,-1,-1,-1,-1,-1,-1,-1,-1],"split_conditions":[6.470284E1,4.235E1,6E-1,9.4E-1,2E-1,2E-1,3.1E-1,-3.4698136E-2,2.4060097E-2,1.9212363E-2,-3.0855276E-2,2.0542884E-2,-2.9518986E-2,-3.495923E-2,2.3033192E-2],"split_indices":[35,16,10,31,10,25,8,0,0,0,0,0,0,0,0],"split_type":[0,0,0,0,0,0,0,0,0,0,0,0,0,0,0],"sum_hessian":[1.1364194E4,6.4839756E3,4.8802183E3,6.43299E3,5.0985203E1,1.3869279E3,3.4932908E3,8.523609E0,6.424467E3,8.813028E0,4.2172173E1,2.5411272E2,1.1328151E3,3.4611858E3,3.210495E1],"tree_param":{"num_deleted":"0","num_feature":"45","num_nodes":"15","size_leaf_vector":"1"}},{"base_weights":[1.6427733E-2,1.0049288E0,-1.2795659E0,1.0146806E0,-1.5610523E0,-1.3203077E0,6.435053E-1,2.3913639E-2,-2.2550594E-2,-4.3027822E-2,-5.707129E-3,-3.170806E-2,2.4062842E-2,1.9686513E-2,-4.4124894E-2],"categories":[],"categories_nodes":[],"categories_segments":[],"categories_sizes":[],"default_left":[0,0,0,0,0,0,0,0,0,0,0,0,0,0,0],"id":42,"left_children":[1,3,5,7,9,11,13,-1,-1,-1,-1,-1,-1,-1,-1],"loss_changes":[1.4298855E4,1.5819238E2,3.7870215E2,5.7333008E1,7.5762634E0,3.4625684E2,4.8860687E1,0E0,0E0,0E0,0E0,0E0,0E0,0E0,0E0],"parents":[2147483647,0,0,1,1,2,2,3,3,4,4,5,5,6,6],"right_children":[2,4,6,8,10,12,14,-1,-1,-1,-1,-1,-1,-1,-1],"split_conditions":[6.470284E1,1E-1,1.1E-1,1.595E2,1.9428699E-1,5.6E-1,1E-2,2.3913639E-2,-2.2550594E-2,-4.3027822E-2,-5.707129E-3,-3.170806E-2,2.4062842E-2,1.9686513E-2,-4.4124894E-2],"split_indices":[35,27,7,2,38,28,17,0,0,0,0,0,0,0,0],"split_type":[0,0,0,0,0,0,0,0,0,0,0,0,0,0,0],"sum_hessian":[1.1161564E4,6.3321616E3,4.8294033E3,6.3083716E3,2.3789944E1,4.7294517E3,9.995154E1,6.293966E3,1.44055E1,1.9411118E1,4.378825E0,4.667588E3,6.186382E1,9.293763E1,7.0139093E0],"tree_param":{"num_deleted":"0","num_feature":"45","num_nodes":"15","size_leaf_vector":"1"}},{"base_weights":[8.366952E-3,1.004103E0,-1.2663609E0,1.021579E0,-7.011709E-1,-5.479431E-1,-1.405947E0,2.4037484E-2,9.665397E-3,-4.1051906E-2,3.631626E-3,-3.7734587E-2,3.9562443E-3,-3.360329E-2,-1.0319615E-2],"categories":[],"categories_nodes":[],"categories_segments":[],"categories_sizes":[],"default_left":[0,0,0,0,0,0,0,0,0,0,0,0,0,0,0],"id":43,"left_children":[1,3,5,7,9,11,13,-1,-1,-1,-1,-1,-1,-1,-1],"loss_changes":[1.3987605E4,1.8454395E2,4.8371387E2,1.0439453E1,5.684402E1,5.9853394E2,1.0205762E2,0E0,0E0,0E0,0E0,0E0,0E0,0E0,0E0],"parents":[2147483647,0,0,1,1,2,2,3,3,4,4,5,5,6,6],"right_children":[2,4,6,8,10,12,14,-1,-1,-1,-1,-1,-1,-1,-1],"split_conditions":[6.470284E1,1.94E1,8E-1,6.3517946E-1,1.9428699E-1,5.2122425E1,1.0392766E-1,2.4037484E-2,9.665397E-3,-4.1051906E-2,3.631626E-3,-3.7734587E-2,3.9562443E-3,-3.360329E-2,-1.0319615E-2],"split_indices":[35,16,43,43,38,42,15,0,0,0,0,0,0,0,0],"split_type":[0,0,0,0,0,0,0,0,0,0,0,0,0,0,0],"sum_hessian":[1.1020099E4,6.187325E3,4.832773E3,6.1248335E3,6.249187E1,7.8678064E2,4.0459924E3,6.094291E3,3.0542295E1,2.8332914E1,3.415896E1,3.175325E2,4.6924817E2,3.9381492E3,1.0784331E2],"tree_param":{"num_deleted":"0","num_feature":"45","num_nodes":"15","size_leaf_vector":"1"}},{"base_weights":[1.6795827E-2,1.003976E0,-1.240068E0,1.0224991E0,-5.7619023E-1,-1.2768493E0,8.5079443E-1,2.4020558E-2,1.0813865E-2,1.5084059E-2,-3.7390713E-2,-3.0680709E-2,2.2861702E-2,2.3403885E-3,2.5310175E-2],"categories":[],"categories_nodes":[],"categories_segments":[],"categories_sizes":[],"default_left":[0,0,0,0,0,0,0,0,0,0,0,0,0,0,0],"id":44,"left_children":[1,3,5,7,9,11,13,-1,-1,-1,-1,-1,-1,-1,-1],"loss_changes":[1.3370024E4,1.7687256E2,3.6474658E2,3.7753906E0,8.6834E1,3.2384375E2,1.3438507E1,0E0,0E0,0E0,0E0,0E0,0E0,0E0,0E0],"parents":[2147483647,0,0,1,1,2,2,3,3,4,4,5,5,6,6],"right_children":[2,4,6,8,10,12,14,-1,-1,-1,-1,-1,-1,-1,-1],"split_conditions":[6.470284E1,9.7E0,2.1E-1,5.1E0,3E-1,4.8E-1,5.1E-1,2.4020558E-2,1.0813865E-2,1.5084059E-2,-3.7390713E-2,-3.0680709E-2,2.2861702E-2,2.3403885E-3,2.5310175E-2],"split_indices":[35,16,7,16,10,28,7,0,0,0,0,0,0,0,0],"split_type":[0,0,0,0,0,0,0,0,0,0,0,0,0,0,0],"sum_hessian":[1.0775839E4,6.0356367E3,4.740202E3,5.9660005E3,6.963634E1,4.658479E3,8.172336E1,5.9510005E3,1.500001E1,3.146906E1,3.8167274E1,4.595685E3,6.2793625E1,1.9514734E1,6.2208622E1],"tree_param":{"num_deleted":"0","num_feature":"45","num_nodes":"15","size_leaf_vector":"1"}},{"base_weights":[1.4469527E-2,1.0029227E0,-1.2249767E0,1.020416E0,-6.2018055E-1,-5.0753444E-1,-1.3676252E0,2.4014264E-2,8.774586E-3,2.033857E-2,-2.704403E-2,6.0775965E-3,-3.5377216E-2,-3.2370586E-2,1.871892E-2],"categories":[],"categories_nodes":[],"categories_segments":[],"categories_sizes":[],"default_left":[0,0,0,0,0,0,0,0,0,0,0,0,0,0,0],"id":45,"left_children":[1,3,5,7,9,11,13,-1,-1,-1,-1,-1,-1,-1,-1],"loss_changes":[1.2984113E4,1.6760645E2,4.803164E2,1.1222168E1,4.969664E1,5.9902435E2,1.03163574E2,0E0,0E0,0E0,0E0,0E0,0E0,0E0,0E0],"parents":[2147483647,0,0,1,1,2,2,3,3,4,4,5,5,6,6],"right_children":[2,4,6,8,10,12,14,-1,-1,-1,-1,-1,-1,-1,-1],"split_conditions":[6.470284E1,1.94E1,8E-1,6.3517946E-1,2E-1,1E0,3.1E-1,2.4014264E-2,8.774586E-3,2.033857E-2,-2.704403E-2,6.0775965E-3,-3.5377216E-2,-3.2370586E-2,1.871892E-2],"split_indices":[35,16,43,43,10,10,8,0,0,0,0,0,0,0,0],"split_type":[0,0,0,0,0,0,0,0,0,0,0,0,0,0,0],"sum_hessian":[1.0598196E4,5.896302E3,4.701895E3,5.8337188E3,6.2583134E1,7.803722E2,3.9215227E3,5.8046924E3,2.9026299E1,1.626798E1,4.6315155E1,4.4154355E2,3.3882864E2,3.899921E3,2.1601751E1],"tree_param":{"num_deleted":"0","num_feature":"45","num_nodes":"15","size_leaf_vector":"1"}},{"base_weights":[2.0953445E-2,1.0025305E0,-1.1967118E0,1.0202146E0,-5.8465147E-1,-4.5456645E-1,-1.3447764E0,-2.5688687E-2,2.3995226E-2,-2.5838384E-2,2.1486368E-2,-3.681408E-2,5.48081E-3,-3.2231435E-2,-8.352142E-3],"categories":[],"categories_nodes":[],"categories_segments":[],"categories_sizes":[],"default_left":[0,0,0,0,0,0,0,0,0,0,0,0,0,0,0],"id":46,"left_children":[1,3,5,7,9,11,13,-1,-1,-1,-1,-1,-1,-1,-1],"loss_changes":[1.2442473E4,1.619917E2,5.0968945E2,3.0606445E1,4.9100464E1,5.937662E2,1.1036279E2,0E0,0E0,0E0,0E0,0E0,0E0,0E0,0E0],"parents":[2147483647,0,0,1,1,2,2,3,3,4,4,5,5,6,6],"right_children":[2,4,6,8,10,12,14,-1,-1,-1,-1,-1,-1,-1,-1],"split_conditions":[6.470284E1,1.94E1,8E-1,9.4E-1,1.0731496E2,8.700946E0,1.0392766E-1,-2.5688687E-2,2.3995226E-2,-2.5838384E-2,2.1486368E-2,-3.681408E-2,5.48081E-3,-3.2231435E-2,-8.352142E-3],"split_indices":[35,16,43,30,3,39,15,0,0,0,0,0,0,0,0],"split_type":[0,0,0,0,0,0,0,0,0,0,0,0,0,0,0],"sum_hessian":[1.0410163E4,5.764061E3,4.6461025E3,5.700841E3,6.322043E1,7.73296E2,3.8728064E3,6.616892E0,5.6942236E3,4.7261414E1,1.5959018E1,2.954575E2,4.7783853E2,3.7618691E3,1.10937195E2],"tree_param":{"num_deleted":"0","num_feature":"45","num_nodes":"15","size_leaf_vector":"1"}},{"base_weights":[1.7739497E-2,9.898181E-1,-1.1732808E0,1.0135593E0,-1.2220591E0,-4.1353402E-1,-1.3334556E0,2.3897521E-2,-5.1348455E-2,7.475839E-3,-3.3809856E-2,7.7289594E-3,-3.4878496E-2,-3.1769484E-2,-1.241796E-2],"categories":[],"categories_nodes":[],"categories_segments":[],"categories_sizes":[],"default_left":[0,0,0,0,0,0,0,0,0,0,0,0,0,0,0],"id":47,"left_children":[1,3,5,7,9,11,13,-1,-1,-1,-1,-1,-1,-1,-1],"loss_changes":[1.1857094E4,2.9603467E2,5.5922705E2,8.935156E1,2.0668053E1,6.3983704E2,6.226367E1,0E0,0E0,0E0,0E0,0E0,0E0,0E0,0E0],"parents":[2147483647,0,0,1,1,2,2,3,3,4,4,5,5,6,6],"right_children":[2,4,6,8,10,12,14,-1,-1,-1,-1,-1,-1,-1,-1],"split_conditions":[6.48E1,1E-1,8E-1,8.8E-1,8E-1,1E0,1.0392766E-1,2.3897521E-2,-5.1348455E-2,7.475839E-3,-3.3809856E-2,7.7289594E-3,-3.4878496E-2,-3.1769484E-2,-1.241796E-2],"split_indices":[37,9,43,18,43,10,15,0,0,0,0,0,0,0,0],"split_type":[0,0,0,0,0,0,0,0,0,0,0,0,0,0,0],"sum_hessian":[1.0241434E4,5.639237E3,4.6021963E3,5.5795625E3,5.9674377E1,8.0183795E2,3.8003584E3,5.570957E3,8.605875E0,7.1592565E0,5.251512E1,4.7354068E2,3.2829727E2,3.7045747E3,9.5783745E1],"tree_param":{"num_deleted":"0","num_feature":"45","num_nodes":"15","size_leaf_vector":"1"}},{"base_weights":[1.1150678E-2,9.987848E-1,-1.1762276E0,1.0125947E0,-1.0255063E0,-1.2148696E0,6.854672E-1,2.3876376E-2,-5.1118907E-2,-3.0316835E-2,2.3354692E-2,-2.9192854E-2,2.3595382E-2,2.3802733E-2,-3.4242358E-2],"categories":[],"categories_nodes":[],"categories_segments":[],"categories_sizes":[],"default_left":[0,0,0,0,0,0,0,0,0,0,0,0,0,0,0],"id":48,"left_children":[1,3,5,7,9,11,13,-1,-1,-1,-1,-1,-1,-1,-1],"loss_changes":[1.1868602E4,1.5445801E2,3.3084814E2,8.86958E1,2.0195976E1,2.9430566E2,6.557851E1,0E0,0E0,0E0,0E0,0E0,0E0,0E0,0E0],"parents":[2147483647,0,0,1,1,2,2,3,3,4,4,5,5,6,6],"right_children":[2,4,6,8,10,12,14,-1,-1,-1,-1,-1,-1,-1,-1],"split_conditions":[6.470284E1,1E-1,7.9497803E3,8.8E-1,1.1E-1,5.6E-1,1E0,2.3876376E-2,-5.1118907E-2,-3.0316835E-2,2.3354692E-2,-2.9192854E-2,2.3595382E-2,2.3802733E-2,-3.4242358E-2],"split_indices":[35,9,3,18,8,28,10,0,0,0,0,0,0,0,0],"split_type":[0,0,0,0,0,0,0,0,0,0,0,0,0,0,0],"sum_hessian":[1.0120859E4,5.5253755E3,4.5954834E3,5.4881685E3,3.7207207E1,4.502286E3,9.31974E1,5.479569E3,8.599463E0,3.307616E1,4.1310496E0,4.4436147E3,5.867137E1,8.0992134E1,1.2205263E1],"tree_param":{"num_deleted":"0","num_feature":"45","num_nodes":"15","size_leaf_vector":"1"}},{"base_weights":[1.3729709E-2,9.98353E-1,-1.1510271E0,1.0177733E0,-6.66266E-1,-1.193318E0,7.805006E-1,1.3789764E-2,2.397766E-2,-2.7356302E-2,2.2413548E-2,-2.8901951E-2,1.7351089E-2,2.067098E-2,-4.0410284E-2],"categories":[],"categories_nodes":[],"categories_segments":[],"categories_sizes":[],"default_left":[0,0,0,0,0,0,0,0,0,0,0,0,0,0,0],"id":49,"left_children":[1,3,5,7,9,11,13,-1,-1,-1,-1,-1,-1,-1,-1],"loss_changes":[1.14001045E4,1.7431299E2,3.721504E2,8.933594E0,5.021768E1,3.3251562E2,2.410139E1,0E0,0E0,0E0,0E0,0E0,0E0,0E0,0E0],"parents":[2147483647,0,0,1,1,2,2,3,3,4,4,5,5,6,6],"right_children":[2,4,6,8,10,12,14,-1,-1,-1,-1,-1,-1,-1,-1],"split_conditions":[6.470284E1,1.94E1,1.1E-1,4.163662E1,1.0731496E2,1.0235002E4,2E-2,1.3789764E-2,2.397766E-2,-2.7356302E-2,2.2413548E-2,-2.8901951E-2,1.7351089E-2,2.067098E-2,-4.0410284E-2],"split_indices":[35,16,7,44,3,3,19,0,0,0,0,0,0,0,0],"split_type":[0,0,0,0,0,0,0,0,0,0,0,0,0,0,0],"sum_hessian":[9.940452E3,5.386987E3,4.553466E3,5.325145E3,6.1841732E1,4.456143E3,9.732267E1,5.3005634E1,5.272139E3,4.74957E1,1.4346034E1,4.369183E3,8.696017E1,9.374528E1,3.577396E0],"tree_param":{"num_deleted":"0","num_feature":"45","num_nodes":"15","size_leaf_vector":"1"}},{"base_weights":[1.6110169E-2,9.98439E-1,-1.1342449E0,1.0121938E0,-1.0325856E0,-1.1758463E0,7.1879584E-1,2.3872625E-2,-2.2315856E-2,-3.1229861E-2,2.2022728E-2,-3.1360034E-2,-1.6240207E-2,2.0608509E-2,-4.1770924E-2],"categories":[],"categories_nodes":[],"categories_segments":[],"categories_sizes":[],"default_left":[0,0,0,0,0,0,0,0,0,0,0,0,0,0,0],"id":50,"left_children":[1,3,5,7,9,11,13,-1,-1,-1,-1,-1,-1,-1,-1],"loss_changes":[1.1069218E4,1.47604E2,3.4801807E2,5.5020996E1,2.096793E1,3.422705E2,3.899287E1,0E0,0E0,0E0,0E0,0E0,0E0,0E0,0E0],"parents":[2147483647,0,0,1,1,2,2,3,3,4,4,5,5,6,6],"right_children":[2,4,6,8,10,12,14,-1,-1,-1,-1,-1,-1,-1,-1],"split_conditions":[6.470284E1,1E-1,1.1E-1,1.595E2,9.111868E1,5.782567E1,2E-2,2.3872625E-2,-2.2315856E-2,-3.1229861E-2,2.2022728E-2,-3.1360034E-2,-1.6240207E-2,2.0608509E-2,-4.1770924E-2],"split_indices":[35,9,7,2,4,4,19,0,0,0,0,0,0,0,0],"split_type":[0,0,0,0,0,0,0,0,0,0,0,0,0,0,0],"sum_hessian":[9.795588E3,5.2838945E3,4.511694E3,5.248582E3,3.5312214E1,4.4128784E3,9.8815414E1,5.234596E3,1.3986196E1,3.0875988E1,4.436227E0,3.3109287E3,1.1019496E3,9.30617E1,5.7537136E0],"tree_param":{"num_deleted":"0","num_feature":"45","num_nodes":"15","size_leaf_vector":"1"}},{"base_weights":[1.6679376E-2,9.826291E-1,-1.1117029E0,1.0188223E0,-8.226505E-1,-3.6952534E-1,-1.2745155E0,9.737244E-3,2.3955889E-2,2.1760436E-2,-2.9186144E-2,-3.44751E-2,6.536704E-3,-3.0421585E-2,-1.0088477E-2],"categories":[],"categories_nodes":[],"categories_segments":[],"categories_sizes":[],"default_left":[0,0,0,0,0,0,0,0,0,0,0,0,0,0,0],"id":51,"left_children":[1,3,5,7,9,11,13,-1,-1,-1,-1,-1,-1,-1,-1],"loss_changes":[1.0473417E4,3.3837646E2,5.34728E2,6.2382812E0,7.500296E1,5.6931775E2,6.716797E1,0E0,0E0,0E0,0E0,0E0,0E0,0E0,0E0],"parents":[2147483647,0,0,1,1,2,2,3,3,4,4,5,5,6,6],"right_children":[2,4,6,8,10,12,14,-1,-1,-1,-1,-1,-1,-1,-1],"split_conditions":[6.48E1,9.7E0,8E-1,4.76E1,2E-1,8.2666664E1,1.0392766E-1,9.737244E-3,2.3955889E-2,2.1760436E-2,-2.9186144E-2,-3.44751E-2,6.536704E-3,-3.0421585E-2,-1.0088477E-2],"split_indices":[37,16,43,2,10,44,15,0,0,0,0,0,0,0,0],"split_type":[0,0,0,0,0,0,0,0,0,0,0,0,0,0,0],"sum_hessian":[9.60904E3,5.177375E3,4.431665E3,5.0758735E3,1.0150173E2,7.9780255E2,3.6338625E3,1.9679535E1,5.056194E3,1.9477808E1,8.2023926E1,2.9607697E2,5.017256E2,3.5404326E3,9.34299E1],"tree_param":{"num_deleted":"0","num_feature":"45","num_nodes":"15","size_leaf_vector":"1"}},{"base_weights":[1.9137774E-2,9.9769855E-1,-1.1026294E0,1.0174624E0,-4.8363578E-1,-4.1394114E-1,-1.2472317E0,2.3929767E-2,1.1711779E-2,-4.046877E-2,8.999995E-3,-3.5264514E-2,5.7040392E-3,-2.9580003E-2,2.4263259E-2],"categories":[],"categories_nodes":[],"categories_segments":[],"categories_sizes":[],"default_left":[0,0,0,0,0,0,0,0,0,0,0,0,0,0,0],"id":52,"left_children":[1,3,5,7,9,11,13,-1,-1,-1,-1,-1,-1,-1,-1],"loss_changes":[1.0362336E4,1.4786621E2,4.3718652E2,5.7382812E0,7.17581E1,5.471647E2,1.1257959E2,0E0,0E0,0E0,0E0,0E0,0E0,0E0,0E0],"parents":[2147483647,0,0,1,1,2,2,3,3,4,4,5,5,6,6],"right_children":[2,4,6,8,10,12,14,-1,-1,-1,-1,-1,-1,-1,-1],"split_conditions":[6.470284E1,9.7E0,8E-1,6.3517946E-1,1.9428699E-1,1.682915E1,3.1E-1,2.3929767E-2,1.1711779E-2,-4.046877E-2,8.999995E-3,-3.5264514E-2,5.7040392E-3,-2.9580003E-2,2.4263259E-2],"split_indices":[35,16,43,43,38,42,8,0,0,0,0,0,0,0,0],"split_type":[0,0,0,0,0,0,0,0,0,0,0,0,0,0,0],"sum_hessian":[9.439937E3,5.042014E3,4.3979224E3,4.9759443E3,6.606965E1,7.637457E2,3.6341765E3,4.951119E3,2.4825296E1,2.739816E1,3.8671486E1,2.876522E2,4.7609357E2,3.6129014E3,2.1275154E1],"tree_param":{"num_deleted":"0","num_feature":"45","num_nodes":"15","size_leaf_vector":"1"}},{"base_weights":[1.2443443E-2,9.9484044E-1,-1.094166E0,1.0092953E0,-1.0864025E0,-6.0774386E-1,-1.2420543E0,2.3807041E-2,-5.054298E-2,-3.1751327E-2,2.1488518E-2,8.277412E-3,-2.5437746E-2,-3.171969E-2,-2.1916848E-2],"categories":[],"categories_nodes":[],"categories_segments":[],"categories_sizes":[],"default_left":[0,0,0,0,0,0,0,0,0,0,0,0,0,0,0],"id":53,"left_children":[1,3,5,7,9,11,13,-1,-1,-1,-1,-1,-1,-1,-1],"loss_changes":[1.0105567E4,1.4811182E2,3.1357764E2,8.3620605E1,1.824245E1,4.671528E2,1.1236328E2,0E0,0E0,0E0,0E0,0E0,0E0,0E0,0E0],"parents":[2147483647,0,0,1,1,2,2,3,3,4,4,5,5,6,6],"right_children":[2,4,6,8,10,12,14,-1,-1,-1,-1,-1,-1,-1,-1],"split_conditions":[6.470284E1,1E-1,4.6657434E4,8.8E-1,1.0392766E-1,1E-1,5.1365536E1,2.3807041E-2,-5.054298E-2,-3.1751327E-2,2.1488518E-2,8.277412E-3,-2.5437746E-2,-3.171969E-2,-2.1916848E-2],"split_indices":[35,9,0,18,15,9,3,0,0,0,0,0,0,0,0],"split_type":[0,0,0,0,0,0,0,0,0,0,0,0,0,0,0],"sum_hessian":[9.295682E3,4.9244277E3,4.3712534E3,4.8906875E3,3.374008E1,1.0198947E3,3.351359E3,4.882443E3,8.244516E0,2.9979313E1,3.7607665E0,3.378479E2,6.820468E2,2.4683853E3,8.829737E2],"tree_param":{"num_deleted":"0","num_feature":"45","num_nodes":"15","size_leaf_vector":"1"}},{"base_weights":[1.0805294E-2,9.938453E-1,-1.0789504E0,1.0146675E0,-6.417213E-1,-6.7192435E-1,-1.2513393E0,2.3885228E-2,-3.2438487E-2,-3.6025256E-2,3.2380077E-3,2.1302309E-2,-2.4518099E-2,2.9774375E-2,-2.9843781E-2],"categories":[],"categories_nodes":[],"categories_segments":[],"categories_sizes":[],"default_left":[0,0,0,0,0,0,0,0,0,0,0,0,0,0,0],"id":54,"left_children":[1,3,5,7,9,11,13,-1,-1,-1,-1,-1,-1,-1,-1],"loss_changes":[9.813419E3,1.6420215E2,3.039131E2,3.8589844E1,4.2657043E1,7.624659E2,1.5918457E2,0E0,0E0,0E0,0E0,0E0,0E0,0E0,0E0],"parents":[2147483647,0,0,1,1,2,2,3,3,4,4,5,5,6,6],"right_children":[2,4,6,8,10,12,14,-1,-1,-1,-1,-1,-1,-1,-1],"split_conditions":[6.470284E1,1.94E1,6E-1,1E-1,1.9428699E-1,2E-1,1.158688E0,2.3885228E-2,-3.2438487E-2,-3.6025256E-2,3.2380077E-3,2.1302309E-2,-2.4518099E-2,2.9774375E-2,-2.9843781E-2],"split_indices":[35,16,10,27,38,25,16,0,0,0,0,0,0,0,0],"split_type":[0,0,0,0,0,0,0,0,0,0,0,0,0,0,0],"sum_hessian":[9.160553E3,4.816315E3,4.3442383E3,4.7560547E3,6.026009E1,1.293324E3,3.050914E3,4.749517E3,6.5376797E0,2.8358082E1,3.1902008E1,2.4684367E2,1.0464803E3,2.4667597E1,3.0262466E3],"tree_param":{"num_deleted":"0","num_feature":"45","num_nodes":"15","size_leaf_vector":"1"}},{"base_weights":[1.6984103E-2,9.955402E-1,-1.0616454E0,1.0103208E0,-9.150585E-1,-3.806051E-1,-1.2072033E0,2.3837328E-2,-4.405704E-2,-2.6888108E-2,2.1397432E-2,7.0697023E-3,-3.1782515E-2,-2.853517E-2,2.5780072E-2],"categories":[],"categories_nodes":[],"categories_segments":[],"categories_sizes":[],"default_left":[0,0,0,0,0,0,0,0,0,0,0,0,0,0,0],"id":55,"left_children":[1,3,5,7,9,11,13,-1,-1,-1,-1,-1,-1,-1,-1],"loss_changes":[9.492379E3,1.3321338E2,4.2329883E2,7.6697266E1,1.5286947E1,5.0124E2,7.3677246E1,0E0,0E0,0E0,0E0,0E0,0E0,0E0,0E0],"parents":[2147483647,0,0,1,1,2,2,3,3,4,4,5,5,6,6],"right_children":[2,4,6,8,10,12,14,-1,-1,-1,-1,-1,-1,-1,-1],"split_conditions":[6.470284E1,1E-1,8E-1,5.6E-1,1.0731496E2,1E0,5.1E-1,2.3837328E-2,-4.405704E-2,-2.6888108E-2,2.1397432E-2,7.0697023E-3,-3.1782515E-2,-2.853517E-2,2.5780072E-2],"split_indices":[35,9,43,18,4,10,7,0,0,0,0,0,0,0,0],"split_type":[0,0,0,0,0,0,0,0,0,0,0,0,0,0,0],"sum_hessian":[8.993285E3,4.7156143E3,4.2776704E3,4.6796597E3,3.595472E1,7.5383795E2,3.5238325E3,4.6705986E3,9.061199E0,3.2148758E1,3.805959E0,4.431255E2,3.1071246E2,3.5102468E3,1.3585666E1],"tree_param":{"num_deleted":"0","num_feature":"45","num_nodes":"15","size_leaf_vector":"1"}},{"base_weights":[1.7724933E-2,8.6597145E-1,-1.1414877E0,9.844294E-1,-9.557582E-1,-1.203969E0,2.3908511E-1,2.3811063E-2,-2.3806524E-2,-3.5440877E-2,1.8625846E-3,-2.8630331E-2,-2.5508378E-4,2.8379617E-2,-3.060408E-2],"categories":[],"categories_nodes":[],"categories_segments":[],"categories_sizes":[],"default_left":[0,0,0,0,0,0,0,0,0,0,0,0,0,0,0],"id":56,"left_children":[1,3,5,7,9,11,13,-1,-1,-1,-1,-1,-1,-1,-1],"loss_changes":[8.678033E3,1.0998491E3,3.2211865E2,2.9157617E2,1.7925754E2,6.901758E1,2.4134317E2,0E0,0E0,0E0,0E0,0E0,0E0,0E0,0E0],"parents":[2147483647,0,0,1,1,2,2,3,3,4,4,5,5,6,6],"right_children":[2,4,6,8,10,12,14,-1,-1,-1,-1,-1,-1,-1,-1],"split_conditions":[4.8E-1,6.31946E4,1.0392766E-1,4.235E1,5.0042453E0,1.4112284E3,2E-2,2.3811063E-2,-2.3806524E-2,-3.5440877E-2,1.8625846E-3,-2.8630331E-2,-2.5508378E-4,2.8379617E-2,-3.060408E-2],"split_indices":[43,0,15,16,42,3,13,0,0,0,0,0,0,0,0],"split_type":[0,0,0,0,0,0,0,0,0,0,0,0,0,0,0],"sum_hessian":[8.825565E3,5.0965815E3,3.728984E3,4.785654E3,3.109277E2,3.5678535E3,1.611304E2,4.714026E3,7.162786E1,2.0272215E2,1.08205536E2,3.519231E3,4.8622494E1,9.911466E1,6.201574E1],"tree_param":{"num_deleted":"0","num_feature":"45","num_nodes":"15","size_leaf_vector":"1"}},{"base_weights":[1.14239305E-2,8.574721E-1,-1.1377654E0,9.877749E-1,-1.0070117E0,-1.2008502E0,2.1662094E-1,2.391434E-2,-4.3619648E-2,2.3926873E-2,-3.0557575E-2,-2.8601127E-2,-0E0,2.844973E-2,-3.0661378E-2],"categories":[],"categories_nodes":[],"categories_segments":[],"categories_sizes":[],"default_left":[0,0,0,0,0,0,0,0,0,0,0,0,0,0,0],"id":57,"left_children":[1,3,5,7,9,11,13,-1,-1,-1,-1,-1,-1,-1,-1],"loss_changes":[8.442891E3,1.2151738E3,3.1505908E2,4.1933057E2,1.9565094E2,7.684082E1,2.4810953E2,0E0,0E0,0E0,0E0,0E0,0E0,0E0,0E0],"parents":[2147483647,0,0,1,1,2,2,3,3,4,4,5,5,6,6],"right_children":[2,4,6,8,10,12,14,-1,-1,-1,-1,-1,-1,-1,-1],"split_conditions":[4.8E-1,9E-1,1.0392766E-1,1.03E3,5.1E0,1.4112284E3,2E-2,2.391434E-2,-4.3619648E-2,2.3926873E-2,-3.0557575E-2,-2.8601127E-2,-0E0,2.844973E-2,-3.0661378E-2],"split_indices":[43,10,15,34,16,3,13,0,0,0,0,0,0,0,0],"split_type":[0,0,0,0,0,0,0,0,0,0,0,0,0,0,0],"sum_hessian":[8.683826E3,5.001827E3,3.6819993E3,4.6753364E3,3.2649072E2,3.518464E3,1.6353514E2,4.6242847E3,5.105182E1,4.1333893E1,2.8515683E2,3.4657603E3,5.270387E1,9.907465E1,6.446048E1],"tree_param":{"num_deleted":"0","num_feature":"45","num_nodes":"15","size_leaf_vector":"1"}},{"base_weights":[1.3669698E-2,9.947908E-1,-1.0279722E0,1.0147784E0,-3.6343005E-1,-3.7122074E-1,-1.1710243E0,2.386537E-2,1.1871252E-2,-3.5146855E-2,8.747087E-3,-3.33444E-2,6.301507E-3,-2.8233867E-2,-2.6908505E-3],"categories":[],"categories_nodes":[],"categories_segments":[],"categories_sizes":[],"default_left":[0,0,0,0,0,0,0,0,0,0,0,0,0,0,0],"id":58,"left_children":[1,3,5,7,9,11,13,-1,-1,-1,-1,-1,-1,-1,-1],"loss_changes":[8.73969E3,1.198667E2,3.8894873E2,4.6743164E0,5.3602695E1,4.9933563E2,1.1590918E2,0E0,0E0,0E0,0E0,0E0,0E0,0E0,0E0],"parents":[2147483647,0,0,1,1,2,2,3,3,4,4,5,5,6,6],"right_children":[2,4,6,8,10,12,14,-1,-1,-1,-1,-1,-1,-1,-1],"split_conditions":[6.470284E1,9.7E0,8E-1,6.3517946E-1,1.9428699E-1,6.77397E7,1.0392766E-1,2.386537E-2,1.1871252E-2,-3.5146855E-2,8.747087E-3,-3.33444E-2,6.301507E-3,-2.8233867E-2,-2.6908505E-3],"split_indices":[35,16,43,43,38,38,15,0,0,0,0,0,0,0,0],"split_type":[0,0,0,0,0,0,0,0,0,0,0,0,0,0,0],"sum_hessian":[8.551763E3,4.404049E3,4.1477144E3,4.3405215E3,6.352733E1,7.4244696E2,3.4052676E3,4.3188604E3,2.1660763E1,2.5251822E1,3.827551E1,2.8138617E2,4.6106076E2,3.3035068E3,1.0176056E2],"tree_param":{"num_deleted":"0","num_feature":"45","num_nodes":"15","size_leaf_vector":"1"}},{"base_weights":[2.057799E-2,9.931241E-1,-1.0085497E0,1.0078378E0,-8.681223E-1,-3.4669176E-1,-1.1543185E0,2.3790646E-2,-2.1671614E-2,4.685856E-3,-2.9745003E-2,-3.292842E-2,5.966887E-3,-2.7455898E-2,8.587903E-3],"categories":[],"categories_nodes":[],"categories_segments":[],"categories_sizes":[],"default_left":[0,0,0,0,0,0,0,0,0,0,0,0,0,0,0],"id":59,"left_children":[1,3,5,7,9,11,13,-1,-1,-1,-1,-1,-1,-1,-1],"loss_changes":[8.381937E3,1.1798779E2,3.918335E2,5.1191406E1,1.4812166E1,4.6736285E2,8.118457E1,0E0,0E0,0E0,0E0,0E0,0E0,0E0,0E0],"parents":[2147483647,0,0,1,1,2,2,3,3,4,4,5,5,6,6],"right_children":[2,4,6,8,10,12,14,-1,-1,-1,-1,-1,-1,-1,-1],"split_conditions":[6.470284E1,1E-1,8E-1,1.595E2,6.3517946E-1,2.1820278E0,1.1E-1,2.3790646E-2,-2.1671614E-2,4.685856E-3,-2.9745003E-2,-3.292842E-2,5.966887E-3,-2.7455898E-2,8.587903E-3],"split_indices":[35,9,43,2,43,41,7,0,0,0,0,0,0,0,0],"split_type":[0,0,0,0,0,0,0,0,0,0,0,0,0,0,0],"sum_hessian":[8.374621E3,4.305909E3,4.0687117E3,4.272389E3,3.352044E1,7.3494806E2,3.3337634E3,4.258968E3,1.3421221E1,8.808302E0,2.4712137E1,2.6672543E2,4.6822263E2,3.2994763E3,3.4287273E1],"tree_param":{"num_deleted":"0","num_feature":"45","num_nodes":"15","size_leaf_vector":"1"}},{"base_weights":[1.2269368E-2,9.893459E-1,-1.0080233E0,1.0124758E0,-5.6075567E-1,-3.6069393E-1,-1.1504618E0,2.3827905E-2,-2.8690977E-2,-3.2036375E-2,4.207013E-3,-3.252446E-2,6.1230497E-3,-2.771888E-2,-4.005341E-3],"categories":[],"categories_nodes":[],"categories_segments":[],"categories_sizes":[],"default_left":[0,0,0,0,0,0,0,0,0,0,0,0,0,0,0],"id":60,"left_children":[1,3,5,7,9,11,13,-1,-1,-1,-1,-1,-1,-1,-1],"loss_changes":[8.216446E3,1.511709E2,3.710171E2,2.9098145E1,3.7248318E1,4.6452036E2,9.97334E1,0E0,0E0,0E0,0E0,0E0,0E0,0E0,0E0],"parents":[2147483647,0,0,1,1,2,2,3,3,4,4,5,5,6,6],"right_children":[2,4,6,8,10,12,14,-1,-1,-1,-1,-1,-1,-1,-1],"split_conditions":[6.470284E1,1.94E1,8E-1,1E-1,1.9428699E-1,8.700946E0,1.0392766E-1,2.3827905E-2,-2.8690977E-2,-3.2036375E-2,4.207013E-3,-3.252446E-2,6.1230497E-3,-2.771888E-2,-4.005341E-3],"split_indices":[35,16,43,27,38,39,15,0,0,0,0,0,0,0,0],"split_type":[0,0,0,0,0,0,0,0,0,0,0,0,0,0,0],"sum_hessian":[8.24197E3,4.210385E3,4.0315847E3,4.1487837E3,6.160143E1,7.277139E2,3.3038708E3,4.1431606E3,5.623011E0,2.9816423E1,3.1785006E1,2.7492233E2,4.527916E2,3.2020464E3,1.0182444E2],"tree_param":{"num_deleted":"0","num_feature":"45","num_nodes":"15","size_leaf_vector":"1"}},{"base_weights":[1.593518E-2,9.7324586E-1,-9.7934115E-1,1.0127059E0,-6.993123E-1,-6.2062657E-1,-1.2069199E0,5.4971282E-3,2.3831084E-2,5.593162E-3,-3.02913E-2,-2.7486975E-3,-2.5187323E-2,-2.8513994E-2,2.957832E-2],"categories":[],"categories_nodes":[],"categories_segments":[],"categories_sizes":[],"default_left":[0,0,0,0,0,0,0,0,0,0,0,0,0,0,0],"id":61,"left_children":[1,3,5,7,9,11,13,-1,-1,-1,-1,-1,-1,-1,-1],"loss_changes":[7.704938E3,2.7221167E2,3.2278247E2,8.982422E0,5.307064E1,3.5055035E2,5.0483887E1,0E0,0E0,0E0,0E0,0E0,0E0,0E0,0E0],"parents":[2147483647,0,0,1,1,2,2,3,3,4,4,5,5,6,6],"right_children":[2,4,6,8,10,12,14,-1,-1,-1,-1,-1,-1,-1,-1],"split_conditions":[6.48E1,9.7E0,1.912E2,4.76E1,6E-1,5.8148E2,3.1E-1,5.4971282E-3,2.3831084E-2,5.593162E-3,-3.02913E-2,-2.7486975E-3,-2.5187323E-2,-2.8513994E-2,2.957832E-2],"split_indices":[37,16,16,2,10,34,8,0,0,0,0,0,0,0,0],"split_type":[0,0,0,0,0,0,0,0,0,0,0,0,0,0,0],"sum_hessian":[8.0867236E3,4.1222217E3,3.964502E3,4.0274854E3,9.4736336E1,1.5396891E3,2.424813E3,1.6341326E1,4.011144E3,3.6347286E1,5.838905E1,7.2966693E2,8.100221E2,2.4167385E3,8.074563E0],"tree_param":{"num_deleted":"0","num_feature":"45","num_nodes":"15","size_leaf_vector":"1"}},{"base_weights":[1.5196753E-2,9.870131E-1,-9.7807026E-1,1.0122169E0,-4.7258732E-1,-3.362672E-1,-1.1221881E0,2.3825195E-2,8.755059E-3,-2.2948014E-2,2.263439E-2,-3.1734593E-2,5.8330684E-3,-2.7098991E-2,-3.037655E-3],"categories":[],"categories_nodes":[],"categories_segments":[],"categories_sizes":[],"default_left":[0,0,0,0,0,0,0,0,0,0,0,0,0,0,0],"id":62,"left_children":[1,3,5,7,9,11,13,-1,-1,-1,-1,-1,-1,-1,-1],"loss_changes":[7.6900586E3,1.4840112E2,3.6370874E2,7.671631E0,4.9447044E1,4.3033676E2,1.0432202E2,0E0,0E0,0E0,0E0,0E0,0E0,0E0,0E0],"parents":[2147483647,0,0,1,1,2,2,3,3,4,4,5,5,6,6],"right_children":[2,4,6,8,10,12,14,-1,-1,-1,-1,-1,-1,-1,-1],"split_conditions":[6.470284E1,9.7E0,8E-1,6.3517946E-1,1.0731496E2,8.700946E0,1.0392766E-1,2.3825195E-2,8.755059E-3,-2.2948014E-2,2.263439E-2,-3.1734593E-2,5.8330684E-3,-2.7098991E-2,-3.037655E-3],"split_indices":[35,16,43,43,3,39,15,0,0,0,0,0,0,0,0],"split_type":[0,0,0,0,0,0,0,0,0,0,0,0,0,0,0],"sum_hessian":[7.9667114E3,4.027078E3,3.9396335E3,3.9590383E3,6.803957E1,7.2302936E2,3.2166042E3,3.9380166E3,2.1021631E1,5.0578896E1,1.7460676E1,2.643954E2,4.5863397E2,3.1130813E3,1.0352281E2],"tree_param":{"num_deleted":"0","num_feature":"45","num_nodes":"15","size_leaf_vector":"1"}},{"base_weights":[1.94441E-2,9.7249424E-1,-9.5621854E-1,1.0063655E0,-6.1345345E-1,-2.7357572E-1,-1.1168648E0,2.3714459E-2,-1.4711589E-2,-2.6312696E-2,2.1863692E-2,8.361354E-3,-2.8825056E-2,-2.6735721E-2,-3.97466E-3],"categories":[],"categories_nodes":[],"categories_segments":[],"categories_sizes":[],"default_left":[0,0,0,0,0,0,0,0,0,0,0,0,0,0,0],"id":63,"left_children":[1,3,5,7,9,11,13,-1,-1,-1,-1,-1,-1,-1,-1],"loss_changes":[7.2510425E3,2.121023E2,4.2188525E2,2.8087402E1,6.463169E1,4.423589E2,6.645093E1,0E0,0E0,0E0,0E0,0E0,0E0,0E0,0E0],"parents":[2147483647,0,0,1,1,2,2,3,3,4,4,5,5,6,6],"right_children":[2,4,6,8,10,12,14,-1,-1,-1,-1,-1,-1,-1,-1],"split_conditions":[6.48E1,8E-1,8E-1,1.595E2,1E-2,1E0,1E-2,2.3714459E-2,-1.4711589E-2,-2.6312696E-2,2.1863692E-2,8.361354E-3,-2.8825056E-2,-2.6735721E-2,-3.97466E-3],"split_indices":[37,43,43,2,8,10,8,0,0,0,0,0,0,0,0],"split_type":[0,0,0,0,0,0,0,0,0,0,0,0,0,0,0],"sum_hessian":[7.7980225E3,3.9449683E3,3.853054E3,3.8627686E3,8.219975E1,7.345656E2,3.1184883E3,3.8526262E3,1.0142223E1,6.209114E1,2.010861E1,4.4231378E2,2.9225183E2,3.0450352E3,7.345323E1],"tree_param":{"num_deleted":"0","num_feature":"45","num_nodes":"15","size_leaf_vector":"1"}},{"base_weights":[1.3774232E-2,9.84475E-1,-9.575402E-1,1.0013211E0,-9.7015977E-1,-3.0935413E-1,-1.1032821E0,2.3667404E-2,-3.81494E-2,-3.085246E-2,2.4408E-2,-3.0947965E-2,7.1906783E-3,-2.6663706E-2,-3.5105362E-3],"categories":[],"categories_nodes":[],"categories_segments":[],"categories_sizes":[],"default_left":[0,0,0,0,0,0,0,0,0,0,0,0,0,0,0],"id":64,"left_children":[1,3,5,7,9,11,13,-1,-1,-1,-1,-1,-1,-1,-1],"loss_changes":[7.2554473E3,1.2675708E2,3.626682E2,7.4528564E1,2.277015E1,4.3989636E2,9.883154E1,0E0,0E0,0E0,0E0,0E0,0E0,0E0,0E0],"parents":[2147483647,0,0,1,1,2,2,3,3,4,4,5,5,6,6],"right_children":[2,4,6,8,10,12,14,-1,-1,-1,-1,-1,-1,-1,-1],"split_conditions":[6.470284E1,1E-1,8E-1,5.6E-1,1.0392766E-1,5.2122425E1,1.0392766E-1,2.3667404E-2,-3.81494E-2,-3.085246E-2,2.4408E-2,-3.0947965E-2,7.1906783E-3,-2.6663706E-2,-3.5105362E-3],"split_indices":[35,9,43,18,15,42,15,0,0,0,0,0,0,0,0],"split_type":[0,0,0,0,0,0,0,0,0,0,0,0,0,0,0],"sum_hessian":[7.695167E3,3.8490425E3,3.8461248E3,3.8163926E3,3.2649807E1,7.0663043E2,3.1394944E3,3.8057646E3,1.0627974E1,2.8069887E1,4.579919E0,2.6799158E2,4.3863885E2,3.0333562E3,1.0613801E2],"tree_param":{"num_deleted":"0","num_feature":"45","num_nodes":"15","size_leaf_vector":"1"}},{"base_weights":[1.14249755E-2,9.845558E-1,-9.490611E-1,1.0109422E0,-4.8864248E-1,-3.2725567E-1,-1.0932916E0,2.3796754E-2,8.721345E-3,2.2464063E-2,-2.375078E-2,-3.1066941E-2,5.8345585E-3,-2.1163704E-2,-2.907101E-2],"categories":[],"categories_nodes":[],"categories_segments":[],"categories_sizes":[],"default_left":[0,0,0,0,0,0,0,0,0,0,0,0,0,0,0],"id":65,"left_children":[1,3,5,7,9,11,13,-1,-1,-1,-1,-1,-1,-1,-1],"loss_changes":[7.0658457E3,1.4622656E2,3.4051123E2,7.254883E0,4.983245E1,4.1212766E2,8.5072754E1,0E0,0E0,0E0,0E0,0E0,0E0,0E0,0E0],"parents":[2147483647,0,0,1,1,2,2,3,3,4,4,5,5,6,6],"right_children":[2,4,6,8,10,12,14,-1,-1,-1,-1,-1,-1,-1,-1],"split_conditions":[6.470284E1,9.7E0,8E-1,6.3517946E-1,2E-1,8.700946E0,5.246E2,2.3796754E-2,8.721345E-3,2.2464063E-2,-2.375078E-2,-3.1066941E-2,5.8345585E-3,-2.1163704E-2,-2.907101E-2],"split_indices":[35,16,43,43,10,39,16,0,0,0,0,0,0,0,0],"split_type":[0,0,0,0,0,0,0,0,0,0,0,0,0,0,0],"sum_hessian":[7.5596333E3,3.755343E3,3.8042905E3,3.6895796E3,6.576352E1,7.1689465E2,3.0873958E3,3.669587E3,1.9992458E1,1.7243948E1,4.851957E1,2.628087E2,4.54086E2,1.337094E3,1.7503018E3],"tree_param":{"num_deleted":"0","num_feature":"45","num_nodes":"15","size_leaf_vector":"1"}},{"base_weights":[1.584664E-2,1.0038223E0,-8.6248434E-1,1.0084528E0,-4.136233E-2,-8.8253826E-2,-1.0788769E0,2.373812E-2,-3.1797312E-2,-3.0884098E-2,1.0838783E-2,-2.5695635E-2,1.9648673E-2],"categories":[],"categories_nodes":[],"categories_segments":[],"categories_sizes":[],"default_left":[0,0,0,0,0,0,0,0,0,0,0,0,0],"id":66,"left_children":[1,3,5,7,-1,9,11,-1,-1,-1,-1,-1,-1],"loss_changes":[6.4448433E3,4.442798E1,6.5809375E2,2.7425293E1,0E0,5.8104596E2,9.6413574E1,0E0,0E0,0E0,0E0,0E0,0E0],"parents":[2147483647,0,0,1,1,2,2,3,3,5,5,6,6],"right_children":[2,4,6,8,-1,10,12,-1,-1,-1,-1,-1,-1],"split_conditions":[6.52E1,7E-1,8E-1,7.436E2,-4.136233E-2,8.700946E0,3.1E-1,2.373812E-2,-3.1797312E-2,-3.0884098E-2,1.0838783E-2,-2.5695635E-2,1.9648673E-2],"split_indices":[34,18,43,16,0,39,8,0,0,0,0,0,0],"split_type":[0,0,0,0,0,0,0,0,0,0,0,0,0],"sum_hessian":[7.4268267E3,3.4955044E3,3.931322E3,3.4898352E3,5.6691437E0,8.5923785E2,3.0720842E3,3.485105E3,4.730311E0,2.661188E2,5.93119E2,3.046331E3,2.5753143E1],"tree_param":{"num_deleted":"0","num_feature":"45","num_nodes":"13","size_leaf_vector":"1"}},{"base_weights":[1.5128803E-2,8.3764833E-1,-1.0207605E0,9.824107E-1,-9.689225E-1,-1.0843234E0,2.7600515E-1,2.3808995E-2,-4.338343E-2,2.3947874E-2,-2.881272E-2,-2.7474275E-2,-1.6896876E-2,2.5194936E-2,-2.6280418E-2],"categories":[],"categories_nodes":[],"categories_segments":[],"categories_sizes":[],"default_left":[0,0,0,0,0,0,0,0,0,0,0,0,0,0,0],"id":67,"left_children":[1,3,5,7,9,11,13,-1,-1,-1,-1,-1,-1,-1,-1],"loss_changes":[6.2187856E3,1.0640574E3,2.6663037E2,3.452827E2,1.556214E2,9.635034E1,1.6772935E2,0E0,0E0,0E0,0E0,0E0,0E0,0E0,0E0],"parents":[2147483647,0,0,1,1,2,2,3,3,4,4,5,5,6,6],"right_children":[2,4,6,8,10,12,14,-1,-1,-1,-1,-1,-1,-1,-1],"split_conditions":[4.8E-1,9E-1,1.0392766E-1,4.809539E1,2.3804164E0,5.4171883E1,3E-1,2.3808995E-2,-4.338343E-2,2.3947874E-2,-2.881272E-2,-2.7474275E-2,-1.6896876E-2,2.5194936E-2,-2.6280418E-2],"split_indices":[43,10,15,40,16,3,18,0,0,0,0,0,0,0,0],"split_type":[0,0,0,0,0,0,0,0,0,0,0,0,0,0,0],"sum_hessian":[7.2988076E3,4.0686575E3,3.23015E3,3.7670605E3,3.0159683E2,3.0795647E3,1.5058528E2,3.7245999E3,4.246064E1,3.4547894E1,2.6704895E2,2.4861553E3,5.934094E2,9.6038795E1,5.4546486E1],"tree_param":{"num_deleted":"0","num_feature":"45","num_nodes":"15","size_leaf_vector":"1"}},{"base_weights":[2.8523324E-2,9.8548615E-1,-9.006606E-1,-1.3594937E0,9.996697E-1,-2.7298537E-1,-1.0479304E0,-5.8177758E-2,-2.5917262E-2,2.3607053E-2,-3.4154255E-2,-3.167287E-2,5.8798515E-3,-2.5266947E-2,-1.4830192E-3],"categories":[],"categories_nodes":[],"categories_segments":[],"categories_sizes":[],"default_left":[0,0,0,0,0,0,0,0,0,0,0,0,0,0,0],"id":68,"left_children":[1,3,5,7,9,11,13,-1,-1,-1,-1,-1,-1,-1,-1],"loss_changes":[6.346737E3,1.1679053E2,3.3410205E2,4.2836685E0,5.5928223E1,3.8893216E2,8.328735E1,0E0,0E0,0E0,0E0,0E0,0E0,0E0,0E0],"parents":[2147483647,0,0,1,1,2,2,3,3,4,4,5,5,6,6],"right_children":[2,4,6,8,10,12,14,-1,-1,-1,-1,-1,-1,-1,-1],"split_conditions":[6.470284E1,9.4E-1,8E-1,1.1E-1,5.6E-1,1.4901161E-9,1E-2,-5.8177758E-2,-2.5917262E-2,2.3607053E-2,-3.4154255E-2,-3.167287E-2,5.8798515E-3,-2.5266947E-2,-1.4830192E-3],"split_indices":[35,30,43,10,18,43,8,0,0,0,0,0,0,0,0],"split_type":[0,0,0,0,0,0,0,0,0,0,0,0,0,0,0],"sum_hessian":[7.1375786E3,3.516479E3,3.6210999E3,2.0940876E1,3.495538E3,6.8875977E2,2.93234E3,3.535803E0,1.7405073E1,3.4864438E3,9.094239E0,2.2560526E2,4.631545E2,2.8479028E3,8.443732E1],"tree_param":{"num_deleted":"0","num_feature":"45","num_nodes":"15","size_leaf_vector":"1"}},{"base_weights":[1.891903E-2,9.834883E-1,-9.02841E-1,-2.950678E-1,1.0065595E0,-3.0279037E-1,-1.0479231E0,-4.752494E-2,2.4317838E-2,2.3735344E-2,-6.333457E-3,-3.0802846E-2,6.0048094E-3,-2.5400994E-2,-1.6814861E-3],"categories":[],"categories_nodes":[],"categories_segments":[],"categories_sizes":[],"default_left":[0,0,0,0,0,0,0,0,0,0,0,0,0,0,0],"id":69,"left_children":[1,3,5,7,9,11,13,-1,-1,-1,-1,-1,-1,-1,-1],"loss_changes":[6.248628E3,1.01645996E2,3.1219922E2,1.3991936E2,2.2397705E1,3.9575006E2,9.7608154E1,0E0,0E0,0E0,0E0,0E0,0E0,0E0,0E0],"parents":[2147483647,0,0,1,1,2,2,3,3,4,4,5,5,6,6],"right_children":[2,4,6,8,10,12,14,-1,-1,-1,-1,-1,-1,-1,-1],"split_conditions":[6.470284E1,4.163662E1,8E-1,1.0392766E-1,1E0,8.2666664E1,1.0392766E-1,-4.752494E-2,2.4317838E-2,2.3735344E-2,-6.333457E-3,-3.0802846E-2,6.0048094E-3,-2.5400994E-2,-1.6814861E-3],"split_indices":[35,44,43,15,43,44,15,0,0,0,0,0,0,0,0],"split_type":[0,0,0,0,0,0,0,0,0,0,0,0,0,0,0],"sum_hessian":[7.0279814E3,3.4344924E3,3.5934888E3,6.0513214E1,3.3739792E3,7.00309E2,2.8931797E3,2.646779E1,3.404542E1,3.3608716E3,1.3107707E1,2.497084E2,4.5060065E2,2.7932664E3,9.9913376E1],"tree_param":{"num_deleted":"0","num_feature":"45","num_nodes":"15","size_leaf_vector":"1"}},{"base_weights":[1.1639671E-2,9.673646E-1,-8.9094037E-1,1.0085238E0,-6.5855014E-1,-2.706504E-1,-1.0441796E0,5.182138E-3,2.3742175E-2,2.2209324E-2,-2.3894424E-2,-2.9471438E-2,6.8158708E-3,-2.0156173E-2,-2.8576251E-2],"categories":[],"categories_nodes":[],"categories_segments":[],"categories_sizes":[],"default_left":[0,0,0,0,0,0,0,0,0,0,0,0,0,0,0],"id":70,"left_children":[1,3,5,7,9,11,13,-1,-1,-1,-1,-1,-1,-1,-1],"loss_changes":[6.0023237E3,2.2635107E2,3.3951172E2,8.365723E0,4.808081E1,3.92836E2,9.1308105E1,0E0,0E0,0E0,0E0,0E0,0E0,0E0,0E0],"parents":[2147483647,0,0,1,1,2,2,3,3,4,4,5,5,6,6],"right_children":[2,4,6,8,10,12,14,-1,-1,-1,-1,-1,-1,-1,-1],"split_conditions":[6.48E1,9.7E0,8E-1,4.76E1,2E-1,8.2666664E1,7.436E2,5.182138E-3,2.3742175E-2,2.2209324E-2,-2.3894424E-2,-2.9471438E-2,6.8158708E-3,-2.0156173E-2,-2.8576251E-2],"split_indices":[37,16,43,2,10,44,16,0,0,0,0,0,0,0,0],"split_type":[0,0,0,0,0,0,0,0,0,0,0,0,0,0,0],"sum_hessian":[6.9582188E3,3.3798657E3,3.5783528E3,3.296702E3,8.3163734E1,7.094965E2,2.8688564E3,1.4957013E1,3.2817449E3,1.4991083E1,6.817265E1,2.5772287E2,4.5177368E2,1.3908912E3,1.4779651E3],"tree_param":{"num_deleted":"0","num_feature":"45","num_nodes":"15","size_leaf_vector":"1"}},{"base_weights":[1.1555032E-2,9.820491E-1,-8.9011437E-1,1.0080053E0,-4.0228516E-1,-5.4365134E-1,-1.1174681E0,1.3275919E-2,2.3752633E-2,-2.0846236E-2,2.391664E-2,-1.428474E-3,-2.2913367E-2,-2.740156E-2,-1.5061071E-2],"categories":[],"categories_nodes":[],"categories_segments":[],"categories_sizes":[],"default_left":[0,0,0,0,0,0,0,0,0,0,0,0,0,0,0],"id":71,"left_children":[1,3,5,7,9,11,13,-1,-1,-1,-1,-1,-1,-1,-1],"loss_changes":[5.9689824E3,1.1833887E2,2.7772144E2,5.5439453E0,4.1509758E1,2.925153E2,5.0365967E1,0E0,0E0,0E0,0E0,0E0,0E0,0E0,0E0],"parents":[2147483647,0,0,1,1,2,2,3,3,4,4,5,5,6,6],"right_children":[2,4,6,8,10,12,14,-1,-1,-1,-1,-1,-1,-1,-1],"split_conditions":[6.470284E1,9.7E0,1.912E2,1.000071E-1,1.0731496E2,5.8148E2,6.600712E4,1.3275919E-2,2.3752633E-2,-2.0846236E-2,2.391664E-2,-1.428474E-3,-2.2913367E-2,-2.740156E-2,-1.5061071E-2],"split_indices":[35,16,16,38,3,34,42,0,0,0,0,0,0,0,0],"split_type":[0,0,0,0,0,0,0,0,0,0,0,0,0,0,0],"sum_hessian":[6.821137E3,3.2854412E3,3.5356963E3,3.2253079E3,6.0133183E1,1.4017129E3,2.1339834E3,3.2911728E1,3.1923962E3,4.50555E1,1.5077682E1,6.6327936E2,7.384336E2,1.9282981E3,2.0568532E2],"tree_param":{"num_deleted":"0","num_feature":"45","num_nodes":"15","size_leaf_vector":"1"}},{"base_weights":[1.3071851E-2,9.812725E-1,-8.759991E-1,1.0084686E0,-4.255168E-1,-2.725119E-1,-1.0223837E0,2.3737507E-2,9.461359E-3,-2.0427635E-2,2.2723136E-2,-2.955517E-2,7.266057E-3,-2.4842236E-2,-2.8176725E-4],"categories":[],"categories_nodes":[],"categories_segments":[],"categories_sizes":[],"default_left":[0,0,0,0,0,0,0,0,0,0,0,0,0,0,0],"id":72,"left_children":[1,3,5,7,9,11,13,-1,-1,-1,-1,-1,-1,-1,-1],"loss_changes":[5.7630327E3,1.228999E2,3.0768408E2,5.616211E0,3.7474583E1,3.9238422E2,1.02974365E2,0E0,0E0,0E0,0E0,0E0,0E0,0E0,0E0],"parents":[2147483647,0,0,1,1,2,2,3,3,4,4,5,5,6,6],"right_children":[2,4,6,8,10,12,14,-1,-1,-1,-1,-1,-1,-1,-1],"split_conditions":[6.470284E1,9.7E0,8E-1,6.3517946E-1,1.0731496E2,5.2122425E1,1.0392766E-1,2.3737507E-2,9.461359E-3,-2.0427635E-2,2.2723136E-2,-2.955517E-2,7.266057E-3,-2.4842236E-2,-2.8176725E-4],"split_indices":[35,16,43,43,3,42,15,0,0,0,0,0,0,0,0],"split_type":[0,0,0,0,0,0,0,0,0,0,0,0,0,0,0],"sum_hessian":[6.69492E3,3.2050942E3,3.4898257E3,3.1446377E3,6.0456577E1,6.818886E2,2.8079373E3,3.1267966E3,1.7841E1,4.6080215E1,1.4376362E1,2.5326016E2,4.2862845E2,2.7096523E3,9.828492E1],"tree_param":{"num_deleted":"0","num_feature":"45","num_nodes":"15","size_leaf_vector":"1"}},{"base_weights":[1.3092522E-2,9.940392E-1,-8.5316026E-1,1.0098155E0,-1.7554554E-1,-2.208732E-1,-1.0158069E0,9.434648E-3,2.3739086E-2,-3.1229228E-2,8.227541E-3,-2.8408755E-2,6.994455E-3,-2.45881E-2,2.2158703E-4],"categories":[],"categories_nodes":[],"categories_segments":[],"categories_sizes":[],"default_left":[0,0,0,0,0,0,0,0,0,0,0,0,0,0,0],"id":73,"left_children":[1,3,5,7,9,11,13,-1,-1,-1,-1,-1,-1,-1,-1],"loss_changes":[5.5908203E3,5.732959E1,3.587019E2,3.074707E0,2.5194204E1,3.6801706E2,9.226294E1,0E0,0E0,0E0,0E0,0E0,0E0,0E0,0E0],"parents":[2147483647,0,0,1,1,2,2,3,3,4,4,5,5,6,6],"right_children":[2,4,6,8,10,12,14,-1,-1,-1,-1,-1,-1,-1,-1],"split_conditions":[6.1034756E1,9.7E0,8E-1,4.76E1,8.700946E0,8.700946E0,1E-2,9.434648E-3,2.3739086E-2,-3.1229228E-2,8.227541E-3,-2.8408755E-2,6.994455E-3,-2.45881E-2,2.2158703E-4],"split_indices":[35,16,43,2,39,39,8,0,0,0,0,0,0,0,0],"split_type":[0,0,0,0,0,0,0,0,0,0,0,0,0,0,0],"sum_hessian":[6.579308E3,3.0856523E3,3.4936555E3,3.044983E3,4.066949E1,7.1541034E2,2.778245E3,1.0876137E1,3.034107E3,1.3005652E1,2.766384E1,2.4636766E2,4.690427E2,2.694044E3,8.420116E1],"tree_param":{"num_deleted":"0","num_feature":"45","num_nodes":"15","size_leaf_vector":"1"}},{"base_weights":[1.4726114E-2,9.819779E-1,-8.5725564E-1,1.007671E0,-3.1512374E-1,-2.5330177E-1,-1.0079057E0,2.372843E-2,8.65767E-3,-2.8062392E-2,7.3166285E-3,8.387377E-3,-2.771268E-2,-1.9333398E-2,-2.7748402E-2],"categories":[],"categories_nodes":[],"categories_segments":[],"categories_sizes":[],"default_left":[0,0,0,0,0,0,0,0,0,0,0,0,0,0,0],"id":74,"left_children":[1,3,5,7,9,11,13,-1,-1,-1,-1,-1,-1,-1,-1],"loss_changes":[5.446923E3,1.0237329E2,3.0839355E2,6.468994E0,3.30726E1,3.8500098E2,8.6393555E1,0E0,0E0,0E0,0E0,0E0,0E0,0E0,0E0],"parents":[2147483647,0,0,1,1,2,2,3,3,4,4,5,5,6,6],"right_children":[2,4,6,8,10,12,14,-1,-1,-1,-1,-1,-1,-1,-1],"split_conditions":[6.470284E1,9.7E0,8E-1,6.3517946E-1,1.9428699E-1,1E0,7.436E2,2.372843E-2,8.65767E-3,-2.8062392E-2,7.3166285E-3,8.387377E-3,-2.771268E-2,-1.9333398E-2,-2.7748402E-2],"split_indices":[35,16,43,43,38,10,16,0,0,0,0,0,0,0,0],"split_type":[0,0,0,0,0,0,0,0,0,0,0,0,0,0,0],"sum_hessian":[6.458021E3,3.0620083E3,3.3960127E3,3.0028906E3,5.9117523E1,6.7861017E2,2.7174026E3,2.9847988E3,1.8091879E1,2.4892385E1,3.422514E1,