tree
version=v4
num_class=1
num_tree_per_iteration=1
label_index=0
max_feature_idx=44
objective=binary sigmoid:1
feature_names=Column_0 Column_1 Column_2 Column_3 Column_4 Column_5 Column_6 Column_7 Column_8 Column_9 Column_10 Column_11 Column_12 Column_13 Column_14 Column_15 Column_16 Column_17 Column_18 Column_19 Column_20 Column_21 Column_22 Column_23 Column_24 Column_25 Column_26 Column_27 Column_28 Column_29 Column_30 Column_31 Column_32 Column_33 Column_34 Column_35 Column_36 Column_37 Column_38 Column_39 Column_40 Column_41 Column_42 Column_43 Column_44
feature_infos=[0:14] none none [0.048537317663431168:816.61505126953125] none [0.048537317663431168:816.61505126953125] none none none none none none none none none none none none none none none none none none none none none none none none none [0:1] [63.599998474121094:24025376] [8:10] [15.899999618530273:262] [10.919682502746582:46.393623352050781] [3.092418909072876:83.135696411132812] [9.8000001907348633:130.69999694824219] [0.00025691985501907766:67768.65625] [5.5:998375.5] [3.2967233657836914:6.8111577033996582] [3.092418909072876:83.135696411132812] none none none
tree_sizes=853 580 581 584 582 584 583 580 582 581 585 692 585 585 585 578 584 794 586 585 688 584 687

Tree=0
num_leaves=7
num_cat=0
split_feature=0 37 41 37 36 3
split_gain=76617.9 6091.51 793.126 744.476 391.051 10.1564
threshold=7.6999998092651376 23.94999980926514 13.736165046691896 24.050000190734867 13.736165046691896 6.7699365615844735
decision_type=2 2 2 2 2 2
left_child=1 4 -2 -3 -1 -5
right_child=2 3 -4 5 -6 -7
leaf_value=1.4502944383530674 1.4627766349782803 1.4816190146841945 1.3251383529875334 1.3990905574215866 1.3448495580918329 1.4414535294556314
leaf_weight=24.137886047363281 19.835316181182861 10775.317378044128 2337.6786408424377 27.520215511322021 177.72827577590942 24.752819538116455
leaf_count=157 129 70086 15205 179 1156 161
internal_value=1.45151 1.47854 1.32644 1.48112 1.35546 1.40729
internal_weight=13387 11029.5 2357.51 10827.6 201.866 52.273
internal_count=87073 71739 15334 70426 1313 340
is_linear=0
shrinkage=1


Tree=1
num_leaves=4
num_cat=0
split_feature=35 32 33
split_gain=71781.3 3760.85 1449.79
threshold=26.912943840026859 111461.19921875001 9.0000000000000018
decision_type=2 2 2
left_child=1 -1 -2
right_child=2 -3 -4
leaf_value=-0.091196029717791297 -0.11475735829750922 0.029810061071639131 0.0167151805365972
leaf_weight=122.8769970536232 2617.1246258914471 10631.241020202637 42.586715966463089
leaf_count=749 15796 70449 281
internal_value=5.33676e-05 0.0281469 -0.112469
internal_weight=13413.8 10754.1 2659.71
internal_count=87275 71198 16077
is_linear=0
shrinkage=0.0243659


Tree=2
num_leaves=4
num_cat=0
split_feature=40 32 33
split_gain=65072.7 3739.8 1152.04
threshold=5.214181900024415 62186.099609375007 9.0000000000000018
decision_type=2 2 2
left_child=1 -1 -2
right_child=2 -3 -4
leaf_value=-0.086370237686836118 -0.10499756554168649 0.029646225323468209 0.016022883258535538
leaf_weight=135.90716370940208 2782.6937550157309 10439.467966079712 39.027867451310158
leaf_count=786 15747 70498 260
internal_value=9.62285e-05 0.0278857 -0.103154
internal_weight=13397.1 10575.4 2821.72
internal_count=87291 71284 16007
is_linear=0
shrinkage=0.0243659


Tree=3
num_leaves=4
num_cat=0
split_feature=35 32 33
split_gain=59725.3 3389.45 1116.72
threshold=26.912943840026859 111461.19921875001 9.0000000000000018
decision_type=2 2 2
left_child=1 -1 -2
right_child=2 -3 -4
leaf_value=-0.080959880534498457 -0.097004530518418078 0.029487452271523412 0.016669923201138311
leaf_weight=136.16450083255768 2952.5682413130999 10200.974367141724 42.902972981333733
leaf_count=752 15817 70213 289
internal_value=-2.7027e-05 0.0277743 -0.095209
internal_weight=13332.6 10337.1 2995.47
internal_count=87071 70965 16106
is_linear=0
shrinkage=0.0243659


Tree=4
num_leaves=4
num_cat=0
split_feature=35 32 33
split_gain=55138.5 3204.23 980.328
threshold=26.912943840026859 62186.099609375007 9.0000000000000018
decision_type=2 2 2
left_child=1 -1 -2
right_child=2 -3 -4
leaf_value=-0.076514788666206382 -0.090310948046058298 0.029334547139917299 0.016485249928560364
leaf_weight=141.37611331045628 3094.9591865092516 10026.519826889038 42.13401035964489
leaf_count=749 15818 70351 287
internal_value=3.10828e-05 0.0276149 -0.0887166
internal_weight=13305 10167.9 3137.09
internal_count=87205 71100 16105
is_linear=0
shrinkage=0.0243659


Tree=5
num_leaves=4
num_cat=0
split_feature=40 32 33
split_gain=50912.7 3210.84 803.597
threshold=5.214181900024415 62186.099609375007 9.0000000000000018
decision_type=2 2 2
left_child=1 -1 -2
right_child=2 -3 -4
leaf_value=-0.073361110289325029 -0.084621090780756109 0.029186936268949599 0.015724082047429481
leaf_weight=153.44808043539524 3201.9108508080244 9845.8778228759766 38.223956778645515
leaf_count=783 15715 70433 263
internal_value=0.000147346 0.0273721 -0.0832876
internal_weight=13239.5 9999.33 3240.13
internal_count=87194 71216 15978
is_linear=0
shrinkage=0.0243659


Tree=6
num_leaves=4
num_cat=0
split_feature=40 39 33
split_gain=47499.1 3079.92 715.309
threshold=5.214181900024415 3970.5000000000005 9.0000000000000018
decision_type=2 2 2
left_child=1 -1 -2
right_child=2 -3 -4
leaf_value=-0.069099570530826812 -0.079743718899429009 0.029043665940566375 0.015498517292397184
leaf_weight=162.62625150382519 3322.6059479862452 9635.168098449707 37.278092846274376
leaf_count=807 15748 70283 259
internal_value=5.37853e-05 0.0271834 -0.0785435
internal_weight=13157.7 9797.79 3359.88
internal_count=87097 71090 16007
is_linear=0
shrinkage=0.0243659


Tree=7
num_leaves=4
num_cat=0
split_feature=35 39 34
split_gain=44499.1 2890.78 710.846
threshold=26.912943840026859 3970.5000000000005 249.80000305175784
decision_type=2 2 2
left_child=1 -1 -2
right_child=2 -3 -4
leaf_value=-0.06705767864007503 0.016019629993545077 0.028905533680082321 -0.075506127180432273
leaf_weight=159.1864770501852 40.2206070125103 9467.3183193206787 3427.4917877018452
leaf_count=764 282 70428 15763
internal_value=0.000117375 0.0270903 -0.0743006
internal_weight=13094.2 9626.5 3467.71
internal_count=87237 71192 16045
is_linear=0
shrinkage=0.0243659


Tree=8
num_leaves=4
num_cat=0
split_feature=35 39 33
split_gain=41645.3 2735.89 651.231
threshold=26.912943840026859 3970.5000000000005 9.0000000000000018
decision_type=2 2 2
left_child=1 -1 -2
right_child=2 -3 -4
leaf_value=-0.063951133646078184 -0.071786650249551651 0.02877118884833172 0.015890181706147762
leaf_weight=162.11618246138096 3505.0046264380217 9244.6238784790039 39.77365954220295
leaf_count=758 15706 70144 282
internal_value=0.00012028 0.0269506 -0.0706625
internal_weight=12951.5 9406.74 3544.78
internal_count=86890 70902 15988
is_linear=0
shrinkage=0.0243659


Tree=9
num_leaves=4
num_cat=0
split_feature=40 32 33
split_gain=39468.5 2238.7 936.927
threshold=5.0764400959014901 62186.099609375007 9.0000000000000018
decision_type=2 2 2
left_child=1 -1 -2
right_child=2 -3 -4
leaf_value=-0.059696728072269702 -0.068544222984035147 0.028641647807015561 0.018767578596402632
leaf_weight=143.1470942646265 3626.4614450633526 9057.0930728912354 61.297229558229446
leaf_count=654 15895 70102 452
internal_value=5.55922e-05 0.0270544 -0.0669361
internal_weight=12888 9200.24 3687.76
internal_count=87103 70756 16347
is_linear=0
shrinkage=0.0243659


Tree=10
num_leaves=4
num_cat=0
split_feature=40 39 33
split_gain=37224.3 2215.14 916.432
threshold=5.0764400959014901 6400.5000000000009 9.0000000000000018
decision_type=2 2 2
left_child=1 -1 -2
right_child=2 -3 -4
leaf_value=-0.057932382592337538 -0.065612632379177305 0.028516066632299802 0.018985080831504738
leaf_weight=149.20576769113541 3698.821455553174 8871.7819995880127 63.940526410937309
leaf_count=668 15904 70056 478
internal_value=2.39185e-05 0.0268759 -0.0640193
internal_weight=12783.7 9020.99 3762.76
internal_count=87106 70724 16382
is_linear=0
shrinkage=0.0243659


Tree=11
num_leaves=5
num_cat=0
split_feature=40 36 33 37
split_gain=35203.5 2043.22 834.287 62.8793
threshold=5.0764400959014901 22.391022682189945 9.0000000000000018 18.750000000000004
decision_type=2 2 2 2
left_child=1 3 -2 -1
right_child=2 -3 -4 -5
leaf_value=-0.0060731606140022052 -0.062986095330148983 -0.055920997032629677 0.018706525131630718 0.028395334357711743
leaf_weight=20.664695560932159 3750.2150249779224 144.28425216674805 61.807832688093185 8700.5125489681959
leaf_count=129 15864 633 468 70100
internal_value=9.2856e-05 0.0267135 -0.0615092 0.0282906
internal_weight=12677.5 8865.46 3812.02 8721.18
internal_count=87194 70862 16332 70229
is_linear=0
shrinkage=0.0243659


Tree=12
num_leaves=4
num_cat=0
split_feature=35 39 33
split_gain=33417.2 2019.86 837.909
threshold=25.651736259460453 3970.5000000000005 9.0000000000000018
decision_type=2 2 2
left_child=1 -1 -2
right_child=2 -3 -4
leaf_value=-0.053965074452874809 -0.060618043392769348 0.028277296487338992 0.019024485488516523
leaf_weight=151.02276986837387 3807.9793536812067 8528.2960243225098 65.639374956488609
leaf_count=654 15891 70117 506
internal_value=9.18855e-05 0.0266431 -0.059116
internal_weight=12552.9 8679.32 3873.62
internal_count=87168 70771 16397
is_linear=0
shrinkage=0.0243659


Tree=13
num_leaves=4
num_cat=0
split_feature=40 39 34
split_gain=31761.2 2022.73 732.96
threshold=5.0764400959014901 6400.5000000000009 249.80000305175784
decision_type=2 2 2
left_child=1 -1 -2
right_child=2 -3 -4
leaf_value=-0.052588973262490263 0.018453280563829048 0.028163133728892214 -0.058484850451258064
leaf_weight=158.37295561283827 60.475634440779686 8341.7092742919922 3850.6554538160563
leaf_count=676 470 69993 15884
internal_value=2.72358e-05 0.0264568 -0.0571477
internal_weight=12411.2 8500.08 3911.13
internal_count=87023 70669 16354
is_linear=0
shrinkage=0.0243659


Tree=14
num_leaves=4
num_cat=0
split_feature=40 39 33
split_gain=30332.4 1875.75 693.092
threshold=5.0764400959014901 3970.5000000000005 9.0000000000000018
decision_type=2 2 2
left_child=1 -1 -2
right_child=2 -3 -4
leaf_value=-0.050627110901280997 -0.056540233364556831 0.028053040012616486 0.018351887864314274
leaf_weight=154.16533819586039 3889.2314210310578 8200.0230751037598 60.041360341012478
leaf_count=650 15894 70227 473
internal_value=0.000112419 0.0264035 -0.055256
internal_weight=12303.5 8354.19 3949.27
internal_count=87244 70877 16367
is_linear=0
shrinkage=0.0243659


Tree=15
num_leaves=4
num_cat=0
split_feature=40 39 33
split_gain=28772.8 1895.62 659.168
threshold=5.0764400959014901 3970.5000000000005 9.0000000000000018
decision_type=2 2 2
left_child=1 -1 -2
right_child=2 -3 -4
leaf_value=-0.049583815309100707 -0.054761124988877148 0.027945499822560203 0.018273494557059008
leaf_weight=162.02563255280256 3904.2386759668589 8004.9764022827148 59.775587186217308
leaf_count=676 15837 69981 477
internal_value=8.23968e-05 0.02621 -0.053515
internal_weight=12131 8167 3964.01
internal_count=86971 70657 16314
is_linear=0
shrinkage=0.0243659


Tree=16
num_leaves=4
num_cat=0
split_feature=35 32 33
split_gain=27554.4 1789.13 671.085
threshold=25.651736259460453 62186.099609375007 9.0000000000000018
decision_type=2 2 2
left_child=1 -1 -2
right_child=2 -3 -4
leaf_value=-0.047976827076777251 -0.053127163655344228 0.027841744045604504 0.018615867564417587
leaf_weight=159.70309322327375 3945.191555455327 7849.0612201690674 63.476378962397575
leaf_count=660 15915 70052 516
internal_value=5.0857e-05 0.0261352 -0.0518454
internal_weight=12017.4 8008.76 4008.67
internal_count=87143 70712 16431
is_linear=0
shrinkage=0.0243659


Tree=17
num_leaves=6
num_cat=0
split_feature=0 37 37 39 36
split_gain=24973 2810.39 435.272 39.708 39.3258
threshold=7.6999998092651376 23.94999980926514 24.050000190734867 215530.50000000003 13.868902683258058
decision_type=2 2 2 2 2
left_child=1 4 -3 -2 -1
right_child=3 2 -4 -5 -6
leaf_value=-0.0079090853167598767 -0.051595663590350796 0.027741300234987512 -0.02478786356222952 -0.011044801631422844 -0.047799377536538179
leaf_weight=31.134572416543961 3746.8423178419471 7706.0314487963915 70.304509967565536 35.384038664400578 274.18462657928467
leaf_count=194 15061 70182 348 209 1113
internal_value=9.07509e-05 0.024263 0.0271615 -0.0513172 -0.0449226
internal_weight=11863.9 8081.66 7776.34 3782.23 305.319
internal_count=87107 71837 70530 15270 1307
is_linear=0
shrinkage=0.0243659


Tree=18
num_leaves=4
num_cat=0
split_feature=40 32 34
split_gain=25232.6 1660.93 547.607
threshold=5.0764400959014901 62186.099609375007 249.80000305175784
decision_type=2 2 2
left_child=1 -1 -2
right_child=2 -3 -4
leaf_value=-0.045196606609754143 0.017706096085149552 0.027644268984565953 -0.050279997351569308
leaf_weight=161.30133773386478 56.110810503363609 7540.4302043914795 3952.4666659981012
leaf_count=657 467 70145 15835
internal_value=0.000147628 0.0259285 -0.0491886
internal_weight=11710.3 7701.73 4008.58
internal_count=87104 70802 16302
is_linear=0
shrinkage=0.0243659


Tree=19
num_leaves=4
num_cat=0
split_feature=35 39 33
split_gain=24112.1 1598.54 555.006
threshold=25.651736259460453 3970.5000000000005 9.0000000000000018
decision_type=2 2 2
left_child=1 -1 -2
right_child=2 -3 -4
leaf_value=-0.044251980455093418 -0.048990942188620872 0.027548805604693243 0.017991007802209247
leaf_weight=159.66258907318115 3954.2793173119426 7363.3092193603516 58.910032816231251
leaf_count=647 15824 69950 499
internal_value=0.000130811 0.0258344 -0.047866
internal_weight=11536.2 7522.97 4013.19
internal_count=86920 70597 16323
is_linear=0
shrinkage=0.0243659


Tree=20
num_leaves=5
num_cat=0
split_feature=40 39 3 32
split_gain=23145.9 1620.13 336.325 21.6797
threshold=5.0764400959014901 6400.5000000000009 43.88435363769532 62186.099609375007
decision_type=2 2 2 2
left_child=1 -1 -2 -4
right_child=2 -3 3 -5
leaf_value=-0.043345206294025419 -0.047594857406180809 0.027457111055532519 -0.0070465546136014622 0.015061788116953445
leaf_weight=168.03910841792822 3958.9956784397364 7226.9343414306641 16.695178493857384 38.948860168457031
leaf_count=678 15883 70111 94 339
internal_value=0.000115252 0.0256589 -0.0467581 0.00827016
internal_weight=11409.6 7394.97 4014.64 55.644
internal_count=87105 70789 16316 433
is_linear=0
shrinkage=0.0243659


Tree=21
num_leaves=4
num_cat=0
split_feature=40 32 33
split_gain=22238.5 1560.4 483.426
threshold=5.0764400959014901 62186.099609375007 9.0000000000000018
decision_type=2 2 2
left_child=1 -1 -2
right_child=2 -3 -4
leaf_value=-0.042352265936405231 -0.046713708448151113 0.027367891211272678 0.017468953597327686
leaf_weight=166.89728210121393 3951.7394801899791 7086.3568687438965 54.83630258589983
leaf_count=671 15827 70215 469
internal_value=0.000153826 0.0255752 -0.0456969
internal_weight=11259.8 7253.25 4006.58
internal_count=87182 70886 16296
is_linear=0
shrinkage=0.0243659


Tree=22
num_leaves=5
num_cat=0
split_feature=40 41 33 37
split_gain=21418 1393.86 460.973 55.2533
threshold=5.0764400959014901 20.790657997131351 9.0000000000000018 15.34999990463257
decision_type=2 2 2 2
left_child=1 3 -2 -1
right_child=2 -3 -4 -5
leaf_value=-0.0085683941417961391 -0.045683636748597919 -0.041264656920151369 0.017321528924199008 0.027272346933463677
leaf_weight=11.39748741686344 3955.6895846873522 152.49272918701172 53.946363493800163 6927.3184612765908
leaf_count=62 15877 611 467 70099
internal_value=9.3578e-05 0.0255124 -0.0446986 0.0271723
internal_weight=11100.8 7091.21 4009.64 6938.72
internal_count=87116 70772 16344 70161
is_linear=0
shrinkage=0.0243659


end of trees

feature_importances:
Column_33=17
Column_40=13
Column_39=11
Column_32=10
Column_35=8
Column_37=6
Column_34=3
Column_36=3
Column_0=2
Column_3=2
Column_41=2

parameters:
[boosting: gbdt]
[objective: binary]
[metric: average_precision,binary_logloss]
[tree_learner: serial]
[device_type: gpu]
[data_sample_strategy: bagging]
[data: ]
[valid: ]
[num_iterations: 1635]
[learning_rate: 0.0243659]
[num_leaves: 117]
[num_threads: 24]
[seed: 50060]
[deterministic: 0]
[force_col_wise: 1]
[force_row_wise: 0]
[histogram_pool_size: -1]
[max_depth: -1]
[min_data_in_leaf: 124]
[min_sum_hessian_in_leaf: 0.001]
[bagging_fraction: 0.882922]
[pos_bagging_fraction: 1]
[neg_bagging_fraction: 1]
[bagging_freq: 1]
[bagging_seed: 22383]
[bagging_by_query: 0]
[feature_fraction: 0.755028]
[feature_fraction_bynode: 1]
[feature_fraction_seed: 27474]
[extra_trees: 0]
[extra_seed: 8662]
[early_stopping_round: 0]
[early_stopping_min_delta: 0]
[first_metric_only: 0]
[max_delta_step: 0]
[lambda_l1: 0.00908281]
[lambda_l2: 33.6936]
[linear_lambda: 0]
[min_gain_to_split: 0.293158]
[drop_rate: 0.1]
[max_drop: 50]
[skip_drop: 0.5]
[xgboost_dart_mode: 0]
[uniform_drop: 0]
[drop_seed: 30173]
[top_rate: 0.2]
[other_rate: 0.1]
[min_data_per_group: 100]
[max_cat_threshold: 32]
[cat_l2: 10]
[cat_smooth: 10]
[max_cat_to_onehot: 4]
[top_k: 20]
[monotone_constraints: ]
[monotone_constraints_method: basic]
[monotone_penalty: 0]
[feature_contri: ]
[forcedsplits_filename: ]
[refit_decay_rate: 0.9]
[cegb_tradeoff: 1]
[cegb_penalty_split: 0]
[cegb_penalty_feature_lazy: ]
[cegb_penalty_feature_coupled: ]
[path_smooth: 0]
[interaction_constraints: ]
[verbosity: 1]
[saved_feature_importance_type: 0]
[use_quantized_grad: 0]
[num_grad_quant_bins: 4]
[quant_train_renew_leaf: 0]
[stochastic_rounding: 1]
[linear_tree: 0]
[max_bin: 255]
[max_bin_by_feature: ]
[min_data_in_bin: 3]
[bin_construct_sample_cnt: 200000]
[data_random_seed: 32441]
[is_enable_sparse: 1]
[enable_bundle: 1]
[use_missing: 1]
[zero_as_missing: 0]
[feature_pre_filter: 1]
[pre_partition: 0]
[two_round: 0]
[header: 0]
[label_column: ]
[weight_column: ]
[group_column: ]
[ignore_column: ]
[categorical_feature: ]
[forcedbins_filename: ]
[precise_float_parser: 0]
[parser_config_file: ]
[objective_seed: 31074]
[num_class: 1]
[is_unbalance: 0]
[scale_pos_weight: 1]
[sigmoid: 1]
[boost_from_average: 1]
[reg_sqrt: 0]
[alpha: 0.9]
[fair_c: 1]
[poisson_max_delta_step: 0.7]
[tweedie_variance_power: 1.5]
[lambdarank_truncation_level: 30]
[lambdarank_norm: 1]
[label_gain: ]
[lambdarank_position_bias_regularization: 0]
[eval_at: ]
[multi_error_top_k: 1]
[auc_mu_weights: ]
[num_machines: 1]
[local_listen_port: 12400]
[time_out: 120]
[machine_list_filename: ]
[machines: ]
[gpu_platform_id: -1]
[gpu_device_id: -1]
[gpu_use_dp: 0]
[num_gpu: 1]

end of parameters

pandas_categorical:null
